tree
version=v4
num_class=1
num_tree_per_iteration=1
label_index=0
max_feature_idx=40
objective=gamma
feature_names=toi_per_game_l5 toi_per_game_l10 toi_per_game_l20 toi_per_game_season toi_per_game_ewma ev_toi_per_game_l10 pp_toi_per_game_l10 sh_toi_per_game_l10 pp_unit shots_per_game_l5 shots_per_game_l10 shots_per_game_l20 shots_per_game_season shots_per_game_ewma icf_per_60_l10 isf_per_60_l10 shooting_pct_l20 is_forward is_defense line_number opponent_sa_per_60 opponent_ca_per_60 opponent_shot_quality team_pace team_shot_share expected_game_pace home_away rest_days back_to_back venue_sog_bias games_played lineup_confidence projected_toi projected_toi_std team_id opponent_team_id venue_encoded team_shots_per_game team_goals_per_game opp_shots_against_per_game opp_goals_against_per_game
feature_infos=[0:29.563333333333333] [0:28.726666666666667] [0:27.703333333333333] [0:26.949999999999999] [0:33.100000000000001] [0:13] [0:1.5] [0:0.5] none [0:7.2000000000000002] [0:7] [0:7] [0:7] [0:13] [0:81.203007518796994] [0:54.13533834586466] none [0:1] [0:1] [3:4] none none none [6.8143859258434469:9.6555927204520007] none [6.9943512637989489:9.6345082920131162] [0:1] [0:166] [0:1] [-0.41607710272201648:0.292256230611317] [0:76] [0:1] [0:33.100000000000001] [0:18.809040379562166] [1:67] [1:67] [0:98] [0:33] [0:7] [0:33] [0:7]
tree_sizes=1704 1793 1788 1788 1776 1810 1800 1737

Tree=0
num_leaves=15
num_cat=0
split_feature=11 30 14 3 3 3 29 30 1 37 2 12 12 14
split_gain=1.83615 0.678901 0.665445 0.78108 0.57028 0.526638 0.480246 0.494635 0.455536 0.427678 0.432214 0.404144 0.394125 0.351085
threshold=1.5751879699248124 41.500000000000007 2.1752707167613914 15.230515873015875 17.041101851851856 18.1912205882353 0.029524749129835496 9.5000000000000018 18.644722222222224 12.500000000000002 11.367708333333335 0.70412457912457926 1.7481343283582091 13.977127026915122
decision_type=2 2 2 2 2 2 2 2 2 2 2 2 2 2
left_child=1 9 4 -4 -3 12 7 -7 -8 11 -11 -1 -2 -14
right_child=5 2 3 -5 -6 6 8 -9 -10 10 -12 -13 13 -15
leaf_value=0.61909142810743334 0.62081973178737249 0.6127110387843584 0.61973892093223559 0.62086297072032348 0.61955956684280999 0.61986533040527281 0.6219357484469632 0.62121210929984838 0.61999395621463005 0.62007556488730742 0.61930838682577616 0.62025721820884816 0.61984862887490577 0.62056306200772682
leaf_weight=915.80841393396258 2225.1265746168792 50.701576828956604 2926.7813326343894 3232.2248816043139 94.438913516700268 755.79633931815624 339.98979256302118 4953.7655533254147 2475.7642402984202 2390.8663436509669 9032.7072429917753 3835.8229082301259 5595.2741694077849 2471.9316890798509
leaf_count=935 2193 59 2949 3183 96 760 327 4844 2482 2393 9178 3824 5625 2449
internal_value=0.62011 0.619805 0.620242 0.620325 0.616929 0.620474 0.620765 0.621029 0.620221 0.619633 0.619467 0.620037 0.62023 0.620071
internal_weight=41297 22479.4 6304.15 6159.01 145.14 18817.6 8525.32 5709.56 2815.75 16175.2 11423.6 4751.63 10292.3 8067.21
internal_count=41297 22617 6287 6132 155 18680 8413 5604 2809 16330 11571 4759 10267 8074
is_linear=0
shrinkage=1


Tree=1
num_leaves=15
num_cat=0
split_feature=12 4 14 30 35 30 4 4 39 14 3 0 2 30
split_gain=1.52444 0.753909 0.630167 0.831003 0.596676 0.583823 0.516713 0.503524 0.728212 0.424392 0.395447 0.566239 0.351407 0.29043
threshold=1.4452991452991455 8.9916666666666689 13.185810633725298 41.500000000000007 11.000000000000002 41.500000000000007 18.175000000000004 17.975000000000005 14.500000000000002 9.1906637230861126 18.1912205882353 18.928333333333338 20.035416666666674 10.500000000000002
decision_type=2 2 2 2 2 2 2 2 2 2 2 2 2 2
left_child=4 2 3 -2 7 6 -6 8 -1 -7 11 -3 -9 -12
right_child=1 10 -4 -5 5 9 -8 12 -10 -11 13 -13 -14 -15
leaf_value=-0.0016901724887014406 -0.0070544270829823331 0.00021587362664499148 8.9281739617420573e-05 0.00089276014314161069 -0.00013336198334770502 0.0006254484966683794 -0.0010012905235967382 0.00068395753838118491 -0.00039885467650171307 -0.00087764624373331743 -8.9761064020908471e-05 -0.0013081077095862873 -0.00080444089571439492 0.00068705957992046761
leaf_weight=2077.2153622955084 100.09549460932612 11399.726596210152 121.72092259675264 40.25446230173111 7659.0660712569952 3173.218794580549 2244.5117703452706 902.87796425819397 2439.0277049839497 537.03831873089075 1353.0674014948308 638.73693759739399 702.17072668671608 7908.1955365724862
leaf_count=2148 115 11350 121 39 7680 3133 2290 890 2459 547 1356 656 714 7799
internal_value=0 0.000290527 -0.00235337 -0.00461891 -0.000317608 -0.000130969 -0.000332753 -0.000728434 -0.000998806 0.000400794 0.000324449 0.000132734 1.70713e-05 0.000570873
internal_weight=41296.9 21561.8 262.071 140.35 19735.1 13613.8 9903.58 6121.29 4516.24 3710.26 21299.7 12038.5 1605.05 9261.26
internal_count=41297 21436 275 154 19861 13650 9970 6211 4607 3680 21161 12006 1604 9155
is_linear=0
shrinkage=0.05


Tree=2
num_leaves=15
num_cat=0
split_feature=11 35 30 4 37 1 14 4 0 33 30 3 5 36
split_gain=1.52179 0.658697 0.66996 0.564046 0.480016 0.497031 0.457184 0.445036 0.429676 1.13503 0.423415 0.401609 0.386307 0.283424
threshold=1.5751879699248124 11.000000000000002 41.500000000000007 8.6083333333333361 13.500000000000002 8.1113095238095259 9.1906637230861126 22.558333333333337 11.781666666666668 4.5255956623574818 49.500000000000007 8.8734768907563044 1.0000000180025095e-35 22.500000000000004
decision_type=2 2 2 2 2 2 2 2 2 2 2 2 2 2
left_child=1 4 7 8 5 -1 -4 -3 13 -10 -6 -5 -13 -2
right_child=3 2 6 11 10 -7 -8 -9 9 -11 -12 12 -14 -15
leaf_value=-0.0044250971196357763 -0.0031623736564377761 -0.00022753841195442302 0.00063655977100288456 -0.0056341677496464359 -0.0012505930573290846 -3.9142340897074064e-05 -0.00080951505269333973 -0.0016989831249593088 -0.011894019635193827 0.0007068181177710478 1.9210876764398511e-05 0.0004240870554396794 -0.00057192554724566592 0.0019701906968981847
leaf_weight=64.605301711708307 48.317541912198067 10575.365065325052 3773.5675100535154 25.411212988197803 3473.5695319622755 2673.4055517539382 623.37498103454709 545.88312415033579 33.140712834894657 28.937341272830963 761.79346529021859 17608.871052846313 1007.9477152340114 52.653558284044266
leaf_count=71 52 10624 3725 29 3561 2676 634 565 42 28 761 17459 1020 50
internal_value=0 -0.000277714 -9.44239e-05 0.00033173 -0.000681871 -0.000154911 0.000425585 -0.000302304 -0.0025601 -0.00579133 -0.0010164 0.000358636 0.000368763 -0.000256819
internal_weight=41296.8 22491.6 15518.2 18805.3 6973.37 2738.01 4396.94 11121.2 163.049 62.0781 4235.36 18642.2 18616.8 100.971
internal_count=41297 22617 15548 18680 7069 2747 4359 11189 172 70 4322 18508 18479 102
is_linear=0
shrinkage=0.05


Tree=3
num_leaves=15
num_cat=0
split_feature=11 23 32 11 3 23 30 14 25 0 33 3 5 36
split_gain=1.37337 0.655123 0.508041 0.438409 0.529038 0.50617 0.432689 0.555582 0.418561 0.383235 1.0196 0.363638 0.349111 0.256638
threshold=1.5751879699248124 8.7755915609300583 8.6083333333333361 1.2182539682539686 12.20043859649123 9.634508292013118 39.500000000000007 8.9772691034561962 7.6454379953970104 11.781666666666668 4.5255956623574818 8.8734768907563044 1.0000000180025095e-35 22.500000000000004
decision_type=2 2 2 2 2 2 2 2 2 2 2 2 2 2
left_child=1 6 9 5 -5 -3 8 -8 -1 13 -11 -4 -13 -2
right_child=2 3 11 4 -6 -7 7 -9 -10 10 -12 12 -14 -15
leaf_value=-0.0048096191992968865 -0.0030011714055218266 -0.0013770004295970337 -0.0053442841070152442 -0.0019422036731260662 0.00020067115713759168 0.00045767797388711015 0.00046482211758125652 -0.00095676256684177729 -0.00026322581304309722 -0.011203396757407273 0.00067421912664439949 0.00040306057694720882 -0.00054306743890716392 0.0018789424629078269
leaf_weight=49.542047426104546 48.470582753419876 2738.0392984524369 25.55478772521019 345.02031702920794 1631.0541171357036 412.29224923253059 4638.6414456032217 796.22573750093579 11886.910636220127 33.537243515253067 28.916895121335983 17601.404405657202 1008.5243627354503 52.549922525882721
leaf_count=55 52 2814 29 359 1624 408 4595 812 11950 42 28 17459 1020 50
internal_value=0 -0.000263946 0.000315033 -0.000761387 -0.000162419 -0.00112882 -0.000115637 0.000251682 -0.000284992 -0.00242495 -0.00546579 0.000340668 0.000350391 -0.000232718
internal_weight=41296.7 22497.7 18799 5126.41 1976.07 3150.33 17371.3 5434.87 11936.5 163.475 62.4541 18635.5 18609.9 101.021
internal_count=41297 22617 18680 5205 1983 3222 17412 5407 12005 172 70 18508 18479 102
is_linear=0
shrinkage=0.05


Tree=4
num_leaves=15
num_cat=0
split_feature=12 23 30 4 37 25 0 33 10 33 33 33 3 29
split_gain=1.14008 0.84438 0.495167 0.419087 0.762901 0.831271 0.457725 0.410573 0.349482 0.322887 0.758431 0.458259 0.322062 0.478121
threshold=1.3931498829039815 8.7476446698486754 56.500000000000007 8.7916666666666696 13.500000000000002 8.52356876645268 11.621111111111114 8.5751986881842672 0.47222222222222227 3.7962163713391988 4.3719149137137263 2.2605923506346279 18.377725366876316 0.029524749129835496
decision_type=2 2 2 2 2 2 2 2 2 2 2 2 2 2
left_child=1 2 7 4 5 -2 -6 -1 -4 11 -11 -3 -5 -14
right_child=3 9 8 12 6 -7 -8 -9 -10 10 -12 -13 13 -15
leaf_value=-0.00016419928219092256 -0.00027229396360492112 -0.0010817750205494921 -0.0033165828617447088 0.00010441008206194807 0.0018995742376616111 -0.01094592389049124 -0.0030966676186283291 -0.0035497753363253476 0.0009970302346144419 -0.0053067128180278537 -0.00062250280111731033 1.8042887982659969e-05 0.0007462154836085866 -2.3675970900961874e-05
leaf_weight=12582.173861023039 43.253554612398148 2937.8939238488674 44.420829109847546 13337.355060614645 121.17978332191706 37.789371304214001 70.980097629129887 89.036796603351831 1267.8210134245455 134.96348186209798 277.02610985934734 1331.9813762232661 6101.5919271185994 2919.1168305836618
leaf_count=12624 44 3002 48 13309 116 47 76 96 1242 150 281 1331 6010 2921
internal_value=0 -0.000289765 -9.3124e-05 0.000238072 -0.00168915 -0.00569409 0 -0.000190518 0.000827162 -0.00087145 -0.00223561 -0.000732988 0.000262888 0.000494356
internal_weight=41296.6 18665.3 13983.5 22631.3 273.203 81.0429 192.16 12671.2 1312.24 4681.86 411.99 4269.88 22358.1 9020.71
internal_count=41297 18774 14010 22523 283 91 192 12720 1290 4764 431 4333 22240 8931
is_linear=0
shrinkage=0.05


Tree=5
num_leaves=15
num_cat=0
split_feature=12 4 14 30 35 4 39 30 4 35 9 18 25 14
split_gain=1.03176 0.528637 0.554429 0.769306 0.479818 0.435297 0.661329 0.413662 0.455459 0.339291 0.851566 0.33049 0.328364 0.325208
threshold=1.4452991452991455 8.9916666666666689 13.185810633725298 41.500000000000007 11.000000000000002 17.975000000000005 14.500000000000002 41.500000000000007 18.175000000000004 41.000000000000007 0.77500000000000013 1.0000000180025095e-35 8.7230472695718593 9.1906637230861126
decision_type=2 2 2 2 2 2 2 2 2 2 2 2 2 2
left_child=4 2 3 -2 5 6 -1 8 -6 12 -11 -7 -3 -9
right_child=1 9 -4 -5 7 11 -8 13 -10 10 -12 -13 -14 -15
leaf_value=-0.0015379265978093949 -0.006426314971421012 4.2819489455380073e-05 0.00031894422395822543 0.0011975677434305251 -7.6780089112713878e-05 0.0019689118389816479 -0.00030939354213966691 0.00055123796618190292 -0.00089031209409420593 -0.0059692227399607512 0.00089324148430945563 -0.00019165679710829759 0.00050138649858834893 -0.00076145869599123471
leaf_weight=2083.3574742749333 101.23197614401579 12687.367060706019 122.29285158962011 40.518372371792793 7667.7224468924105 199.43203733861446 2443.3683821298182 3168.4534841254354 2249.4108279198408 43.114079985767603 2814.82205157727 1407.0987228006124 5729.9787332415581 538.27210632711649
leaf_count=2148 115 12676 121 39 7680 191 2459 3133 2290 49 2764 1413 5672 547
internal_value=-7.20355e-08 0.000238669 -0.00196525 -0.00408683 -0.000261612 -0.000629504 -0.000880757 -9.40903e-05 -0.000263969 0.000267379 0.000776873 6.3125e-05 0.000186884 0.000353566
internal_weight=41296.4 21539.3 264.043 141.75 19757.1 6133.26 4526.73 13623.9 9917.13 21275.3 2857.94 1606.53 18417.3 3706.73
internal_count=41297 21436 275 154 19861 6211 4607 13650 9970 21161 2813 1604 18348 3680
is_linear=0
shrinkage=0.05


Tree=6
num_leaves=15
num_cat=0
split_feature=11 35 30 37 3 2 32 32 10 11 3 30 32 12
split_gain=1.04337 0.537535 0.48922 0.425598 0.433289 0.427778 0.396068 0.392427 0.371554 0.341123 0.305831 0.394208 0.32438 0.194029
threshold=1.5751879699248124 11.000000000000002 41.500000000000007 13.500000000000002 10.433928571428572 11.447916666666668 22.558333333333337 8.6083333333333361 1.8944444444444446 1.8208556149732622 18.1912205882353 10.500000000000002 13.658333333333335 2.0629960317460321
decision_type=2 2 2 2 2 2 2 2 2 2 2 2 2 2
left_child=1 3 6 4 -1 -5 -3 9 -4 -2 12 -12 -9 -11
right_child=7 2 8 5 -6 -7 -8 10 -10 13 11 -13 -14 -15
leaf_value=-0.0019988933428849625 -0.0055406369871728138 -0.00017157328595440488 0.00045323301628342246 6.8730355916693633e-05 9.982693656461284e-05 -0.0011601057100261625 -0.0015568902260923306 0.00071785446210217161 -0.0026692837999297441 0.0015181671537753908 -0.00029073566327160948 0.00066135550113918405 -1.9875603476667515e-05 -0.0024355534248771899
leaf_weight=269.6403933018446 49.763900063931942 10587.163809336722 4299.4915509931743 846.66658018901944 2471.4383186846972 3397.6215671747923 547.39311204478145 1797.3331876248121 93.406651429831982 54.206621006131172 1238.288089286536 7246.3750994205475 8337.1850925944746 60.457622423768044
leaf_count=281 56 10624 4260 845 2466 3477 565 1771 99 52 1246 7150 8341 64
internal_value=-8.3066e-08 -0.000230244 -6.45388e-05 -0.000594882 -9.88176e-05 -0.000909168 -0.00024219 0.000274438 0.000379966 -0.0021246 0.000297192 0.000519422 0.000108609 -0.000358189
internal_weight=41296.4 22512.8 15527.5 6985.37 2741.08 4244.29 11134.6 18783.6 4392.9 164.428 18619.2 8484.66 10134.5 114.664
internal_count=41297 22617 15548 7069 2747 4322 11189 18680 4359 172 18508 8396 10112 116
is_linear=0
shrinkage=0.05


Tree=7
num_leaves=15
num_cat=0
split_feature=11 23 11 1 23 4 14 14 30 0 33 0 29 14
split_gain=0.941758 0.509468 0.383445 0.580401 0.453805 0.345665 0.327675 0.668555 0.341406 0.320776 0.92664 0.291892 0.419872 0.313544
threshold=1.552777777777778 8.7755915609300583 1.2182539682539686 12.502023809523811 9.634508292013118 8.6083333333333361 13.754363765944674 14.469930930752932 39.500000000000007 11.781666666666668 4.5255956623574818 20.585000000000004 0.029524749129835496 10.535548887661426
decision_type=2 2 2 2 2 2 2 2 2 2 2 2 2 2
left_child=1 6 4 -4 -3 9 8 -8 -1 -2 -11 13 -13 -7
right_child=5 2 3 -5 -6 11 7 -9 -10 10 -12 12 -14 -15
leaf_value=-0.00021995342638311279 0 -0.0012357619822473652 -0.0017978507713584805 0.00033294011120992196 0.00050066422369166941 0.00049474596354812225 -0.0075476220147237989 0 0.00025979380737330777 -0.010173856105789258 0.0010835665728747123 0.00098187075366561421 -3.4065601168359092e-05 0
leaf_weight=11740.842453300953 102.52563090622425 2745.592576533556 399.07841942831874 1544.7998284064233 412.65202886611223 4854.5552321560681 42.745549991726875 97.683448255062103 5386.498045463115 34.145265378057957 29.175617307424545 2949.4590642601252 1480.4899424575269 9476.1246735565364
leaf_count=11793 103 2814 414 1534 408 4806 50 98 5358 42 28 2891 1482 9476
internal_value=-1.6017e-07 -0.000220383 -0.000660027 -9.30621e-05 -0.0010008 0.000258804 -8.89722e-05 -0.00248229 -6.76021e-05 -0.00198202 -0.00472982 0.000280155 0.000636842 0.000168077
internal_weight=41296.4 22369.9 5102.12 1943.88 3158.24 18926.5 17267.8 140.429 17127.3 165.847 63.3209 18760.6 4429.95 14330.7
internal_count=41297 22469 5170 1948 3222 18828 17299 148 17151 173 70 18655 4373 14282
is_linear=0
shrinkage=0.05


end of trees

feature_importances:
games_played=14
icf_per_60_l10=11
toi_per_game_season=10
toi_per_game_ewma=10
shots_per_game_l20=8
projected_toi_std=7
toi_per_game_l5=6
shots_per_game_season=6
team_pace=5
opponent_team_id=5
projected_toi=4
team_shots_per_game=4
toi_per_game_l10=3
toi_per_game_l20=3
expected_game_pace=3
venue_sog_bias=3
ev_toi_per_game_l10=2
shots_per_game_l10=2
venue_encoded=2
opp_shots_against_per_game=2
shots_per_game_l5=1
is_defense=1

parameters:
[boosting: gbdt]
[objective: gamma]
[metric: gamma]
[tree_learner: serial]
[device_type: cpu]
[data_sample_strategy: bagging]
[data: ]
[valid: ]
[num_iterations: 100]
[learning_rate: 0.05]
[num_leaves: 15]
[num_threads: -1]
[seed: 42]
[deterministic: 0]
[force_col_wise: 0]
[force_row_wise: 0]
[histogram_pool_size: -1]
[max_depth: 4]
[min_data_in_leaf: 30]
[min_sum_hessian_in_leaf: 0.001]
[bagging_fraction: 0.8]
[pos_bagging_fraction: 1]
[neg_bagging_fraction: 1]
[bagging_freq: 0]
[bagging_seed: 400]
[bagging_by_query: 0]
[feature_fraction: 0.8]
[feature_fraction_bynode: 1]
[feature_fraction_seed: 30056]
[extra_trees: 0]
[extra_seed: 12879]
[early_stopping_round: 0]
[early_stopping_min_delta: 0]
[first_metric_only: 0]
[max_delta_step: 0]
[lambda_l1: 0.5]
[lambda_l2: 2]
[linear_lambda: 0]
[min_gain_to_split: 0]
[drop_rate: 0.1]
[max_drop: 50]
[skip_drop: 0.5]
[xgboost_dart_mode: 0]
[uniform_drop: 0]
[drop_seed: 17869]
[top_rate: 0.2]
[other_rate: 0.1]
[min_data_per_group: 100]
[max_cat_threshold: 32]
[cat_l2: 10]
[cat_smooth: 10]
[max_cat_to_onehot: 4]
[top_k: 20]
[monotone_constraints: ]
[monotone_constraints_method: basic]
[monotone_penalty: 0]
[feature_contri: ]
[forcedsplits_filename: ]
[refit_decay_rate: 0.9]
[cegb_tradeoff: 1]
[cegb_penalty_split: 0]
[cegb_penalty_feature_lazy: ]
[cegb_penalty_feature_coupled: ]
[path_smooth: 0]
[interaction_constraints: ]
[verbosity: -1]
[saved_feature_importance_type: 0]
[use_quantized_grad: 0]
[num_grad_quant_bins: 4]
[quant_train_renew_leaf: 0]
[stochastic_rounding: 1]
[linear_tree: 0]
[max_bin: 255]
[max_bin_by_feature: ]
[min_data_in_bin: 3]
[bin_construct_sample_cnt: 200000]
[data_random_seed: 175]
[is_enable_sparse: 1]
[enable_bundle: 1]
[use_missing: 1]
[zero_as_missing: 0]
[feature_pre_filter: 1]
[pre_partition: 0]
[two_round: 0]
[header: 0]
[label_column: ]
[weight_column: ]
[group_column: ]
[ignore_column: ]
[categorical_feature: ]
[forcedbins_filename: ]
[precise_float_parser: 0]
[parser_config_file: ]
[objective_seed: 16083]
[num_class: 1]
[is_unbalance: 0]
[scale_pos_weight: 1]
[sigmoid: 1]
[boost_from_average: 1]
[reg_sqrt: 0]
[alpha: 0.9]
[fair_c: 1]
[poisson_max_delta_step: 0.7]
[tweedie_variance_power: 1.5]
[lambdarank_truncation_level: 30]
[lambdarank_norm: 1]
[label_gain: ]
[lambdarank_position_bias_regularization: 0]
[eval_at: ]
[multi_error_top_k: 1]
[auc_mu_weights: ]
[num_machines: 1]
[local_listen_port: 12400]
[time_out: 120]
[machine_list_filename: ]
[machines: ]
[gpu_platform_id: -1]
[gpu_device_id: -1]
[gpu_use_dp: 0]
[num_gpu: 1]

end of parameters

pandas_categorical:[]
