tree
version=v4
num_class=1
num_tree_per_iteration=1
label_index=0
max_feature_idx=47
objective=gamma
feature_names=toi_per_game_l5 toi_per_game_l10 toi_per_game_l20 toi_per_game_season toi_per_game_ewma ev_toi_per_game_l10 pp_toi_per_game_l10 sh_toi_per_game_l10 pp_unit shots_per_game_l5 shots_per_game_l10 shots_per_game_l20 shots_per_game_season shots_per_game_ewma icf_per_60_l10 isf_per_60_l10 shooting_pct_l20 is_forward is_defense line_number opponent_sa_per_60 opponent_ca_per_60 opponent_shot_quality team_pace team_shot_share expected_game_pace home_away rest_days back_to_back venue_sog_bias games_played lineup_confidence projected_toi projected_toi_std shots_trend_l5_vs_l20 toi_trend_l5_vs_l20 shot_consistency_l10 toi_consistency_l10 opponent_rest_days team_rest_days rest_advantage team_id opponent_team_id venue_encoded team_shots_per_game team_goals_per_game opp_shots_against_per_game opp_goals_against_per_game
feature_infos=[0:29.563333333333333] [0:28.726666666666667] [0:27.703333333333333] [0:26.949999999999999] [0:33.100000000000001] [0:13] [0:1.5] [0:0.5] none [0:7.2000000000000002] [0:7] [0:7] [0:7] [0:13] [0:81.203007518796994] [0:54.13533834586466] none [0:1] [0:1] [3:4] none none none [6.8143859258434469:9.6555927204520007] none [6.9943512637989489:9.6345082920131162] [0:1] [0:166] [0:1] [-0.41607710272201648:0.292256230611317] [0:76] [0:1] [0:33.100000000000001] [0:18.809040379562166] [-2.0999999999999996:3.2000000000000002] [-6.9949999999999974:6.9980952380952353] [0:4.9497474683058327] [0:18.809040379562166] [0:14] [0:14] [-13:13] [1:67] [1:67] [0:98] [0:33] [0:7] [0:33] [0:7]
tree_sizes=1673 1760 1762 1774 1765 1771 1773 1768 1774 1775 1776 1779 1749 1785 1775 1784 1763 1750 1775 1787 1772 1778 1776 1775 1779 1785 1777 1790 1778 1755 1781 1786 1784 1786 1782 1778 1778 1778 1781 1782 1784 1781 1776 1781 1783 1790 1782 1774 1762 1780 1797 1778 1774 1790 1781 1782 1753 1778 1778 1785 1776 1781 1781 1776 1778 1666 1781 1764 1756 1779 1750 1561 1777 1558 1779

Tree=0
num_leaves=15
num_cat=0
split_feature=12 11 0 12 4 31 12 12 12 4 31 4 18 46
split_gain=3132.87 706.746 161.642 100.638 99.7866 55.5947 55.0932 42.0368 40.6004 32.389 31.7267 30.0971 16.4409 5.0362
threshold=1.4818121693121695 0.7947368421052633 15.041666666666668 0.99275362318840588 12.191666666666668 0.75000000000000011 2.0281746031746035 1.286796536796537 1.7153518123667379 10.408333333333335 0.45000000000000007 13.458333333333334 1.0000000180025095e-35 1.0000000180025095e-35
decision_type=2 2 2 2 2 2 2 2 2 2 2 2 2 2
left_child=1 4 6 9 10 -6 11 -5 12 -3 -1 -2 -4 -10
right_child=2 3 8 7 5 -7 -8 -9 13 -11 -12 -13 -14 -15
leaf_value=2.5643438516053925 2.5929780935913085 2.5626129873903536 2.6093319795242298 2.5862897818242296 2.5794412147814558 2.560477580852536 2.6107503313002938 2.5931578369168031 2.5998289018695555 2.5795848163153772 2.5418903395732317 2.602166500696959 2.6017325345002797 2.6127261551474907
leaf_weight=218.65152098052204 1356.1690744590014 337.49634556099772 1841.4797198856249 6277.0024878983386 562.71095758862793 1338.2815153603442 1335.1699783550575 3490.229626539629 80.150845943018794 1918.2422788366675 812.79465376771986 2588.1132798735052 1177.763487351127 17962.74407855887
leaf_count=374 1532 588 1476 7928 789 2383 1032 3929 79 2681 1751 2446 1123 13186
internal_value=2.59943 2.58116 2.60981 2.58653 2.55915 2.56605 2.60198 2.58874 2.61177 2.577 2.54655 2.59901 2.60638 2.61267
internal_weight=41297 14955.4 26341.6 12023 2932.44 1900.99 5279.45 9767.23 21062.1 2255.74 1031.45 3944.28 3019.24 18042.9
internal_count=41297 20423 20874 15126 5297 3172 5010 11857 15864 3269 2125 3978 2599 13265
is_linear=0
shrinkage=1


Tree=1
num_leaves=15
num_cat=0
split_feature=12 11 1 12 32 12 30 12 11 32 32 30 18 12
split_gain=2803.9 591.928 147.168 86.5875 78.7913 47.86 46.1866 41.0387 38.0709 28.2062 27.5488 24.3283 16.1465 4.89538
threshold=1.4818121693121695 0.7947368421052633 15.000833333333334 0.99275362318840588 12.191666666666668 2.0281746031746035 5.5000000000000009 1.7153518123667379 1.2899159663865549 13.458333333333334 11.058333333333335 4.5000000000000009 1.0000000180025095e-35 2.543358395989975
decision_type=2 2 2 2 2 2 2 2 2 2 2 2 2 2
left_child=1 4 5 10 11 9 -6 12 -5 -2 -3 -1 -4 -9
right_child=2 3 7 8 6 -7 -8 13 -10 -11 -12 -13 -14 -15
leaf_value=-0.03218070205579756 -0.0064005542386942633 -0.032039876662108516 0.0093484607764842634 -0.01249629096198393 -0.01670455013163296 0.010868430972631691 -0.034946051853577569 0.012053131648944471 -0.0060857096010882884 0.0026369971043733831 -0.018072289731814625 -0.051542794877104919 0.0018354181147573771 0.013822704575626061
leaf_weight=226.45996136311442 1305.1680047316477 448.69546084059402 1827.5740754846483 6094.7618006481789 466.858569777105 1236.7696481538005 1498.6583257522434 11224.88164815912 3777.4832444158383 2538.4850350385532 1858.154852190055 860.93665738869458 1191.3042446793988 6746.0168755427003
leaf_count=374 1473 738 1485 7619 624 967 2548 8518 4238 2404 2531 1751 1147 4880
internal_value=5.69963e-06 -0.0170359 0.00996406 -0.0120942 -0.0367209 0.00232097 -0.0306473 0.0118124 -0.0100476 -0.000427066 -0.0208253 -0.0475999 0.00639513 0.0127203
internal_weight=41302.2 15232 26070.2 12179.1 3052.91 5080.42 1965.52 20989.8 9872.25 3843.65 2306.85 1087.4 3018.88 17970.9
internal_count=41297 20423 20874 15126 5297 4844 3172 16030 11857 3877 3269 2125 2632 13398
is_linear=0
shrinkage=0.05


Tree=2
num_leaves=15
num_cat=0
split_feature=12 12 0 12 30 12 12 4 12 4 4 4 35 44
split_gain=2511.77 510.785 139.691 80.8026 78.5357 121.467 46.3629 35.5859 35.047 24.2853 22.6117 16.8257 8.46396 5.03169
threshold=1.4818121693121695 0.81725417439703174 15.041666666666668 0.99275362318840588 5.5000000000000009 0.6478537360890303 2.0281746031746035 14.04166666666667 1.7153518123667379 13.458333333333334 11.875000000000002 11.625000000000002 -1.7456944444444449 4.5000000000000009
decision_type=2 2 2 2 2 2 2 2 2 2 2 2 2 2
left_child=1 4 6 10 11 -6 9 -5 12 -2 -3 -1 -4 -10
right_child=2 3 8 7 5 -7 -8 -9 13 -11 -12 -13 -14 -15
leaf_value=-0.031784139547467234 -0.0057930555467025557 -0.028739118635151984 -0.011806161248508737 -0.013433406326781652 -0.05304130247550868 -0.029108128435759856 0.010437832300352966 -0.0072833502254379323 -0.00031895850347935466 0.0024375201285943698 -0.017035092033660045 -0.015803214187625304 0.0067741791639453893 0.012329833309937463
leaf_weight=247.74279957916588 1372.2749750255607 564.10996935609728 59.887033973820508 3733.0193478199653 934.27504358068109 1268.0970432730392 1305.4359418922104 6479.3771924050525 75.008749239146709 2571.9826851966791 1715.3840814800933 552.30423088185489 2920.443057641387 17507.214439755771
leaf_count=407 1532 890 75 4737 1928 2008 1032 7424 76 2446 2301 728 2524 13189
internal_value=1.09615e-05 -0.0159012 0.00956399 -0.011444 -0.0344173 -0.0393111 0.0022773 -0.00953607 0.0114227 -0.000421188 -0.0199651 -0.02085 0.00638477 0.0122744
internal_weight=41306.6 15494.3 25812.2 12491.9 3002.42 2202.37 5249.69 10212.4 20562.6 3944.26 2279.49 800.047 2980.33 17582.2
internal_count=41297 20423 20874 15352 5071 3936 5010 12161 15864 3978 3191 1135 2599 13265
is_linear=0
shrinkage=0.05


Tree=3
num_leaves=15
num_cat=0
split_feature=12 12 0 11 30 11 12 12 4 4 4 18 0 44
split_gain=2251.76 434.972 129.098 82.4807 91.9946 43.5291 42.3848 32.6229 29.7062 25.3837 21.8344 13.9539 12.4308 4.66499
threshold=1.4818121693121695 0.91734972677595639 15.041666666666668 0.70294117647058829 6.5000000000000009 1.2899159663865549 2.0281746031746035 1.7153518123667379 12.275000000000002 13.325000000000001 13.458333333333334 1.0000000180025095e-35 12.541666666666668 4.5000000000000009
decision_type=2 2 2 2 2 2 2 2 2 2 2 2 2 2
left_child=1 3 6 4 -1 12 10 11 -5 -7 -2 -4 -3 -9
right_child=2 5 7 8 -6 9 -8 13 -10 -11 -12 -13 -14 -15
leaf_value=-0.020643542989146568 -0.0054712439607065158 -0.015399743969963709 0.0088722118390899309 -0.029705180203943901 -0.041833082399051411 -0.012459716586072367 0.010023367071464326 -0.00030332758082261151 -0.016897724999039018 -0.0029845540077085954 0.0023215347124935521 0.0018143198326139717 -0.010642726264401783 0.011862545844666023
leaf_weight=789.65055442880839 1380.247710979078 1894.4141529807821 1795.4464709805325 675.18308660853654 1525.4996370449662 936.60496298363432 1291.8808977412991 75.03267634101212 1476.7498372672126 2920.0779982837848 2565.7210321449675 1165.8780739940703 5525.0437336158939 17292.678022746928
leaf_count=1117 1532 2479 1476 1078 2804 1171 1032 76 1977 3095 2446 1123 6702 13189
internal_value=1.52608e-05 -0.0148594 0.00917597 -0.0280641 -0.0346406 -0.00962197 0.00216943 0.0109796 -0.0209516 -0.00529736 -0.000399335 0.00610505 -0.0118645 0.0118085
internal_weight=41310.1 15743.2 25566.9 4467.08 2315.15 11276.1 5237.85 20329 2151.93 3856.68 3945.97 2961.32 7419.46 17367.7
internal_count=41297 20423 20874 6976 3921 13447 5010 15864 3055 4266 3978 2599 9181 13265
is_linear=0
shrinkage=0.05


Tree=4
num_leaves=15
num_cat=0
split_feature=12 12 0 12 30 12 12 4 12 4 0 18 0 12
split_gain=2020.12 371.585 119.198 69.316 100.484 39.597 38.7282 34.7979 30.3151 24.0041 20.0898 12.8099 11.79 4.47957
threshold=1.4818121693121695 0.91734972677595639 15.041666666666668 0.66397849462365599 6.5000000000000009 1.286796536796537 2.0281746031746035 11.875000000000002 1.7153518123667379 14.158333333333335 13.481666666666667 1.0000000180025095e-35 12.401666666666669 2.3516016016016019
decision_type=2 2 2 2 2 2 2 2 2 2 2 2 2 2
left_child=1 3 6 4 -1 12 10 -5 11 -7 -2 -4 -3 -10
right_child=2 5 8 7 -6 9 -8 -9 13 -11 -12 -13 -14 -15
leaf_value=-0.018804803352705259 -0.0055463662792908939 -0.014591627369676169 0.0085061052687835041 -0.029559309025114146 -0.043856325892950965 -0.010571882103806629 0.0096212808194018201 -0.017496995795239917 0.010551479919871449 -0.0018682342311194086 0.0020767176898143663 0.0017269660775797767 -0.0099570902257747913 0.01222692838330932
leaf_weight=672.00817668158561 1273.961053901352 1847.6979390457273 1779.5873465593904 873.13329110387713 1023.2372343875468 1178.8284220169298 1278.9965901090764 2025.8680324032903 8962.2149567524903 2439.2822655169293 2673.6305839885026 1163.7647228073329 5919.3180403127335 8201.5958278300241
leaf_count=926 1416 2388 1476 1391 1923 1429 1032 2736 7070 2531 2562 1123 7099 6195
internal_value=1.89083e-05 -0.013901 0.00880031 -0.0259043 -0.0339743 -0.00905133 0.00206641 -0.0211565 0.0105491 -0.00471518 -0.000378626 0.0058372 -0.0110663 0.0113549
internal_weight=41313.1 15979.4 25333.8 4594.25 1695.25 11385.1 5226.59 2899 20107.2 3618.11 3947.59 2943.35 7767.02 17163.8
internal_count=41297 20423 20874 6976 2849 13447 5010 4127 15864 3960 3978 2599 9487 13265
is_linear=0
shrinkage=0.05


Tree=5
num_leaves=15
num_cat=0
split_feature=11 11 2 4 11 10 11 11 4 4 4 4 18 4
split_gain=1778.04 342.172 100.951 61.1097 32.0206 28.2395 27.8076 26.502 21.0695 19.2168 16.8663 12.048 11.0678 5.54583
threshold=1.4721362229102171 0.89181286549707617 15.118480392156865 11.258333333333335 1.2899159663865549 2.0500000000000003 1.6754385964912284 0.65833333333333344 15.108333333333336 7.4083333333333341 13.125000000000002 12.858333333333336 1.0000000180025095e-35 10.175000000000002
decision_type=2 2 2 2 2 2 2 2 2 2 2 2 2 2
left_child=1 3 5 9 11 10 12 -5 -6 -1 -2 -3 -4 -7
right_child=2 4 6 7 8 13 -8 -9 -10 -11 -12 -13 -14 -15
leaf_value=-0.04647232119994596 -0.0047433024142837987 -0.013033222129863912 0.0079914281412597887 -0.025607069684219622 -0.0088498498285726791 -0.004691304387150869 0.010824921509508588 -0.016688020627819287 -0.0012105470201512732 -0.030168069074627248 0.0023387558512469354 -0.0086502222079933716 0.0013320808902736428 0.0091901485841310703
leaf_weight=236.15120977070183 1221.4373344150372 2253.5565954586491 1519.7132162130438 1475.7057290244848 1514.9962231339887 72.509102337062359 17034.979184719268 2033.972859124653 2252.9065922233276 1081.0371863776818 2684.1447549164295 5549.9823699155822 1076.2256711390801 1308.3453766535968
leaf_count=458 1338 2842 1276 2233 1784 80 13346 2714 2308 1735 2558 6511 1047 1067
internal_value=2.19803e-05 -0.0127625 0.00843693 -0.0239459 -0.00809205 0.00229687 0.0100887 -0.0204578 -0.00429185 -0.0331761 0.000116211 -0.00992219 0.00524337 0.00843742
internal_weight=41315.7 16398.3 24917.4 4826.87 11571.4 5286.44 19630.9 3509.68 3767.9 1317.19 3905.58 7803.54 2595.94 1380.85
internal_count=41297 20585 20712 7140 13445 5043 15669 4947 4092 2193 3896 9353 2323 1147
is_linear=0
shrinkage=0.05


Tree=6
num_leaves=15
num_cat=0
split_feature=11 11 1 4 11 11 4 11 3 4 4 18 18 11
split_gain=1597.53 294.776 104.638 50.8591 28.2299 27.6472 25.508 22.8866 19.0557 17.4781 15.4092 11.2359 11.1422 5.07321
threshold=1.4721362229102171 0.89181286549707617 15.000833333333334 11.258333333333335 1.2899159663865549 2.0606617647058827 20.558333333333337 1.6754385964912284 14.285050505050508 13.458333333333334 7.4083333333333341 1.0000000180025095e-35 1.0000000180025095e-35 2.5477272727272733
decision_type=2 2 2 2 2 2 2 2 2 2 2 2 2 2
left_child=1 3 5 10 11 9 -5 12 -6 -2 -1 -3 -4 -9
right_child=2 4 7 6 8 -7 -8 13 -10 -11 -12 -13 -14 -15
leaf_value=-0.042126740168801663 -0.0046680163841259677 -0.0077270655514698238 0.0080365472878173149 -0.020699328009588631 -0.0093209875027063047 0.0088658950076291407 -0.0081809136559601089 0.0096903622425294541 -0.0016527716573187204 0.0022266123616222857 -0.027789939075609005 -0.011604943423861267 0.001388392910032357 0.011509849331303213
leaf_weight=247.38470587413758 1438.9705205848441 4633.1741074747406 1584.4995937584899 3101.6362884892151 1182.6566118001938 1043.9690314852633 480.54656461346895 10404.320289822295 2601.4421022403985 2534.4540074514225 1114.1469087013975 3248.14501857711 1064.1034094314091 6638.0106163402088
leaf_count=458 1574 5350 1329 4387 1404 858 560 8387 2688 2421 1735 4003 1034 5109
internal_value=2.41527e-05 -0.011966 0.00808534 -0.0221989 -0.00762415 0.0016326 -0.0190325 0.00972794 -0.0040596 -0.000265072 -0.0304712 -0.00933097 0.00537808 0.0104018
internal_weight=41317.5 16609.1 24708.3 4943.71 11665.4 5017.39 3582.18 19690.9 3784.1 3973.42 1361.53 7881.32 2648.6 17042.3
internal_count=41297 20585 20712 7140 13445 4853 4947 15859 4092 3995 2193 9353 2363 13496
is_linear=0
shrinkage=0.05


Tree=7
num_leaves=15
num_cat=0
split_feature=12 12 0 11 30 12 1 12 18 12 0 35 18 30
split_gain=1489.01 264.122 78.2499 51.9137 61.0597 32.9772 26.3175 25.2679 17.8882 13.8705 12.8218 11.9512 9.08059 4.67184
threshold=1.520416666666667 0.93127066603684472 15.001666666666669 0.70294117647058829 6.5000000000000009 1.286796536796537 14.300833333333335 2.0281746031746035 1.0000000180025095e-35 1.7153518123667379 11.704444444444446 -1.7456944444444449 1.0000000180025095e-35 1.5000000000000002
decision_type=2 2 2 2 2 2 2 2 2 2 2 2 2 2
left_child=1 3 7 4 -1 12 -7 8 -2 11 -5 -4 -3 -11
right_child=2 5 9 10 -6 6 -8 -9 -10 13 -12 -13 -14 -15
leaf_value=-0.014562832440310466 0.0015130839317953626 -0.0075758029368925527 -0.018453272705522071 -0.021336788420435085 -0.030929767930357888 -0.0091175327264427751 -0.001018505500035536 0.008598876162754867 -0.0098410583788961555 0.0035451205445885844 -0.013183870611905363 0.006507008891775282 -0.011076685253342804 0.010211240905546284
leaf_weight=864.2104483647272 3142.6627690829337 4499.4569821357727 46.573279986158013 685.93396862503141 1748.5919460821897 1497.978026135359 3055.2240060297772 1222.0006081438623 387.78254416910931 281.60852834535763 1841.4293249743059 2351.8275327957235 3293.4473411152139 16400.245558743831
leaf_count=1117 3047 5182 65 980 2832 1772 3118 1011 465 261 2328 2045 4024 13050
internal_value=2.59831e-05 -0.0110538 0.0081566 -0.0205782 -0.0255411 -0.00708365 -0.00369136 0.0024077 0.000254007 0.0095868 -0.0154216 0.00599693 -0.00906102 0.0101006
internal_weight=41319 17486.3 23832.7 5140.17 2612.8 12346.1 4553.2 4752.45 3530.45 19080.3 2527.36 2398.4 7792.9 16681.9
internal_count=41297 21353 19944 7257 3949 14096 4890 4523 3512 15421 3308 2110 9206 13311
is_linear=0
shrinkage=0.05


Tree=8
num_leaves=15
num_cat=0
split_feature=12 12 0 12 30 4 18 12 4 18 12 35 46 4
split_gain=1339.86 231.535 69.5666 44.4122 72.1491 31.5735 41.5403 22.1935 20.6977 16.7095 12.0077 10.194 4.42585 3.70341
threshold=1.5298573975044565 0.93127066603684472 15.001666666666669 0.6478537360890303 5.5000000000000009 13.325000000000001 1.0000000180025095e-35 2.0629960317460321 12.491666666666669 1.0000000180025095e-35 1.7153518123667379 -1.7456944444444449 1.0000000180025095e-35 10.175000000000002
decision_type=2 2 2 2 2 2 2 2 2 2 2 2 2 2
left_child=1 3 7 4 -1 -3 -7 9 -5 -2 11 -4 -12 -9
right_child=2 5 10 8 -6 6 -8 13 -10 -11 12 -13 -14 -15
leaf_value=-0.012348395126449543 0.0016515744752917255 -0.01046348445306931 -0.016622169652449784 -0.021010518234476971 -0.033017653828104031 -0.0014993208915925981 -0.0083838964438282034 -0.0014384401886322544 -0.012781827251678569 -0.0093068198363174415 -0.002079939954891427 0.0062934200864589659 0.0097514326009151397 0.0091755097345772897
leaf_weight=676.044717987068 3151.6704267626628 3768.4575268412009 47.157810707576573 1214.3690977394581 1160.1022228347138 4349.9991487776861 4436.2957583027892 84.025160222314298 2196.4865064611658 388.76450296677649 75.28503492847085 2248.8052620706148 16438.957803244703 1083.7453129286878
leaf_count=844 3047 4558 64 1726 1928 4481 5181 87 2759 462 79 1965 13232 884
internal_value=2.74264e-05 -0.0103201 0.00786107 -0.0191417 -0.0254428 -0.00662889 -0.00497938 0.00241715 -0.0157294 0.000436634 0.00922195 0.00579781 0.00969574 0.00838927
internal_weight=41320.2 17801.8 23518.4 5247 1836.15 12554.8 8786.29 4708.21 3410.86 3540.43 18810.2 2295.96 16514.2 1167.77
internal_count=41297 21477 19820 7257 2772 14220 9662 4480 4485 3509 15340 2029 13311 971
is_linear=0
shrinkage=0.05


Tree=9
num_leaves=15
num_cat=0
split_feature=12 11 2 12 32 32 30 12 10 35 18 32 32 32
split_gain=1206.28 202.888 58.3062 36.6269 34.8481 23.1788 20.7709 16.5575 16.1757 14.0277 12.4281 10.9598 10.7975 4.39884
threshold=1.520416666666667 0.80625000000000013 15.118480392156865 1.286796536796537 11.258333333333335 13.325000000000001 7.5000000000000009 1.7153518123667379 2.0500000000000003 -1.6537749287749282 1.0000000180025095e-35 12.858333333333336 7.7083333333333348 10.175000000000002
decision_type=2 2 2 2 2 2 2 2 2 2 2 2 2 2
left_child=1 4 8 11 12 -5 -6 9 10 -4 -2 -3 -1 -10
right_child=2 3 7 5 6 -7 -8 -9 13 -11 -12 -13 -14 -15
leaf_value=-0.035198128916018555 0.0018488312407983179 -0.011297458482015252 -0.011204431762110433 -0.0092669704153655625 -0.0092421893934724938 -0.001015803817134721 -0.018740297398748367 0.0093118691588882588 -0.0048658792779331184 0.0056950533534460722 -0.007758491898107402 -0.0074432836296144944 -0.023589605496140371 0.0080530536085293512
leaf_weight=284.09783239010721 3163.5513819889165 2682.0427653435618 127.4840876525268 1135.6488375561312 794.30750467721373 3418.0186425498687 2283.0497586121783 16353.506719229277 65.892833347432315 2146.1799704753794 374.1351670967415 6311.6188788544387 956.35545705538243 1225.1453154264018
leaf_count=486 3046 3289 157 1347 942 3488 3140 13307 73 1901 433 7252 1409 1027
internal_value=2.84772e-05 -0.00975915 0.00748446 -0.00674635 -0.0191986 -0.00308223 -0.0163044 0.0087542 0.00257958 0.0047275 0.000821917 -0.00859769 -0.0263208 0.00736785
internal_weight=41321 17865.1 23455.9 13547.3 4317.81 4553.67 3077.36 18627.2 4828.72 2273.66 3537.69 8993.66 1240.45 1291.04
internal_count=41297 21353 19944 15376 5977 4835 4082 15365 4579 2058 3479 10541 1895 1100
is_linear=0
shrinkage=0.05


Tree=10
num_leaves=15
num_cat=0
split_feature=12 12 0 11 30 0 18 12 4 18 12 35 30 9
split_gain=1086.5 182.838 59.5825 43.2499 46.0783 23.0835 45.0987 19.1506 16.0884 13.3937 10.1518 8.50527 4.36338 4.21402
threshold=1.5298573975044565 0.99275362318840588 15.001666666666669 0.65833333333333344 5.5000000000000009 14.061666666666669 1.0000000180025095e-35 2.0281746031746035 10.29166666666667 1.0000000180025095e-35 1.7153518123667379 -1.7456944444444449 1.5000000000000002 1.9000000000000001
decision_type=2 2 2 2 2 2 2 2 2 2 2 2 2 2
left_child=1 3 7 4 -1 13 -7 9 -5 -2 11 -4 -12 -3
right_child=2 5 10 8 -6 6 -8 -9 -10 -11 12 -13 -14 -15
leaf_value=-0.010687505542122513 0.0014000112144136097 -0.0087829199403847598 -0.014866281790741787 -0.020077872717615314 -0.026231329371865727 0.00045889383475791436 -0.0073056297902108968 0.0076246896541927239 -0.011411863673397997 -0.008351000923242315 0.0025402199136761216 0.0057846897266496111 0.0090363406872501269 -0.0022043397304751583
leaf_weight=694.60137746017426 3094.1941200140864 4098.2556572882459 48.488480701111257 655.48285785224289 1595.4403307745233 3399.7205731729046 4138.5181462354958 1193.8614553627558 3308.0281917508692 395.16542305331677 275.6034829732962 2222.9080678466707 15929.804647228681 271.44469984713942
leaf_count=844 3007 4819 64 920 2434 3368 4744 1011 4064 462 261 1965 13050 284
internal_value=2.90599e-05 -0.00912547 0.00720905 -0.0160493 -0.021541 -0.00548517 -0.00380135 0.00216341 -0.0128608 0.00028441 0.00848622 0.00532016 0.00892773 -0.00838117
internal_weight=41321.5 18161.5 23160 6253.55 2290.04 11907.9 7538.24 4683.22 3963.51 3489.36 18476.8 2271.4 16205.4 4369.7
internal_count=41297 21477 19820 8262 3278 13215 8112 4480 4984 3469 15340 2029 13311 5103
is_linear=0
shrinkage=0.05


Tree=11
num_leaves=15
num_cat=0
split_feature=12 12 0 11 31 4 18 12 18 12 4 35 27 4
split_gain=978.648 159.846 54.7612 37.9718 29.4495 21.2032 31.9035 17.5065 12.1138 9.37787 9.06687 7.67489 4.33385 3.18541
threshold=1.5298573975044565 0.99275362318840588 15.001666666666669 0.75735294117647067 0.45000000000000007 13.325000000000001 1.0000000180025095e-35 2.0629960317460321 1.0000000180025095e-35 1.7153518123667379 10.058333333333335 -1.7456944444444449 15.500000000000002 10.175000000000002
decision_type=2 2 2 2 2 2 2 2 2 2 2 2 2 2
left_child=1 3 7 4 -1 -3 -7 8 -2 11 -5 -4 -11 -9
right_child=2 5 9 10 -6 6 -8 13 -10 12 -12 -13 -14 -15
leaf_value=-0.0096995702999856867 0.0013642001682347504 -0.0084040980991785304 -0.013946473161173163 -0.017716612896299069 -0.020866034837233906 -0.00073233253061405837 -0.0069073800069366824 -0.001676037303387448 -0.0078681641653047078 0.0086087400084170051 -0.0094410051008944063 0.0055284087389513015 -0.0049274793180742495 0.0081836679092400135
leaf_weight=768.94357199128717 3133.0363415707834 3587.2173135895282 49.214708764106035 396.351288581267 2772.6014067046344 4227.5512396618724 4158.7081554527394 83.629631365649402 398.4792676656507 16005.606420705561 2416.7848054459319 2210.0863493862562 55.803489718586206 1057.9925140715204
leaf_count=919 3047 4191 64 538 3931 4290 4734 87 462 13249 2874 1965 62 884
internal_value=2.96517e-05 -0.00858788 0.00689983 -0.0149985 -0.0184555 -0.00518152 -0.00379841 0.00206024 0.000311526 0.00813256 -0.0106276 0.00508117 0.00855955 0.00743787
internal_weight=41322 18328.2 22993.8 6354.68 3541.54 11973.5 8386.26 4673.14 3531.52 18320.7 2813.14 2259.3 16061.4 1141.62
internal_count=41297 21477 19820 8262 4850 13215 9024 4480 3509 15340 3412 2029 13311 971
is_linear=0
shrinkage=0.05


Tree=12
num_leaves=15
num_cat=0
split_feature=11 11 1 4 4 11 4 18 4 11 18 11 23 4
split_gain=872.591 130.482 66.7212 29.3351 22.0496 19.0674 16.9926 47.4905 16.8582 13.662 7.14048 4.62092 3.10203 2.30328
threshold=1.4721362229102171 0.89181286549707617 15.412083333333335 20.558333333333337 8.408333333333335 2.1464285714285718 15.441666666666668 1.0000000180025095e-35 13.525000000000002 1.552777777777778 1.0000000180025095e-35 2.5477272727272733 8.7305083243906285 10.758333333333335
decision_type=2 2 2 2 2 2 2 2 2 2 2 2 2 2
left_child=1 3 5 4 -1 8 12 -8 -2 10 -4 -11 -3 -7
right_child=2 6 9 -5 -6 13 7 -9 -10 11 -12 -13 -14 -15
leaf_value=-0.025857719412084479 -0.0039908178211809165 -0.0065465509188275678 0.0059890086416300413 -0.003436952769978316 -0.014805238258216231 0 0.0021651757364298352 -0.0069885451181958234 0.0023693047984968182 0.0074914303334317409 -0.0021480294174845232 0.0092470118007978285 -0.0090310991450618782 0.0081394751699642894
leaf_weight=513.10907919425517 1606.1438192068599 4054.3924099542201 590.465634228196 523.38549687899649 4474.1042123902589 96.074921851046383 2239.567769838497 3836.0520067075267 2955.6515567004681 10787.000900453888 487.47199682611972 6162.5786231411621 1984.6646855208091 1011.484638187103
leaf_count=780 1735 4586 519 560 5800 96 2142 4373 2815 9170 509 5022 2344 846
internal_value=2.98226e-05 -0.00839388 0.00629644 -0.0147743 -0.0159573 0.00155919 -0.00548757 -0.00361063 0.00012375 0.0077845 0.00228891 0.00813222 -0.00736993 0.00743807
internal_weight=41322.1 17625.3 23696.9 5510.6 4987.21 5669.35 12114.7 6075.62 4561.8 18027.5 1077.94 16949.6 6039.06 1107.56
internal_count=41297 20585 20712 7140 6580 5492 13445 6515 4550 15220 1028 14192 6930 942
is_linear=0
shrinkage=0.05


Tree=13
num_leaves=15
num_cat=0
split_feature=12 12 0 11 30 12 32 32 12 18 12 12 18 44
split_gain=799.308 125.927 46.0122 29.0961 25.6045 36.3254 20.5671 16.6063 15.1521 11.0883 9.21941 7.99897 6.13776 4.39867
threshold=1.5298573975044565 0.81725417439703174 15.041666666666668 1.2899159663865549 10.500000000000002 0.62605932203389847 13.325000000000001 12.108333333333336 2.0281746031746035 1.0000000180025095e-35 0.99275362318840588 1.7153518123667379 1.0000000180025095e-35 4.5000000000000009
decision_type=2 2 2 2 2 2 2 2 2 2 2 2 2 2
left_child=1 4 8 10 7 -6 -5 -1 9 -2 -3 12 -4 -13
right_child=2 3 11 6 5 -7 -8 -9 -10 -11 -12 13 -14 -15
leaf_value=-0.017378385564675122 0.0012896991494449229 -0.0096744682298350072 0.0067163978673911162 -0.0080080107556250273 -0.027158864972031169 -0.014078811456423413 -0.00058190230528659518 -0.0066642614119686141 0.0067963433111023451 -0.0075197857288422255 -0.0061812015464447105 -0.004353262185566943 0.0012623583121442446 0.0079408250480972904
leaf_weight=586.83868608158082 3132.3472931720316 2637.7386460322887 1366.301091955509 1241.3627540823072 869.90240599680692 1420.8572281599045 3764.663390071597 981.42409682832658 1195.2366029797122 400.90483765024692 7125.38405894069 69.292868088930845 850.010849585291 15680.071783310268
leaf_count=792 3051 3149 1182 1441 1344 1822 3809 1113 1032 462 8007 76 828 13189
internal_value=3.00508e-05 -0.0076444 0.00633073 -0.00553901 -0.0156886 -0.0190761 -0.00243084 -0.0107064 0.00193414 0.00027936 -0.00712934 0.00748616 0.00463893 0.0078846
internal_weight=41322.3 18628.2 22694.2 14769.1 3859.02 2290.76 5006.03 1568.26 4728.49 3533.25 9763.12 17965.7 2216.31 15749.4
internal_count=41297 21477 19820 16406 5071 3166 5250 1905 4545 3513 11156 15275 2010 13265
is_linear=0
shrinkage=0.05


Tree=14
num_leaves=15
num_cat=0
split_feature=12 12 1 11 30 32 32 12 32 12 11 3 27 29
split_gain=720.731 111.858 41.5646 29.5745 22.5296 27.9171 19.9714 15.8347 12.293 9.20702 8.32079 5.25639 4.6224 3.98154
threshold=1.5390720390720394 0.79118217054263573 15.497291666666667 1.2899159663865549 4.5000000000000009 21.041666666666671 13.325000000000001 2.1007246376811599 13.775000000000002 0.99275362318840588 1.5477272727272731 9.367424242424244 15.500000000000002 0.018326050431136779
decision_type=2 2 2 2 2 2 2 2 2 2 2 2 2 2
left_child=1 4 7 9 11 -6 -5 8 -2 -3 13 -1 -12 -4
right_child=2 3 10 6 5 -7 -8 -9 -10 -11 12 -13 -14 -15
leaf_value=-0.017023704369842758 -0.0031764383681360171 -0.0091991002833154492 -0.00090629189730585314 -0.0076399357920322085 -0.018627716129214635 0.00063236216205718107 -0.00041808680117843194 0.0070337654748616717 0.0026610681886060743 -0.005870487548627395 0.0075824554582590437 -0.0057614655954685342 -0.0062664440294702937 0.0065662406832229254
leaf_weight=125.93981033191085 1369.3780423160642 3000.1571138426661 442.44407483469695 1270.988925870508 2586.2400018833578 200.05544436071068 3895.906734499149 1287.9664268824272 2624.2738993624225 7176.6558122490533 16323.202412849292 670.95576983969659 57.09383637830615 290.97486690338701
leaf_count=170 1457 3553 451 1466 3551 197 3929 1106 2484 8020 13847 749 65 252
internal_value=2.99257e-05 -0.00715203 0.0061008 -0.0052907 -0.0151081 -0.0172364 -0.00220167 0.00221551 0.000652608 -0.00685584 0.00729802 -0.00761078 0.0075319 0.00203414
internal_weight=41322.2 18926.9 22395.3 15343.7 3583.19 2786.3 5166.9 5281.62 3993.65 10176.8 17113.7 796.896 16380.3 733.419
internal_count=41297 21635 19662 16968 4667 3748 5395 5047 3941 11573 14615 919 13912 703
is_linear=0
shrinkage=0.05


Tree=15
num_leaves=15
num_cat=0
split_feature=12 12 0 0 12 0 18 9 18 12 41 23 9 17
split_gain=649.796 98.1641 38.3024 27.3309 23.0893 16.1108 32.3678 12.6174 9.72982 6.89794 4.36292 4.03953 3.83449 3.06681
threshold=1.5390720390720394 0.99275362318840588 15.001666666666669 18.011666666666667 0.6478537360890303 14.061666666666669 1.0000000180025095e-35 2.1000000000000005 1.0000000180025095e-35 2.3516016016016019 59.500000000000007 8.2142285595328453 1.9000000000000001 1.0000000180025095e-35
decision_type=2 2 2 2 2 2 2 2 2 2 2 2 2 2
left_child=1 3 7 4 -1 12 -7 8 -2 10 -4 -9 -3 -5
right_child=2 5 9 13 -6 6 -8 11 -10 -11 -12 -13 -14 -15
leaf_value=-0.018045660085677324 0.0011575133866476995 -0.0068463837005715098 0.006126941044028702 -0.0061946375325971047 -0.010936850402147598 0.00084823123980919265 -0.005615760564800459 -0.00026372123173495541 -0.0071855062594772022 0.0080650320735198948 -0.0057917477995420418 0.0074169689869591137 -0.00077035984246092109 0.0029515465708222972
leaf_weight=1745.7235103370622 2982.5941753303632 4258.1654496006668 10200.730342439376 1395.3753268616274 3469.2164893541485 3503.9776001903228 4310.1769387945533 198.44278058689088 393.64220848772675 7401.7258541514166 73.728044743649662 1008.3789982781745 287.0466019436717 93.114710479043424
leaf_count=2377 2913 4842 8950 1569 4229 3444 4795 200 451 6207 83 858 292 87
internal_value=2.96911e-05 -0.00674464 0.00583243 -0.011618 -0.0133274 -0.00409798 -0.00271454 0.00175088 0.000173705 0.00688896 0.00603787 0.00613497 -0.00646867 -0.00560252
internal_weight=41322 19062.8 22259.2 6703.43 5214.94 12359.4 7814.15 4583.06 3376.24 17676.2 10274.5 1206.82 4545.21 1488.49
internal_count=41297 21635 19662 8262 6606 13373 8239 4422 3364 15240 9033 1058 5134 1656
is_linear=0
shrinkage=0.05


Tree=16
num_leaves=15
num_cat=0
split_feature=12 12 4 12 30 12 4 9 4 4 12 4 30 30
split_gain=585.907 87.1566 33.9439 24.6204 19.9254 24.0834 15.7852 12.6801 10.53 8.4469 6.51952 5.7021 3.38419 3.19002
threshold=1.5390720390720394 0.79118217054263573 15.058333333333335 1.3237365368682685 7.5000000000000009 0.6478537360890303 14.04166666666667 2.1000000000000005 10.758333333333335 12.04166666666667 2.395591085271318 8.7916666666666696 27.500000000000004 7.5000000000000009
decision_type=2 2 2 2 2 2 2 2 2 2 2 2 2 2
left_child=1 4 7 8 9 -6 -5 11 -3 -1 13 -2 -9 -4
right_child=2 3 10 6 5 -7 -8 12 -10 -11 -12 -13 -14 -15
leaf_value=-0.013375297359636155 -0.010621118876396968 -0.0095971695936308971 0.002889602721371612 -0.0059749165207843864 -0.02081792051480064 -0.010926851598893053 0.00054784961882032104 0.0036185413762189478 -0.0052951358135891885 -0.0045138486843156241 0.0078631321219220004 0.00072503777833649605 0.0084539892315358255 0.0061113063031371677
leaf_weight=436.26224357262254 112.2341176783666 1698.1646339967847 876.25624808855355 1346.3718204963952 1231.7978782728314 1279.4546943055466 2952.876556978561 838.31424085376784 9507.425961822737 739.55468805041164 6776.5057810470462 3469.8443767777644 682.18121899105608 9374.5609296872281
leaf_count=554 137 2025 825 1508 1746 1560 2920 777 10515 807 5710 3419 566 8228
internal_value=2.94081e-05 -0.00636293 0.0055743 -0.00471618 -0.0132748 -0.0158012 -0.00149087 0.00198914 -0.00595092 -0.00784006 0.00664684 0.000356835 0.00581268 0.00583897
internal_weight=41321.8 19191.9 22129.9 15504.8 3687.07 2511.25 4299.25 5102.57 11205.6 1175.82 17027.3 3582.08 1520.5 10250.8
internal_count=41297 21635 19662 16968 4667 3306 4428 4899 12540 1361 14763 3556 1343 9053
is_linear=0
shrinkage=0.05


Tree=17
num_leaves=15
num_cat=0
split_feature=11 11 1 4 31 12 12 4 4 11 1 29 27 42
split_gain=529.096 71.1221 45.1034 18.6307 17.866 16.9795 16.4299 14.7655 10.7421 8.78945 7.83813 4.93745 4.59009 2.45441
threshold=1.4721362229102171 0.7947368421052633 15.412083333333335 21.041666666666671 0.45000000000000007 2.1007246376811599 1.3309523809523811 13.525000000000002 16.858333333333338 1.552777777777778 22.757500000000004 0.05982159008844113 15.500000000000002 5.5000000000000009
decision_type=2 2 2 2 2 2 2 2 2 2 2 2 2 2
left_child=1 3 5 4 -1 7 10 -2 -8 11 -3 -4 -11 -7
right_child=2 6 9 -5 -6 13 8 -9 -10 12 -12 -13 -14 -15
leaf_value=-0.0059943534731194299 -0.0041859584214611403 -0.0058350939637367618 0.0032046429239709477 0 -0.014532587633635595 0.00059547797228888966 -0.003948894170222584 0.0018615257897342261 0.0016451041960725639 0.0066635288269746478 0.002036961734964063 -0.0069360696356507451 -0.0068172588092406854 0.0073274179061542837
leaf_weight=776.20346614066511 1555.1377221690491 10151.560425913893 934.52453350508586 298.45843279268593 3199.8706757556647 165.49478957802057 2070.7950354893692 2864.2104798415676 1455.4532519918866 16295.473617954645 320.64428276848048 134.55666877701879 60.04100757651031 1039.0666094524786
leaf_count=870 1686 11337 874 298 4131 163 2235 2757 1407 14123 307 154 69 886
internal_value=2.90284e-05 -0.00632426 0.00506715 -0.0119719 -0.0128759 0.0011679 -0.00459645 -0.000261818 -0.00163327 0.00632394 -0.00559133 0.0018944 0.00661169 0.00642576
internal_weight=41321.5 18273 23048.5 4274.53 3976.07 5623.91 13998.5 4419.35 3526.25 17424.6 10472.2 1069.08 16355.5 1204.56
internal_count=41297 20585 20712 5299 5001 5492 15286 4443 3642 15220 11644 1028 14192 1049
is_linear=0
shrinkage=0.05


Tree=18
num_leaves=15
num_cat=0
split_feature=12 12 1 4 4 18 12 4 12 4 11 30 29 43
split_gain=478.547 70.6685 30.0634 21.6428 13.0059 36.4624 11.9029 9.83498 9.59357 7.572 6.75091 4.08001 3.6988 3.41859
threshold=1.5390720390720394 0.99275362318840588 15.497291666666667 11.875000000000002 15.441666666666668 1.0000000180025095e-35 2.1007246376811599 13.775000000000002 0.6478537360890303 7.4083333333333341 1.5477272727272731 20.500000000000004 0.018326050431136779 89.500000000000014
decision_type=2 2 2 2 2 2 2 2 2 2 2 2 2 2
left_child=1 3 6 9 13 -6 7 -2 -5 -1 12 -12 -4 -3
right_child=2 4 10 8 5 -7 -8 -9 -10 -11 11 -13 -14 -15
leaf_value=-0.020631922523858166 -0.0029752542408768719 -0.0054357794243202256 -0.0014813107291970482 -0.011365210809533682 0.0030334612171850094 -0.004825161107915088 0.0060203175796704799 0.002247875891284121 -0.0063250353573811582 -0.012480361068347719 0.0051280546972765125 0.0068935150839003591 0.0057848078861637113 -0.0014733398823097859
leaf_weight=356.54892656486481 1374.5861243773252 5650.9375645890832 437.47987377922982 1355.0392570951954 2387.4671282516792 3849.7898637452163 1258.2410294692963 2601.5491004125215 3329.1119802789763 1873.3892911709845 4914.769167392049 11022.443215101026 285.79700728785247 624.05224468465894
leaf_count=505 1457 6266 451 1664 2242 4222 1106 2484 3751 2342 4410 9502 252 643
internal_value=2.86787e-05 -0.00568284 0.00509745 -0.00974113 -0.0034371 -0.00181306 0.0017844 0.00043532 -0.00779263 -0.0138123 0.00613651 0.00635136 0.0013634 -0.00504629
internal_weight=41321.2 19426.3 21894.9 6914.09 12512.2 6237.26 5234.38 3976.14 4684.15 2229.94 16660.5 15937.2 723.277 6274.99
internal_count=41297 21635 19662 8262 13373 6464 5047 3941 5415 2847 14615 13912 703 6909
is_linear=0
shrinkage=0.05


Tree=19
num_leaves=15
num_cat=0
split_feature=11 12 0 30 12 12 18 4 3 4 30 11 18 44
split_gain=432.275 56.7395 38.1431 19.4989 18.3624 15.5505 12.7763 15.8616 12.6975 10.5194 8.94858 6.47244 4.73557 4.22776
threshold=1.4721362229102171 0.76764950166112966 15.628333333333336 12.500000000000002 0.62605932203389847 1.1769449715370022 1.0000000180025095e-35 13.775000000000002 11.131385281385283 15.941666666666668 5.5000000000000009 1.552777777777778 1.0000000180025095e-35 4.5000000000000009
decision_type=2 2 2 2 2 2 2 2 2 2 2 2 2 2
left_child=1 3 6 8 -5 10 7 -2 -1 -7 -3 12 -4 -13
right_child=2 5 11 4 -6 9 -8 -9 -10 -11 -12 13 -14 -15
leaf_value=-0.014237023272397351 -0.0013056828534973022 -0.00075123328618115562 0.0051625209080723685 -0.020265259281995948 -0.010048978552629619 -0.0044337822487361591 -0.0063483886269723013 0.0041319546622135203 -0.0047164845308506542 -0.00045243217535454209 -0.0062959939304323325 -0.0059215126734849157 -0.0016193920918063298 0.0061658676797532756
leaf_weight=499.65774137619883 2249.6998861455359 818.17711439728737 542.74516151892021 870.76416025310755 932.65369996894151 3424.6404474894516 506.88766728760675 3296.0476829716936 1219.2955658510327 3247.1000531283207 7481.2145362347364 69.081768179312348 478.92391271144152 15683.835750970524
leaf_count=643 2309 831 486 1225 1121 3729 572 3023 1335 3277 8424 78 495 13749
internal_value=2.81021e-05 -0.00565272 0.00463161 -0.0113656 -0.0150127 -0.0043056 0.00122332 0.00192193 -0.00751173 -0.00250054 -0.0057527 0.00585961 0.00196201 0.00611053
internal_weight=41320.7 18493.5 22827.2 3522.37 1803.42 14971.1 6052.64 5545.75 1718.95 6671.74 8299.39 16774.6 1021.67 15752.9
internal_count=41297 20585 20712 4324 2346 16261 5904 5332 1978 7006 9255 14808 981 13827
is_linear=0
shrinkage=0.05


Tree=20
num_leaves=15
num_cat=0
split_feature=12 12 1 0 12 0 12 11 4 11 30 29 43 29
split_gain=391.938 55.5174 24.9469 19.153 12.2209 11.1863 10.6278 10.4623 8.419 5.48149 3.87117 3.36078 3.25269 2.68592
threshold=1.5390720390720394 0.99275362318840588 15.497291666666667 18.011666666666667 0.6478537360890303 15.771111111111113 2.1007246376811599 1.205263157894737 15.491666666666669 1.5477272727272731 2.5000000000000004 0.018326050431136779 89.500000000000014 0.066741277155186976
decision_type=2 2 2 2 2 2 2 2 2 2 2 2 2 2
left_child=1 3 6 4 -1 12 8 -7 -2 11 -11 -4 -3 -8
right_child=2 5 9 -5 -6 7 13 -9 -10 10 -12 -13 -14 -15
leaf_value=-0.01333205805873691 -0.00071857911528661316 -0.0047960807422844573 -0.0013918378614034559 -0.0036880601360557278 -0.0083061939946927621 -0.0038093192387810074 0.0064978322620352401 0.00052540240593029557 0.0052126482939462261 0.001138085359326345 0.005946900978004867 0.0055419565253699218 -0.0011665651652015517 -0.00062677295481497995
leaf_weight=1875.8009683974087 3239.9086437593214 6281.7523321514018 438.24500754429027 1541.6393070789054 3625.8306920910254 2526.8370514903218 1105.4160830928013 3076.8527381340973 730.90781200071797 444.66690343804657 15298.28571400838 284.22491921391338 706.95906145405024 142.68629080802202
leaf_count=2377 3287 6885 451 1656 4229 2720 961 3044 654 434 13478 252 724 145
internal_value=2.72415e-05 -0.00508927 0.00466155 -0.00864572 -0.0100285 -0.00309701 0.00164165 -0.00142543 0.000368963 0.00561692 0.00581282 0.00130923 -0.00443294 0.00566363
internal_weight=41320 19635.7 21684.3 7043.27 5501.63 12592.4 5218.92 5603.69 3970.82 16465.4 15743 722.47 6988.71 1248.1
internal_count=41297 21635 19662 8262 6606 13373 5047 5764 3941 14615 13912 703 7609 1106
is_linear=0
shrinkage=0.05


Tree=21
num_leaves=15
num_cat=0
split_feature=11 11 0 4 30 11 30 0 17 4 11 27 29 4
split_gain=353.019 45.1948 31.8427 15.3906 14.9127 10.202 10.7336 9.61396 7.39039 6.41094 5.42889 4.17017 2.23658 1.90327
threshold=1.4721362229102171 0.80625000000000013 15.628333333333336 21.041666666666671 5.5000000000000009 1.6754385964912284 9.5000000000000018 14.061666666666669 1.0000000180025095e-35 13.058333333333335 1.552777777777778 15.500000000000002 0.05982159008844113 18.025000000000002
decision_type=2 2 2 2 2 2 2 2 2 2 2 2 2 2
left_child=1 3 5 4 -1 9 -7 13 -9 -2 12 -12 -4 -3
right_child=2 7 10 -5 -6 6 -8 8 -10 -11 11 -13 -14 -15
leaf_value=-0.0043437479097459247 -0.0058394436642708663 -0.0053246832680011258 0.0027171442895448355 0.00078235203290002151 -0.011317392293636139 -0.00044510355021036357 0.0045514665333419987 -0.0033335613067934249 0.00012719746929450076 0.00040013124383184319 0.0056409974711940387 -0.008044147598684874 -0.004091301802447489 0.0046881493775247432
leaf_weight=986.61418359261006 699.56501268595457 5217.6412710500881 882.5700949379243 361.18273533787578 3711.0574446525425 1880.7396994200535 2479.3781892359257 6354.6915785609744 2018.6404066123068 979.35340434731916 15516.270480392501 52.699743738397956 135.26791128981858 43.793759677559137
leaf_count=1073 782 5774 834 355 4552 1898 2253 6779 2013 971 13765 62 147 39
internal_value=2.65793e-05 -0.00505701 0.00422785 -0.00909575 -0.00986057 0.00111352 0.00239125 -0.00355558 -0.00249643 -0.00218873 0.00535996 0.00559204 0.00178156 -0.00523484
internal_weight=41319.5 18693.6 22625.8 5058.85 4697.67 6039.04 4360.12 13634.8 8373.33 1678.92 16586.8 15569 1017.84 5261.44
internal_count=41297 20585 20712 5980 5625 5904 4151 14605 8792 1753 14808 13827 981 5813
is_linear=0
shrinkage=0.05


Tree=22
num_leaves=15
num_cat=0
split_feature=12 12 4 18 4 1 9 35 1 9 4 4 12 18
split_gain=320.795 44.7188 21.3041 21.6227 16.2525 10.8775 10.7159 8.42819 7.47389 5.33624 4.64288 4.62707 4.07269 5.89759
threshold=1.5390720390720394 0.99275362318840588 16.341666666666672 1.0000000180025095e-35 10.758333333333335 13.602222222222224 1.9000000000000001 -0.50999999999999879 13.652023809523811 2.4500000000000006 7.4083333333333341 15.891666666666667 1.6692708333333337 1.0000000180025095e-35
decision_type=2 2 2 2 2 2 2 2 2 2 2 2 2 2
left_child=1 4 3 5 10 -2 8 -6 -3 -5 -1 -8 13 -4
right_child=2 6 12 9 7 -7 11 -9 -10 -11 -12 -13 -14 -15
leaf_value=-0.017065360930936763 -0.0010616783974488821 -0.0050680981659216567 0.0057070550107776868 -0.0085099660696797454 -0.0099443949142914677 0.003911458722570333 -0.0017272692455808554 -0.0052751052382658363 -0.0023384945351866706 0.0078144227968112399 -0.010540416309000043 0.0046670074040159257 0.005627333100741377 -0.0013467866842686864
leaf_weight=375.61669570114464 1385.0480202017352 3751.0804017572664 652.16738742450252 547.9063175264746 1286.2772475024685 5185.2980467458256 498.21971765998751 4178.4533718815073 7782.4233627249487 51.928383843973279 1315.7147584166378 638.26216725399718 13138.409296488855 532.11327053559944
leaf_count=505 1415 4132 577 642 1543 4779 516 4620 8147 43 1594 578 11659 547
internal_value=2.59171e-05 -0.00456034 0.00425769 0.00202645 -0.00772163 0.0028593 -0.00277192 -0.00638196 -0.00322914 -0.00703393 -0.0120227 0.00184377 0.00537251 0.00251967
internal_weight=41318.9 19826 21492.9 7170.18 7156.06 6570.35 12670 5464.73 11533.5 599.835 1691.33 1136.48 14322.7 1184.28
internal_count=41297 21635 19662 6879 8262 6194 13373 6163 12279 685 2099 1094 12783 1124
is_linear=0
shrinkage=0.05


Tree=23
num_leaves=15
num_cat=0
split_feature=12 12 4 18 30 12 11 4 0 1 30 13 36 12
split_gain=289.471 40.6909 19.4553 19.4598 15.6664 14.356 13.0882 10.9903 10.887 9.8618 6.14326 4.82377 4.81623 2.94088
threshold=1.5390720390720394 0.76764950166112966 16.341666666666672 1.0000000180025095e-35 12.500000000000002 0.62605932203389847 1.2899159663865549 13.325000000000001 13.585000000000003 10.275833333333336 5.5000000000000009 2.5000000000000004 2.0124607063994389 1.6692708333333337
decision_type=2 2 2 2 2 2 2 2 2 2 2 2 2 2
left_child=1 4 3 8 9 -6 10 -8 -2 -1 -3 -5 13 -4
right_child=2 6 12 11 5 -7 7 -9 -10 -11 -12 -13 -14 -15
leaf_value=-0.012736357192244481 -0.0010448366170871894 -0.00042610099956363206 0.0022922871140279286 -0.0083058209165053302 -0.01677730839159838 -0.0079416191034081002 -0.0051092984648645392 0.00013936397377130866 0.003823013453439464 -0.0036699810700995526 -0.0045917717648622089 0.0050882659899123229 0.0074015551262688016 0.0050004524522747739
leaf_weight=387.32767382264137 1473.6634578453377 986.07956834416837 1147.1852458901703 530.96565397828817 916.35088188294321 966.64742258563638 1329.4450014159083 3940.4888107739389 5077.9113896079361 1388.4420777736232 10001.79694664944 73.147398697212338 2046.7836982635781 11052.000055716839
leaf_count=487 1505 995 1094 620 1225 1121 1466 3929 4689 1491 10921 65 1743 9946
internal_value=2.5091e-05 -0.00431236 0.00406276 0.00192931 -0.00907913 -0.012268 -0.00323709 -0.00118141 0.00272428 -0.00567369 -0.00422035 -0.00663135 0.0051322 0.00474825
internal_weight=41318.2 19916.6 21401.7 7155.69 3658.77 1883 16257.8 5269.93 6551.57 1775.77 10987.9 604.113 14246 12199.2
internal_count=41297 21635 19662 6879 4324 2346 17311 5395 6194 1978 11916 685 12783 11040
is_linear=0
shrinkage=0.05


Tree=24
num_leaves=15
num_cat=0
split_feature=12 12 4 18 30 12 12 0 4 1 1 9 36 30
split_gain=261.226 36.1993 17.7599 17.518 12.6905 15.8419 11.1106 9.88429 9.46796 8.95874 6.60448 4.58656 4.42204 2.82104
threshold=1.5390720390720394 0.81725417439703174 16.341666666666672 1.0000000180025095e-35 12.500000000000002 0.62605932203389847 1.3309523809523811 13.585000000000003 14.04166666666667 10.275833333333336 22.757500000000004 2.4500000000000006 2.0124607063994389 1.5000000000000002
decision_type=2 2 2 2 2 2 2 2 2 2 2 2 2 2
left_child=1 4 3 7 9 -6 10 -2 -8 -1 -3 -5 13 -4
right_child=2 6 12 11 5 -7 8 -9 -10 -11 -12 -13 -14 -15
leaf_value=-0.011566567549769426 -0.00099160315332079917 -0.0039916157429929393 -0.0009741268709827066 -0.0076020108582595244 -0.015668690149142902 -0.0072877552231934151 -0.0042010576178326698 0.0036462103579099677 0.00082333276609140621 -0.0032535622399749334 0.0028657758067908157 0.0075528233457844915 0.0070854018841258462 0.0046369870132902946
leaf_weight=416.65254220832139 1475.2039964790456 10985.354089063592 220.17153115430847 556.5742491511628 931.85447313915938 1490.9019236601889 1374.8181528877467 5058.5355252875015 2922.659362657927 1523.2500793719664 357.08090749941766 51.596026068553329 2031.6902697742917 11921.260084216483
leaf_count=514 1505 11863 225 642 1225 1709 1491 4689 2874 1623 336 43 1743 10815
internal_value=2.43264e-05 -0.00407889 0.00387608 0.0018366 -0.00810878 -0.0105319 -0.00295228 0.00259527 -0.000779426 -0.00506198 -0.00377306 -0.00625479 0.00490162 0.00453303
internal_weight=41317.6 20002.6 21315 7141.91 4362.66 2422.76 15639.9 6533.74 4297.48 1939.9 11342.4 608.17 14173.1 12141.4
internal_count=41297 21635 19662 6879 5071 2934 16564 6194 4365 2137 12199 685 12783 11040
is_linear=0
shrinkage=0.05


Tree=25
num_leaves=15
num_cat=0
split_feature=10 10 32 30 32 18 3 32 10 10 30 43 46 23
split_gain=204.821 29.8652 29.7399 13.5883 11.8417 10.9143 37.631 11.6406 10.1477 9.82664 8.24648 6.11302 4.31692 2.59072
threshold=1.4365079365079367 0.76388888888888895 13.525000000000002 1.5000000000000002 8.7916666666666696 1.0000000180025095e-35 16.053755656108603 21.575000000000003 1.9500000000000002 2.3541666666666674 2.5000000000000004 8.5000000000000018 1.0000000180025095e-35 8.1373682847238431
decision_type=2 2 2 2 2 2 2 2 2 2 2 2 2 2
left_child=1 4 9 12 -1 6 -3 -7 -5 11 -6 -2 -4 -11
right_child=2 5 3 8 10 7 -8 -9 -10 13 -12 -13 -14 -15
leaf_value=-0.013511227730557738 -0.0097270668939311699 -0.0030694515554186854 0.0022826407904772781 0.0026624634361586334 0.00074418868667103092 -0.0057102888975445838 0.0055477502419708277 -0.00032855213945396375 0.0051041172568569299 -0.0045319906150912866 -0.0067935690315865998 -0.0021182765566614119 -0.003502767928861711 0.007022776224301315
leaf_weight=628.20353159680963 312.34659308753908 6724.5628199954517 557.02088040439412 6689.835367988795 390.33949166163802 3989.6325046326965 1557.5386247127317 1356.5727622881532 12004.112054844387 52.555132996290922 4190.8162655462511 1778.0857228082605 751.699332899414 333.64289961755276
leaf_count=799 374 7138 531 6333 384 4446 1384 1366 10778 58 4761 1854 805 286
internal_value=2.35533e-05 -0.00382128 0.00324669 0.00388701 -0.00704366 -0.00258686 -0.00144493 -0.00435001 0.00423206 -0.00191375 -0.00614581 -0.00327532 -0.00102157 0.00537072
internal_weight=41317 18837.7 22479.3 20002.7 5209.36 13628.3 8282.1 5346.21 18693.9 2476.63 4581.16 2090.43 1308.72 386.198
internal_count=41297 20278 21019 18447 5944 14334 8522 5812 17111 2572 5145 2228 1336 344
is_linear=0
shrinkage=0.05


Tree=26
num_leaves=15
num_cat=0
split_feature=11 11 1 4 30 12 12 23 0 4 35 35 46 29
split_gain=217.76 30.1078 17.101 13.2476 9.68135 8.84579 8.66228 8.38776 6.19413 4.38936 4.0601 3.50872 3.36238 2.36191
threshold=1.5131578947368423 0.89181286549707617 15.497291666666667 20.558333333333337 2.5000000000000004 1.6569296375266527 2.1007246376811599 7.8804196608860257 15.771111111111113 11.708333333333334 -0.20288690476190482 -1.0033333333333341 1.0000000180025095e-35 0.066741277155186976
decision_type=2 2 2 2 2 2 2 2 2 2 2 2 2 2
left_child=1 3 6 4 -1 8 7 -2 -3 11 -7 -4 -11 -8
right_child=2 5 9 -5 -6 10 13 -9 -10 12 -12 -13 -14 -15
leaf_value=-0.00010283054316518152 -0.0095059406445055679 -0.0036357533873808559 -0.01696775301477493 0.00068635856209863682 -0.0078663566198838974 -0.0013652426896307919 0.0055577924267439533 0.00050691691306471948 -0.0014458165719820428 -0.0063178796813091968 0.0064336040011421783 0.0024454381497538494 0.0044999666594211863 -0.0011631225329331522
leaf_weight=441.58771165739745 219.4064651504159 7368.5499612372369 40.931110356003046 568.32900451589376 5302.0318747647107 278.83192486828193 1080.8669982054271 3770.7494040369056 5842.4985368186608 68.581492494791746 395.66888280119747 45.839785108342767 15751.28525728872 141.16952534019947
leaf_count=443 262 7905 56 560 6137 287 960 3732 6012 78 344 43 14333 145
internal_value=2.27839e-05 -0.00368822 0.00357308 -0.00655336 -0.00727407 -0.00238325 0.00108063 -4.18837e-05 -0.00266953 0.00438799 0.00317818 -0.00660639 0.0044507 0.00476034
internal_weight=41316.3 20197.5 21118.8 6311.95 5743.62 13885.5 5212.19 3990.16 13211 15906.6 674.501 86.7709 15819.9 1222.04
internal_count=41297 21688 19609 7140 6580 14548 5099 3994 13917 14510 631 99 14411 1105
is_linear=0
shrinkage=0.05


Tree=27
num_leaves=15
num_cat=0
split_feature=12 12 32 18 30 32 18 32 1 32 13 36 12 44
split_gain=194.989 27.4783 13.85 15.305 12.5963 10.6841 21.44 8.28722 7.62893 4.34758 3.96758 3.92313 3.77419 2.73227
threshold=1.5390720390720394 0.74443344878772899 16.341666666666672 1.0000000180025095e-35 7.5000000000000009 12.79166666666667 1.0000000180025095e-35 20.558333333333337 13.602222222222224 12.04166666666667 2.5000000000000004 2.0124607063994389 0.99275362318840588 11.500000000000002
decision_type=2 2 2 2 2 2 2 2 2 2 2 2 2 2
left_child=1 4 3 8 9 12 -7 -6 -2 -1 -5 13 -3 -4
right_child=2 5 11 10 7 6 -8 -9 -10 -11 -12 -13 -14 -15
leaf_value=-0.0072316597289778135 -0.00097543926751220806 -0.0068377522152657704 0.0054327524162998478 -0.0074512032207259098 -0.010693223170947163 0.00034519491202016279 -0.0038684371540845899 0.00068591557426501189 0.0031917736817981888 -0.00096644494347633775 0.0047129375842663475 0.0063737741806997473 -0.0037201632508195577 0.0035520499341794329
leaf_weight=454.47811269294471 1387.3946010731161 1428.8271679636091 2527.3237762218341 538.89380574505776 2048.0641312776133 5754.2404995658435 6324.9888276089914 168.84368650242686 5105.5423836028203 734.26873481180519 72.524595944210887 1998.5168898454867 3311.0018456717953 9460.7425982956775
leaf_count=521 1415 1625 2252 620 2487 5714 6815 166 4779 749 65 1743 3558 8788
internal_value=2.19661e-05 -0.00348496 0.00338606 0.00158207 -0.00758359 -0.00265275 -0.00185937 -0.00981546 0.00229746 -0.00339086 -0.00595691 0.00430023 -0.00466772 0.00395146
internal_weight=41315.7 20224.7 21090.9 7104.36 3405.65 16819.1 12079.2 2216.91 6492.94 1188.75 611.418 13986.6 4739.83 11988.1
internal_count=41297 21635 19662 6879 3923 17712 12529 2653 6194 1270 685 12783 5183 11040
is_linear=0
shrinkage=0.05


Tree=28
num_leaves=15
num_cat=0
split_feature=11 12 4 30 30 0 12 12 1 11 30 46 12 29
split_gain=179.05 22.4166 18.7589 15.8983 12.3059 8.08813 6.70119 6.20856 5.86061 5.24225 4.92557 4.11415 3.54349 2.88132
threshold=1.4721362229102171 0.6906926406926408 13.458333333333334 12.500000000000002 1.5000000000000002 12.608333333333336 1.9290744466800807 1.6569296375266527 10.275833333333336 1.6754385964912284 37.500000000000007 1.0000000180025095e-35 0.57247899159663873 -0.038299324944238593
decision_type=2 2 2 2 2 2 2 2 2 2 2 2 2 2
left_child=1 3 6 8 11 -3 10 -7 -1 -6 -2 -4 -5 -8
right_child=2 5 4 12 9 7 13 -9 -10 -11 -12 -13 -14 -15
leaf_value=-0.009680716957696853 -0.0054727606859426049 -0.004664232081706683 0.0021645302935044651 -0.014233403768000219 0.0020072154292384526 -0.0023524069407018888 0.0069089454101310607 0.0034471088891096405 -0.002378310500745271 0.0043020318418415032 0.00058147305889110618 -0.0034796829149642476 -0.0088224506249705206 0.00046417747175847351
leaf_weight=362.85821756254882 915.11678467597812 4260.8422854850069 555.64060425292701 674.0501151708886 3027.1011745035648 11626.405179454945 239.92956233024597 475.41395697649568 1187.9009220311418 15418.269740259275 518.553760769777 755.76440378464758 648.6869327686727 648.53931336430833
leaf_count=434 1016 4659 531 867 2905 12174 206 442 1245 14091 512 809 764 642
internal_value=2.12661e-05 -0.00350434 0.00309411 -0.00758137 0.00359404 -0.002786 -0.00114796 -0.00212198 -0.00411335 0.00392704 -0.00326779 -0.00106955 -0.011616 0.00224426
internal_weight=41315.1 19236.2 22078.9 2873.5 19756.8 16362.7 2322.14 12101.8 1550.76 18445.4 1433.67 1311.41 1322.74 888.469
internal_count=41297 20585 20712 3310 18336 17275 2376 12616 1679 16996 1528 1340 1631 848
is_linear=0
shrinkage=0.05


Tree=29
num_leaves=15
num_cat=0
split_feature=12 0 12 30 12 30 18 0 4 1 4 12 9 4
split_gain=160.153 20.5011 17.1291 14.0015 9.81723 7.15826 6.85974 33.8256 9.85619 5.20034 4.84635 4.78483 3.24144 3.15098
threshold=1.3852901484480433 15.190833333333336 0.6906926406926408 12.500000000000002 1.6692708333333337 9.5000000000000018 1.0000000180025095e-35 16.288333333333338 22.025000000000002 10.275833333333336 11.158333333333335 2.3516016016016019 2.5500000000000003 20.491666666666671
decision_type=2 2 2 2 2 2 2 2 2 2 2 2 2 2
left_child=2 4 3 9 12 -6 7 -4 -8 -1 -3 -12 -2 -5
right_child=1 10 6 13 5 -7 8 -9 -10 -11 11 -13 -14 -15
leaf_value=-0.009108873835831496 -0.0028778203001899624 -0.010061857667878708 -0.0031307561027200132 -0.011595522101219545 -0.00065454684487538557 0.003633014157852782 -0.0051389720682730429 0.0068886533957542469 0 -0.002254095295268062 0.0029298201524194647 0.0046340465557829563 0.0069858748474525062 -0.0019484495269979263
leaf_weight=366.38800328411162 2125.0733040571213 62.51681937277317 7336.0284585072659 1239.5675276191905 1773.2601721021347 2132.6006892491132 5049.3273920631036 948.44583515683189 1146.8961726501584 1190.729480153881 10998.064179102425 6763.5362273617648 83.437050547450781 98.580480294302106
leaf_count=434 2248 76 7796 1528 1797 1977 5569 817 1147 1245 10353 6136 71 103
internal_value=2.05146e-05 0.00267327 -0.00363258 -0.00714872 0.000170618 0.00168073 -0.00292695 -0.00197928 -0.00418891 -0.00389267 0.00353026 0.00358064 -0.00248788 -0.0109075
internal_weight=41314.5 23938.5 17376 2895.27 6114.37 3905.86 14480.7 8284.47 6196.22 1557.12 17824.1 17761.6 2208.51 1338.15
internal_count=41297 22658 18639 3310 6093 3774 15329 8613 6716 1679 16565 16489 2319 1631
is_linear=0
shrinkage=0.05


Tree=30
num_leaves=15
num_cat=0
split_feature=11 11 4 30 0 30 12 12 23 43 47 44 27 33
split_gain=146.823 19.8421 12.7552 11.0321 10.3472 8.04182 5.92461 5.90509 4.86877 3.98757 3.89308 3.43727 2.76983 2.72612
threshold=1.5131578947368423 0.89181286549707617 13.658333333333335 1.5000000000000002 19.311666666666671 2.5000000000000004 1.6692708333333337 2.0281746031746035 8.3311348035130379 8.5000000000000018 1.0000000180025095e-35 4.5000000000000009 8.5000000000000018 2.0459554339521779
decision_type=2 2 2 2 2 2 2 2 2 2 2 2 2 2
left_child=1 4 7 10 5 -1 8 9 -3 -2 -4 -5 -9 -8
right_child=2 6 3 11 -6 -7 13 12 -10 -11 -12 -13 -14 -15
leaf_value=0.00051025354050788065 -0.0086349433149964499 -0.00086020644816206602 0.0013681895026248418 -0.007116617945819902 0.00014170166397407469 -0.0065539297936851983 -0.00058180548029511381 0.0038250508303441081 -0.0028606863694512481 -0.0013133147198461155 -0.0041113836573542506 0.003778685887000767 -0.010074295914583777 0.0059709195313485432
leaf_weight=428.89733795449138 219.28442932106555 4767.4458389519714 733.62960645044222 69.345261225476861 765.67561962082982 5262.4440672975034 295.04356868658215 683.97801571059972 8619.2463613408618 1267.1637711613439 572.27842066902667 17268.711882050615 35.037470920942724 325.62437578197569
leaf_count=424 258 4850 713 80 763 5953 299 631 9113 1301 620 15963 43 286
internal_value=1.97334e-05 -0.00298813 0.00297325 0.00339877 -0.00528318 -0.00601719 -0.00192778 -0.000612384 -0.00215035 -0.00242037 -0.00101658 0.00373285 0.003087 0.00282397
internal_weight=41313.8 20464.4 20849.4 18644 6457.02 5691.34 14007.4 2205.46 13386.7 1486.45 1305.91 17338.1 719.015 620.668
internal_count=41297 21688 19609 17376 7140 6377 14548 2233 13963 1559 1333 16043 674 585
is_linear=0
shrinkage=0.05


Tree=31
num_leaves=15
num_cat=0
split_feature=11 11 4 30 30 18 2 0 4 10 30 11 47 23
split_gain=132.673 16.8917 14.746 12.3297 9.58207 9.30524 35.5092 11.1348 6.44862 5.92618 4.42098 4.15927 3.41785 2.48505
threshold=1.4721362229102171 0.62828947368421062 13.458333333333334 5.5000000000000009 1.5000000000000002 1.0000000180025095e-35 16.233750000000004 20.828333333333337 19.975000000000005 2.4722222222222228 25.500000000000004 1.6754385964912284 1.5000000000000002 8.1373682847238431
decision_type=2 2 2 2 2 2 2 2 2 2 2 2 2 2
left_child=1 3 9 -1 12 6 -3 -7 -5 10 -2 -6 -4 -11
right_child=2 5 4 8 11 7 -8 -9 -10 13 -12 -13 -14 -15
leaf_value=-0.0016147291704370133 -0.0043876727788081929 -0.0025384000437742769 0.00045009787732911587 -0.010033139580276899 0.0017176598281365388 -0.0050516643830790442 0.0065861448448560501 -0.00051090341488603931 0.00021499252063555651 -0.0064911818789047948 0.00027163610851535448 0.0037702843100435855 -0.0054690697284722981 0.0069711682546717184
leaf_weight=817.04914886504412 1016.1535111777484 8739.7012981884181 995.47926148911938 1618.3550336388871 3008.9352499386296 5006.47709170077 1211.3223306485452 1866.4084749398753 164.21469859126955 35.616490548476577 998.93781789159402 15240.901470647659 318.44885905086994 275.13975742273033
leaf_count=844 1106 9184 986 1944 2905 5513 1051 1886 163 41 993 14091 354 236
internal_value=1.89283e-05 -0.00298826 0.0026885 -0.00674351 0.00313626 -0.00240579 -0.00142407 -0.00382271 -0.00907586 -0.00106649 -0.00206755 0.00343345 -0.000971629 0.00531664
internal_weight=41313.1 19423.5 21889.6 2599.62 19563.8 16823.9 9951.02 6872.89 1782.57 2325.85 2015.09 18249.8 1313.93 310.756
internal_count=41297 20585 20712 2951 18336 17634 10235 7399 2107 2376 2099 16996 1340 277
is_linear=0
shrinkage=0.05


Tree=32
num_leaves=15
num_cat=0
split_feature=11 12 2 18 31 4 18 4 27 4 4 18 33 4
split_gain=119.73 16.5049 10.7372 10.5189 8.60358 8.11101 23.1542 6.18311 5.97551 6.43859 5.39741 5.13446 3.81321 3.23681
threshold=1.5131578947368423 0.73024948024948033 16.823703703703707 1.0000000180025095e-35 0.75000000000000011 16.091666666666672 1.0000000180025095e-35 13.525000000000002 13.500000000000002 19.175000000000004 21.241666666666671 1.0000000180025095e-35 6.4170525263008669 12.04166666666667
decision_type=2 2 2 2 2 2 2 2 2 2 2 2 2 2
left_child=1 4 3 7 13 11 -7 -2 -4 -10 -6 -3 -5 -1
right_child=2 5 8 12 10 6 -8 -9 9 -11 -12 -13 -14 -15
leaf_value=-0.0057181803282391006 -0.00074226095658399616 -0.0024463620115372526 0.0036569039194326624 -0.0065724243471399803 -0.0083571480999663546 0.003507230891169505 -0.0026285525983265924 0.0026276657741109771 -0.020671025942948184 0.0030602516696537525 0.0025094468434832687 -0.0054333348490321585 0.0075567889904055736 -0.00037142147883441773
leaf_weight=466.87748061399907 1844.0943232737482 8113.4342014421709 13123.471771894954 525.20031556440517 2058.1589329857379 2193.5026974505745 5117.3693665820174 5078.496961619705 50.70901270210743 58.183535138145089 116.44460891094059 1774.4581604721025 49.244944959878922 742.96607156470418
leaf_count=521 1872 8511 12163 595 2403 2039 5387 4811 73 54 110 1968 41 749
internal_value=1.82894e-05 -0.00268224 0.00270098 0.00118373 -0.00587715 -0.00205147 -0.000783741 0.00172639 0.0035584 -0.00793897 -0.00776201 -0.00298592 -0.0052958 -0.00246139
internal_weight=41312.6 20583.2 20729.4 7497.04 3384.45 17198.8 7310.87 6922.59 13232.4 108.893 2174.6 9887.89 574.445 1209.84
internal_count=41297 21688 19609 7319 3783 17905 7426 6683 12290 127 2513 10479 636 1270
is_linear=0
shrinkage=0.05


Tree=33
num_leaves=15
num_cat=0
split_feature=11 11 4 30 30 18 2 2 27 12 44 36 34 1
split_gain=108.264 13.8589 12.1987 10.2043 8.29759 7.58304 30.6159 9.86061 6.24706 5.91355 4.74753 4.64927 4.14041 3.79323
threshold=1.4721362229102171 0.62828947368421062 13.458333333333334 12.500000000000002 9.5000000000000018 1.0000000180025095e-35 16.233750000000004 22.874583333333337 10.500000000000002 1.7623083131557709 4.5000000000000009 1.9720245820893705 -1.0000000180025095e-35 10.275833333333336
decision_type=2 2 2 2 2 2 2 2 2 2 2 2 2 2
left_child=1 3 8 13 11 6 -3 -7 9 -2 -6 -4 -10 -1
right_child=2 5 4 -5 10 7 -8 -9 12 -11 -12 -13 -14 -15
leaf_value=-0.0076857901623227434 -0.0030784346877962103 -0.0022960257405967798 4.6614245233254904e-05 -0.0092120478025278282 -0.010005166161111774 -0.0039317438955983183 0.0062064890677780843 0.0036463147970858516 -0.026246692789373329 0.0020764658935212522 0.0034104009185570738 0.0054784096322388863 -0.0050025716537102733 -0.0013995138084495356
leaf_weight=320.0030437707901 1063.8754423325881 8780.2161171827465 3253.535076064989 1303.8997755581513 63.411034387536347 6468.6789523712359 1200.8037700098939 454.8137343628332 35.706553417257965 1158.7032138966024 15681.221531751566 447.7817742167972 72.087445013225079 1007.2507917825133
leaf_count=370 1130 9184 3250 1545 77 6978 1051 421 56 1110 14611 398 80 1036
internal_value=1.75342e-05 -0.00268413 0.00244239 -0.00606395 0.00285236 -0.00215594 -0.00126956 -0.00342941 -0.000967413 -0.000380327 0.00335352 0.000713102 -0.0126173 -0.00294324
internal_weight=41312 19535.7 21776.3 2631.15 19445.9 16904.5 9981.02 6923.49 2330.37 2222.58 15744.6 3701.32 107.794 1327.25
internal_count=41297 20585 20712 2951 18336 17634 10235 7399 2376 2240 14688 3648 136 1406
is_linear=0
shrinkage=0.05


Tree=34
num_leaves=15
num_cat=0
split_feature=11 12 30 32 18 0 0 0 11 42 27 32 13 36
split_gain=98.5367 16.3919 9.69519 9.08792 8.1367 28.7497 10.4786 6.73911 6.05937 3.87752 3.20473 3.16678 3.15167 3.11794
threshold=1.6282894736842108 0.99275362318840588 18.500000000000004 8.408333333333335 1.0000000180025095e-35 16.485000000000003 20.828333333333337 18.977222222222228 2.3245614035087727 61.000000000000007 15.500000000000002 19.275000000000002 1.5000000000000002 1.1571011735538288
decision_type=2 2 2 2 2 2 2 2 2 2 2 2 2 2
left_child=1 3 8 -1 5 -3 -6 -5 11 10 -4 -2 -11 -10
right_child=2 4 9 7 6 -7 -8 -9 13 12 -12 -13 -14 -15
leaf_value=-0.0094404736815416872 -0.00095777097895224656 -0.0016696186441669599 0.0036415710923765904 -0.0042488490330853555 -0.0044480508712644992 0.0054361440851279762 0.00015165179519570856 -0.0001039552345553593 -0.00028494675457818168 0.0017635824840366661 -0.010052499137789639 0.0023706877516614503 -0.013433990065053506 0.0039356038181182114
leaf_weight=725.19810757879168 2925.4239721032791 7752.5569409793243 12263.838398195803 5711.0244329087436 3450.3733576405793 1741.0044708461501 1914.312242727261 1199.0029890928417 548.3635132741183 72.114126928150654 40.046543145552278 942.27146819140762 58.298902234993875 1967.5254181083292
leaf_count=863 2982 8012 11370 6197 3758 1551 1908 1202 552 69 49 897 75 1812
internal_value=1.67681e-05 -0.00221606 0.00268701 -0.00410014 -0.00124578 -0.000363004 -0.00280261 -0.0035335 0.00109688 0.00350103 0.00359334 -0.000139605 -0.00494172 0.00300627
internal_weight=41311.4 22493.5 18817.9 7635.23 14858.2 9493.56 5364.69 6910.03 6383.58 12434.3 12303.9 3867.7 130.413 2515.89
internal_count=41297 23491 17806 8262 15229 9563 5666 7399 6243 11563 11419 3879 144 2364
is_linear=0
shrinkage=0.05


Tree=35
num_leaves=15
num_cat=0
split_feature=11 0 30 11 30 0 11 35 11 42 27 4 36 13
split_gain=88.9724 14.9395 8.81219 8.77246 7.50725 6.26099 5.48968 3.89514 3.82565 3.50834 2.8981 2.86249 2.83629 2.81207
threshold=1.6282894736842108 13.585000000000003 18.500000000000004 1.2899159663865549 6.5000000000000009 9.0050000000000008 2.3245614035087727 -0.93370370370370448 1.5590277777777779 61.000000000000007 15.500000000000002 19.275000000000002 1.1571011735538288 1.5000000000000002
decision_type=2 2 2 2 2 2 2 2 2 2 2 2 2 2
left_child=1 5 6 4 -3 -1 11 -5 -7 10 -4 -2 -8 -11
right_child=2 3 9 7 -6 8 12 -9 -10 13 -12 -13 -14 -15
leaf_value=-0.0073370981647139059 -0.00090902179926133993 0.0014320252186079277 0.0034724734350581443 -0.0031075294146822689 -0.0026628650578537976 -0.0030770527969618761 -0.00027067228240230202 0.00099289614970598595 -0.011160768832168329 0.0016807400706507288 -0.0094801440222915673 0.0022578795484464978 0.0037541406065511188 -0.012615230543116885
leaf_weight=1099.8171853935346 2928.2272001211531 1297.724775409326 12219.259987817146 657.51100309379399 7774.352449699305 6904.468622690998 548.51979102380574 4659.0589487496763 150.46701701544225 71.987060219049454 40.451141476631165 940.04025926813483 1959.7972508971579 59.087374292314053
leaf_count=1262 2982 1260 11370 699 8189 7330 552 4566 185 69 49 897 1812 75
internal_value=1.60605e-05 -0.00210043 0.00255968 -0.00112869 -0.00207417 -0.00381124 0.00104321 0.00048011 -0.00325612 0.00333777 0.00342616 -0.000132194 0.00286452 -0.00466865
internal_weight=41310.8 22543.4 18767.4 14388.6 9072.08 8154.75 6376.58 5316.57 7054.94 12390.8 12259.7 3868.27 2508.32 131.074
internal_count=41297 23491 17806 14714 9449 8777 6243 5265 7515 11563 11419 3879 2364 144
is_linear=0
shrinkage=0.05


Tree=36
num_leaves=15
num_cat=0
split_feature=12 12 30 4 18 30 4 27 4 36 12 12 47 12
split_gain=81.3723 13.1455 9.0322 8.33475 20.5772 8.2215 4.18168 4.12799 3.42011 3.39165 3.21987 2.77869 2.68524 2.58855
threshold=1.611525704809287 0.6906926406926408 12.500000000000002 14.04166666666667 1.0000000180025095e-35 9.5000000000000018 11.058333333333335 9.5000000000000018 7.7083333333333348 1.9720245820893705 2.395591085271318 1.5037313432835824 1.5000000000000002 0.57247899159663873
decision_type=2 2 2 2 2 2 2 2 2 2 2 2 2 2
left_child=1 2 8 11 -5 9 7 -7 -1 12 -8 -3 -2 -4
right_child=5 3 13 4 -6 6 10 -9 -10 -11 -12 -13 -14 -15
leaf_value=-0.0091860894632180678 0.00076134414090437655 -0.0026362602225886199 -0.010221592539727346 0.0017410274752239063 -0.0025411522485690855 -0.00066802542619513782 0.0024544693127727512 -0.019466458206729823 -0.0017092446455756586 0.004239874320047016 0.0039805172088707378 -0.0069600001799960415 -0.002212007308547646 -0.0057587117412862959
leaf_weight=172.44977513235062 2215.2619844651781 7113.3421322042122 719.08687431830913 4861.8623646530323 6616.1456871828996 305.39307153970003 9540.9579770364799 30.749618442729115 1424.7274763612077 478.2215788285248 5598.3453647210263 399.597610918805 1149.5550364344381 684.43981816153973
leaf_count=205 2181 7489 867 4692 6953 310 9072 44 1474 437 5152 456 1201 764
internal_value=1.52938e-05 -0.00206389 -0.00514197 -0.00157572 -0.000725139 0.00238344 0.00289759 -0.00256657 -0.00254264 0.000306091 0.00302089 -0.00287135 -0.000247756 -0.00807431
internal_weight=41310.1 21991.7 3000.7 18990.9 11478 19318.5 15475.4 336.143 1597.18 3843.04 15139.3 7512.94 3364.82 1403.53
internal_count=41297 22900 3310 19590 11645 18397 14578 354 1679 3819 14224 7945 3382 1631
is_linear=0
shrinkage=0.05


Tree=37
num_leaves=15
num_cat=0
split_feature=12 0 18 0 0 30 12 0 4 44 23 33 10 41
split_gain=73.4755 12.1044 23.6927 23.5766 14.1934 7.75317 4.97932 4.62372 4.31176 3.20903 3.83501 3.30761 2.50306 2.41791
threshold=1.611525704809287 12.401666666666669 1.0000000180025095e-35 16.337777777777781 19.968333333333337 24.500000000000004 2.3129664179104483 13.972083333333336 7.7083333333333348 11.500000000000002 8.0288358144829903 0.97992819031067513 0.78888888888888908 1.5000000000000002
decision_type=2 2 2 2 2 2 2 2 2 2 2 2 2 2
left_child=1 8 3 -3 -4 6 7 -2 12 10 -7 -11 -1 -8
right_child=5 2 4 -5 -6 9 13 -9 -10 11 -12 -13 -14 -15
leaf_value=-0.010344347665188098 -0.003653348403041472 -0.00076604060993562355 -0.0046297155932033809 0.0057811920873484506 -0.0004266375104285428 -0.00039470983224841719 -0.0042953823630812469 0.00071647037647016871 -0.0033846316572100858 -0.0083643189659059654 0.0054959650303663425 0.0027574135188351994 -0.0045366560045917376 0.0028887322956920552
leaf_weight=384.53164585866034 704.85243551107123 5982.8078850000165 5423.1609521880746 1781.743246012833 3212.075103353709 308.05238536326215 117.25507695227861 4202.7516031903215 4841.6224408056587 64.393304928205907 2134.3231465686113 8634.8048768131994 411.02495675906539 3106.0674992827699
leaf_count=465 757 6075 5926 1575 3240 311 128 4142 5170 76 1899 8158 449 2926
internal_value=1.44833e-05 -0.00195684 -0.00126728 0.000734246 -0.00306964 0.00226984 0.00109079 8.25325e-05 -0.00395732 0.00312769 0.00474304 0.00267031 -0.00739405 0.00261714
internal_weight=41309.5 22037 16399.8 7764.55 8635.24 19272.5 8130.93 4907.6 5637.18 11141.6 2442.38 8699.2 795.557 3223.32
internal_count=41297 22900 16816 7650 9166 18397 7953 4899 6084 10444 2210 8234 914 3054
is_linear=0
shrinkage=0.05


Tree=38
num_leaves=15
num_cat=0
split_feature=12 12 30 30 4 18 2 41 42 44 14 44 33 12
split_gain=66.3377 10.9973 7.91332 7.04274 6.83213 16.7047 4.53561 4.24646 3.16745 3.81402 3.12516 2.77736 2.59993 2.5549
threshold=1.611525704809287 0.6906926406926408 12.500000000000002 24.500000000000004 14.04166666666667 1.0000000180025095e-35 17.883750000000003 2.5000000000000004 61.000000000000007 11.500000000000002 5.2536152695770104 4.5000000000000009 2.7437617229816733 1.5037313432835824
decision_type=2 2 2 2 2 2 2 2 2 2 2 2 2 2
left_child=1 2 10 6 13 -6 7 -2 9 -5 -1 -10 -8 -3
right_child=3 4 -4 8 5 -7 12 -9 11 -11 -12 -13 -14 -15
leaf_value=-0.0014285489186794623 -0.0072844131722638516 -0.0023521884665615718 -0.0073818646320662068 0.004869479326760507 0.001591330453532246 -0.0022659717085935943 0.0029671775189824014 0.00033298715798039382 -0.017346945969720733 0.002580857745713809 -0.0085196433808955429 -0.00030670612693853576 -0.00095764057495869009 -0.0064793879786162389
leaf_weight=1431.5422956990078 188.71505545498803 7151.951167665422 1420.4877587649971 2359.4839327684604 4846.8215434607118 6650.9902496724389 2966.6715259370394 4486.3915432710201 30.295451026409864 8612.1372607224621 175.29089578799903 104.84460223000497 480.26330457720906 403.01501112431288
leaf_count=1473 217 7489 1631 2129 4692 6953 2790 4456 42 8167 206 106 490 456
internal_value=1.37997e-05 -0.00185535 -0.00465746 0.00216138 -0.00140837 -0.000637785 0.0010373 1.7175e-05 0.00298081 0.00307611 -0.00222729 -0.00450632 0.00241284 -0.00257732
internal_weight=41308.9 22080.1 3027.32 19228.8 19052.8 11497.8 8122.04 4675.11 11106.8 10971.6 1606.83 135.14 3446.93 7554.97
internal_count=41297 22900 3310 18397 19590 11645 7953 4673 10444 10296 1679 148 3280 7945
is_linear=0
shrinkage=0.05


Tree=39
num_leaves=15
num_cat=0
split_feature=11 11 4 30 18 2 4 4 11 42 41 27 13 36
split_gain=60.9249 10.6086 7.39529 6.54204 6.33942 21.7525 6.9123 5.55476 4.26614 2.9128 2.62032 2.5074 2.47921 2.44416
threshold=1.6282894736842108 0.97500000000000009 20.558333333333337 18.500000000000004 1.0000000180025095e-35 16.233750000000004 21.44166666666667 7.4083333333333341 2.3245614035087727 61.000000000000007 3.5000000000000004 15.500000000000002 1.5000000000000002 1.1571011735538288
decision_type=2 2 2 2 2 2 2 2 2 2 2 2 2 2
left_child=1 2 7 8 5 -3 -6 -1 10 11 -2 -5 -11 -10
right_child=3 4 -4 9 6 -7 -8 -9 13 12 -12 -13 -14 -15
leaf_value=-0.0091180218925509694 -0.0044989120925494185 -0.0012878026887373035 0.0013165732911792731 0.0029365947655321805 -0.0034856623582020028 0.0049203174886798019 0.00044104345025252321 -0.0032959464103481024 -0.00047098077315417737 0.0015126149260195226 0.00018087079501906707 -0.0090701272773507403 -0.011858497481037421 0.0032750102155617942
leaf_weight=439.91262095421553 324.15329963015392 7401.8071420299821 826.31063267029822 12080.104929629713 3651.7829279028811 1741.0246999589726 1600.636649698019 7045.9093729993328 546.33489891793579 71.730517603456974 3538.3067505392246 40.745802521705627 59.834673386067152 1939.6804718743078
leaf_count=521 354 7593 804 11370 3907 1569 1586 7511 552 69 3525 49 75 1812
internal_value=1.3042e-05 -0.00172421 -0.00314746 0.00213513 -0.000900341 -0.000102069 -0.00228456 -0.00364377 0.000826516 0.00281089 -0.000207531 0.00289268 -0.00446778 0.00244201
internal_weight=41308.3 22707.4 8312.13 18600.9 14395.3 9142.83 5252.42 7485.82 6348.48 12252.4 3862.46 12120.9 131.565 2486.02
internal_count=41297 23491 8836 17806 14655 9162 5493 8032 6243 11563 3879 11419 144 2364
is_linear=0
shrinkage=0.05


Tree=40
num_leaves=15
num_cat=0
split_feature=11 0 18 0 0 30 0 18 11 42 33 14 41 13
split_gain=55.0034 10.0159 18.4918 11.4961 10.6956 5.9372 4.34969 5.13064 3.86147 2.63247 2.44057 2.36592 2.35535 2.21642
threshold=1.6282894736842108 13.585000000000003 1.0000000180025095e-35 20.828333333333337 16.337777777777781 18.500000000000004 9.0050000000000008 1.0000000180025095e-35 2.3245614035087727 61.000000000000007 1.6293933961673839 11.638335606930598 3.5000000000000004 1.5000000000000002
decision_type=2 2 2 2 2 2 2 2 2 2 2 2 2 2
left_child=1 6 4 -4 -3 8 -1 -8 12 10 -7 -10 -2 -11
right_child=5 2 3 -5 -6 9 7 -9 11 13 -12 -13 -14 -15
leaf_value=-0.0059251661713868309 -0.0042557701932168599 -0.00020914615524057729 -0.0035354382897439906 0.00057355826358648743 0.0042362113708090511 0.0014914804787317174 -0.0020735721964392009 -0.0063119651843879417 0.0055666771274287576 0.0014412105794981654 0.0031634584744951164 0.001565835966947107 0.00017186432626908638 -0.011152597729370167
leaf_weight=1127.6345507772639 325.61492294119671 4111.2944061965682 5987.9575017103925 2363.6366104418412 2007.7767896335572 2961.9123530173674 6335.6677667382173 812.65812508761883 462.17864737845957 71.622098959982395 9123.8873271369375 2017.751996057108 3537.6668560109101 60.548446631990373
leaf_count=1262 354 4129 6412 2336 1837 2873 6599 916 410 69 8546 1954 3525 75
internal_value=1.24769e-05 -0.00163499 -0.000838943 -0.00236967 0.00124628 0.00203274 -0.00302333 -0.00256054 0.00078573 0.00267787 0.00275608 0.00232542 -0.000196858 -0.00422203
internal_weight=41307.8 22746.6 14470.7 8351.59 6119.07 18561.2 8275.96 7148.33 6343.21 12218 12085.8 2479.93 3863.28 132.171
internal_count=41297 23491 14714 8748 5966 17806 8777 7515 6243 11563 11419 2364 3879 144
is_linear=0
shrinkage=0.05


Tree=41
num_leaves=15
num_cat=0
split_feature=11 11 31 0 18 31 4 4 27 11 34 44 36 44
split_gain=49.6696 9.05914 7.69092 6.27942 15.3621 5.43741 5.42277 4.16252 3.54634 3.50394 3.0306 2.24782 1.78726 1.37722
threshold=1.6282894736842108 0.62828947368421062 0.25000000000000006 14.061666666666669 1.0000000180025095e-35 0.95000000000000007 19.975000000000005 10.408333333333335 9.5000000000000018 1.5590277777777779 0.53333333333333366 11.500000000000002 1.9720245820893705 10.500000000000002
decision_type=2 2 2 2 2 2 2 2 2 2 2 2 2 2
left_child=1 2 13 9 -5 10 -4 8 -7 -3 12 -9 -2 -1
right_child=5 3 6 4 -6 7 -8 11 -10 -11 -12 -13 -14 -15
leaf_value=-0.0046436446304984553 -0.00041394529670029008 -0.0020967732293409795 -0.0062968053947495828 0.001660242906729008 -0.0019564013161459223 -0.0017555679294374836 0.0021081133636856966 0.0037079597788601485 -0.020651361191255362 -0.0087439540356707146 0.0078901853373489605 0.002152307105277152 0.0030505903222671276 0.0025548476523846349
leaf_weight=75.319147289730608 3259.4983635121025 7759.0373009108007 2024.3139128806069 4995.4392633563839 7106.3637555744499 193.63112506829202 206.28162590973079 2995.8155985353515 27.369568708352745 204.40421991888434 123.26770715694875 11505.869385378901 418.13307510968298 412.68936315923929
leaf_count=83 3287 8085 2280 4829 7385 201 197 2773 40 241 103 11010 392 391
internal_value=1.20232e-05 -0.00155064 -0.00426185 -0.00118167 -0.000461413 0.00193539 -0.00550714 0.0023708 -0.00437203 -0.00227268 0.000241909 0.00247587 -1.18023e-05 0.0013784
internal_weight=41307.4 22783.8 2718.6 20065.2 12101.8 18523.6 2230.6 14722.7 221.001 7963.44 3800.9 14501.7 3677.63 488.009
internal_count=41297 23491 2951 20540 12214 17806 2477 14024 241 8326 3782 13783 3679 474
is_linear=0
shrinkage=0.05


Tree=42
num_leaves=15
num_cat=0
split_feature=11 32 12 30 10 30 2 27 1 46 44 14 29 25
split_gain=44.9823 7.26767 6.95747 8.01702 5.15797 4.98454 4.92861 4.28531 3.70157 2.98965 2.78311 2.51825 2.45418 2.02269
threshold=1.4721362229102171 13.125000000000002 0.6478537360890303 12.500000000000002 2.4142857142857146 2.5000000000000004 22.874583333333337 10.500000000000002 10.050833333333335 13.500000000000002 4.5000000000000009 5.8488580926920752 0.042653056008142405 8.1089567043177002
decision_type=2 2 2 2 2 2 2 2 2 2 2 2 2 2
left_child=2 4 3 11 7 9 8 -2 -4 -3 -7 -1 -8 -6
right_child=1 5 6 -5 13 10 12 -9 -10 -11 -12 -13 -14 -15
leaf_value=-0.0010576588449420948 -0.0016534782423076922 0.0011595283740316771 -0.0039773206692382207 -0.0071833668289351437 -0.0078905183451460116 -0.00736963255934264 0.0054456000828662088 -0.013336347698444771 -0.0012542800217808488 -0.0031146300696880576 0.0021895967060745836 -0.01148100536397575 -0.0041098847024263188 0.0066037021943401823
leaf_weight=1328.3586883833632 1687.6248417207971 918.85515053989366 1367.5566769046709 1171.8553309785202 23.479129312559962 73.388316226191819 378.99491836503148 81.285509373992682 15524.995982390828 728.02484924951568 17642.172482926864 59.401077965274453 77.005897760391235 243.98872447106987
leaf_count=1357 1744 897 1477 1341 28 85 337 104 15915 774 16869 74 84 211
internal_value=1.14836e-05 0.00160349 -0.00169846 -0.00413577 -0.00122945 0.00190282 -0.00133698 -0.00221891 -0.00147665 -0.000716244 0.00214776 -0.00153768 0.00376646 0.00518946
internal_weight=41307 21398.8 19908.2 2559.62 2036.38 19362.4 17348.6 1768.91 16892.6 1646.88 17715.6 1387.76 456.001 267.468
internal_count=41297 20712 20585 2772 2087 18625 17813 1848 17392 1671 16954 1431 421 239
is_linear=0
shrinkage=0.05


Tree=43
num_leaves=15
num_cat=0
split_feature=12 32 18 0 32 18 2 32 36 0 15 0 12 39
split_gain=40.8948 8.15304 11.6785 6.0936 5.91264 6.60822 15.9914 7.4081 3.36769 2.72828 2.66528 2.64233 2.58994 1.55169
threshold=1.3852901484480433 17.308333333333337 1.0000000180025095e-35 13.481666666666667 8.408333333333335 1.0000000180025095e-35 16.233750000000004 21.891666666666669 2.0124607063994389 17.651666666666667 8.0851389685920712 23.451666666666672 1.1338308457711446 4.5000000000000009
decision_type=2 2 2 2 2 2 2 2 2 2 2 2 2 2
left_child=4 2 3 -2 12 6 -6 -7 11 -10 -4 -3 13 -1
right_child=1 8 10 -5 5 7 -8 -9 9 -11 -12 -13 -14 -15
leaf_value=-0.0058443929045349776 -0.0015047244481721453 0.0016157564520067854 -0.0059484456340193337 0.0015322764117026355 -0.0012719603283060012 -0.0032931855470175993 0.0060652214172931956 0.00077446210469040832 0.0091545286612362119 0.0034580726188409121 0.0029842202113701732 0.0039163234429233423 -0.00029134591446890455 -0.017412820452226283
leaf_weight=954.67617061454803 2093.4388392916881 9445.8071292624809 817.0576064302586 7695.3906039008871 8134.5135541693307 6489.9181768642738 814.55128789227456 1340.2910725101829 254.45437914086506 1452.0652529499494 87.863446550443769 1462.184401337523 233.12991772498935 31.005591311492026
leaf_count=1067 2157 9140 915 7459 8342 6918 715 1319 207 1351 82 1347 235 43
internal_value=1.0709e-05 0.00139372 0.000375151 0.000880055 -0.00177892 -0.00153214 -0.000600125 -0.00259372 0.00225503 0.00433181 -0.00504889 0.00192709 -0.00514774 -0.00626812
internal_weight=41306.3 23308.3 10693.8 9788.83 17998.1 16779.3 8949.06 7830.21 12614.5 1706.52 904.921 10908 1218.81 985.682
internal_count=41297 22658 10613 9616 18639 17294 9057 8237 12045 1558 997 10487 1345 1110
is_linear=0
shrinkage=0.05


Tree=44
num_leaves=15
num_cat=0
split_feature=12 0 17 12 17 30 33 4 36 4 23 12 4 42
split_gain=37.1296 7.53862 6.12904 5.66152 7.11731 5.10328 4.33632 3.64696 5.80505 3.48849 3.1632 2.89999 2.85205 2.54826
threshold=1.611525704809287 16.337777777777781 1.0000000180025095e-35 0.99275362318840588 1.0000000180025095e-35 24.500000000000004 1.8201006025212476 10.175000000000002 1.060005038625601 21.891666666666669 8.6702943772686005 2.3129664179104483 28.741666666666671 61.000000000000007
decision_type=2 2 2 2 2 2 2 2 2 2 2 2 2 2
left_child=1 3 9 4 -1 7 -4 8 -2 -3 -5 -9 13 -7
right_child=5 2 6 10 -6 12 -8 11 -10 -11 -12 -13 -14 -15
leaf_value=-0.0049887041668367875 0.0050584547351811447 -0.0013062359745861273 -0.00019361345268135053 -0.00042059779073567641 -0.0013519710048403646 0.0024817820619092812 0.0064122793916728512 5.1473601605969909e-05 -0.013531736190918051 0.0012566396480196314 -0.0023486534724145971 0.0020159556049008007 -0.0091653248322618036 -0.0043302754816920853
leaf_weight=2971.7925724368542 64.197101007215679 5363.3322006822564 431.82013333728537 4875.470928454306 2502.7724056728184 10771.236483111046 560.65846750326455 4758.4006984978914 107.78764967806637 1753.6237268270925 3827.6113994051702 3131.8542160950601 50.818099184893072 134.66413261275738
leaf_count=3269 57 5504 434 4917 2571 10236 488 4753 138 1709 4008 3005 61 147
internal_value=1.03373e-05 -0.00137381 -0.000154507 -0.00206935 -0.00333179 0.00163361 0.00351836 0.000674209 -0.00647047 -0.000671054 -0.00127177 0.00083471 0.00233704 0.0023946
internal_weight=41306 22287.1 8109.43 14177.6 5474.56 19019 992.479 8062.24 171.985 7116.96 8703.08 7890.25 10956.7 10905.9
internal_count=41297 22900 8135 14765 5840 18397 922 7953 195 7213 8925 7758 10444 10383
is_linear=0
shrinkage=0.05


Tree=45
num_leaves=15
num_cat=0
split_feature=11 4 18 18 31 0 1 31 12 4 34 14 33 41
split_gain=34.1077 6.85216 12.3889 7.05194 6.36904 5.91633 5.89304 4.1935 3.80805 3.25818 2.66709 2.54707 2.21523 2.17257
threshold=1.6282894736842108 16.291666666666671 1.0000000180025095e-35 1.0000000180025095e-35 0.65000000000000002 21.021666666666672 10.382500000000002 0.95000000000000007 0.95875850340136071 10.408333333333335 0.53333333333333366 11.515622096498674 1.5661469759956048 18.500000000000004
decision_type=2 2 2 2 2 2 2 2 2 2 2 2 2 2
left_child=1 3 4 6 -3 -4 -1 10 -5 11 13 -9 -11 -2
right_child=7 2 5 8 -6 -7 -8 9 -10 12 -12 -13 -14 -15
leaf_value=-0.0036473635654581957 -0.0013068434251242292 0.0089518559742712486 -0.002444063677439429 -0.0059315358780978374 0.00172167436055575 0.00075454431345210325 -0.00079646514601765901 -0.012592748056045738 -0.0022458929456218284 0.00089015963277569183 0.0073495614173710588 -0.00049159133801622784 0.0024174754011051739 0.001124133629735313
leaf_weight=2300.5362638710067 1876.4043923607096 355.50702831987292 4291.6222723145038 1502.0709798838943 2196.1913942857645 2163.1744008781388 8721.5400848286226 59.908130045980215 1374.6632349034771 3081.3942661769688 121.67985360510647 162.87893940042704 11304.146596669219 1793.8760896311142
leaf_count=2469 1926 291 4502 1681 2120 2130 8861 76 1437 3026 103 165 10757 1753
internal_value=9.79718e-06 -0.00127731 -0.000199839 -0.00197359 0.00274501 -0.00136835 -0.00139433 0.00161335 -0.0041818 0.001998 0.000124676 -0.00393994 0.00209223 -0.000111913
internal_weight=41305.6 22905.3 9006.5 13898.8 2551.7 6454.8 11022.1 18400.3 2876.73 14608.3 3791.96 222.787 14385.5 3670.28
internal_count=41297 23491 9043 14448 2411 6632 11330 17806 3118 14024 3782 241 13783 3679
is_linear=0
shrinkage=0.05


Tree=46
num_leaves=15
num_cat=0
split_feature=11 35 3 18 31 36 4 27 44 23 36 47 23 1
split_gain=30.793 6.2802 6.13177 10.323 3.79613 3.52046 2.95382 3.06784 2.84895 2.83148 2.38466 4.11949 3.28546 2.24312
threshold=1.6282894736842108 -0.65550505050505048 12.523964646464648 1.0000000180025095e-35 0.95000000000000007 0.74094429825773356 10.408333333333335 9.5000000000000018 9.5000000000000018 8.4424472068199279 1.5105443741965729 1.5000000000000002 8.2345928488475622 14.127222222222224
decision_type=2 2 2 2 2 2 2 2 2 2 2 2 2 2
left_child=1 5 13 -4 10 9 7 -6 -7 -1 11 -2 -12 -3
right_child=4 2 3 -5 6 8 -8 -9 -10 -11 12 -13 -14 -15
leaf_value=-0.0024105200401570957 0.00067175446800795758 -0.0022205261773808951 0.0012695128637998452 -0.0015535081845829317 -0.0012939164776082817 0.0015863436885661291 0.0019920058961785492 -0.018630190614862187 -0.0024626125973056549 -0.0072247104305230778 -0.004295617205716004 -0.003491985227799678 0.0032529585222474283 -0.014925183319265118
leaf_weight=593.7773349750787 1815.9239702201448 4527.349233425688 6238.9595681731589 6723.5364756169729 195.39183015190065 483.91661447379738 14355.504713873845 28.234507285989821 3651.5542243313976 681.70813488680869 166.06144705042243 876.16894224099815 933.35331090958789 33.810449615120888
leaf_count=623 1791 4729 6080 6933 201 468 13783 40 3832 781 181 938 872 45
internal_value=9.3818e-06 -0.00121179 -0.000749884 -0.00019285 0.00153527 -0.00270225 0.00190188 -0.00373929 -0.00198224 -0.00501041 0.000118725 -0.000675684 0.00208435 -0.00232668
internal_weight=41305.3 22934.6 17523.7 12962.5 18370.6 5410.96 14579.1 223.626 4135.47 1275.49 3791.51 2692.09 1099.41 4561.16
internal_count=41297 23491 17787 13013 17806 5704 14024 241 4300 1404 3782 2729 1053 4774
is_linear=0
shrinkage=0.05


Tree=47
num_leaves=15
num_cat=0
split_feature=10 4 18 18 31 1 4 9 12 34 23 14 42 14
split_gain=27.8305 7.16356 11.8767 6.42821 5.54787 5.21283 5.08749 4.52683 4.04811 3.29722 5.29975 2.26105 3.60057 3.20475
threshold=1.6458333333333337 16.291666666666671 1.0000000180025095e-35 1.0000000180025095e-35 0.65000000000000002 10.050833333333335 21.308333333333337 2.1000000000000005 1.7698612862547292 -0.54999999999999993 7.7539113893928544 13.550315528249387 61.000000000000007 14.610513144587722
decision_type=2 2 2 2 2 2 2 2 2 2 2 2 2 2
left_child=1 3 4 5 -3 -1 -4 9 -5 -2 -11 12 -9 -13
right_child=7 2 6 8 -6 -7 -8 11 -10 10 -12 13 -14 -15
leaf_value=-0.0036810057659848977 0.0024525556371106177 0.0085367035479488283 -0.0022588625322149977 -0.0037487825776316495 0.0018061533256919595 -0.00079986256546118811 0.00063790912613905242 0.0028913847139507651 -0.022655498737960605 -0.0064060116613197096 0.00034960401430683837 -0.0011347677336410662 -0.012079239771827859 0.0020735364239152627
leaf_weight=1900.4419996878132 1780.9559733537026 351.927479904145 4217.8584010861814 2847.8319927435368 2458.3763375082053 9255.4069385817274 2346.4621086129919 6111.0007281596772 27.24761407636106 304.26168132061139 5572.4771800045855 1031.054464593064 37.868400386534631 3061.5475488351658
leaf_count=2041 1693 291 4409 3062 2369 9404 2316 5757 41 344 5533 1055 48 2934
internal_value=8.73812e-06 -0.00112559 -5.26611e-05 -0.00184057 0.00266336 -0.00129349 -0.00121971 0.00149338 -0.00395228 0.00056918 0 0.00218174 0.00279122 0.001259
internal_weight=41304.7 23405.6 9374.62 14030.9 2810.3 11155.8 6564.32 17899.2 2875.08 7657.69 5876.74 10241.5 6148.87 4092.6
internal_count=41297 23933 9385 14548 2660 11445 6725 17364 3103 7570 5877 9794 5805 3989
is_linear=0
shrinkage=0.05


Tree=48
num_leaves=15
num_cat=0
split_feature=11 1 18 30 4 30 34 34 11 35 1 27 42 30
split_gain=25.2534 5.56126 10.9762 6.87169 6.6235 3.71855 3.22407 5.79423 3.0725 2.37742 2.31599 1.9822 1.96193 1.18537
threshold=1.6282894736842108 13.652023809523811 1.0000000180025095e-35 12.500000000000002 21.44166666666667 18.500000000000004 0.53333333333333366 0.5 0.8377192982456142 -2.4362500000000007 13.456111111111113 15.500000000000002 61.000000000000007 11.500000000000002
decision_type=2 2 2 2 2 2 2 2 2 2 2 2 2 2
left_child=1 8 3 -3 -4 6 7 -2 9 -1 -10 12 -7 -8
right_child=5 2 4 -5 -6 11 13 -9 10 -11 -12 -13 -14 -15
leaf_value=-0.012887857327978196 0.00020212901146138959 0.004465182571656956 -0.0024423662570825381 0.00027406653339442661 0.00077186372288962524 0.0020189890013435452 0.0066601613943934601 -0.016005535807474113 -0.0011266508538888102 -0.0031674519800576591 -0.0054492739433114204 -0.0087073781593803613 -0.0039927540123559967 0.0019065205821957886
leaf_weight=64.388014857657254 5665.4109577583149 1240.4558430700563 6423.6253905314952 4670.1093768682331 2120.2619406413287 11849.04250767827 242.00183084700257 53.677148086950183 5166.0482851881534 2970.2131490968168 332.08913624379784 41.009926138445735 132.74030186515301 333.28453649859875
leaf_count=82 5642 1129 6738 4644 2087 11370 209 72 5283 3159 369 49 144 320
internal_value=8.30178e-06 -0.00109466 -0.000494753 0.0011591 -0.0016418 0.00139381 0.000403998 4.00982e-05 -0.00210763 -0.00339028 -0.00139417 0.00190977 0.00194965 0.00396565
internal_weight=41304.4 22987.2 14454.5 5910.57 8543.89 18317.2 6294.37 5719.09 8532.74 3034.6 5498.14 12022.8 11981.8 575.286
internal_count=41297 23491 14598 5773 8825 17806 6243 5714 8893 3241 5652 11563 11514 529
is_linear=0
shrinkage=0.05


Tree=49
num_leaves=15
num_cat=0
split_feature=12 0 9 35 30 30 11 30 33 36 1 40 36 36
split_gain=23.0896 5.64441 4.81911 6.3803 6.05687 3.83804 3.51116 5.39456 2.896 3.93114 2.69671 2.52412 2.87178 2.36968
threshold=1.6692708333333337 16.159166666666671 1.2916666666666667 -1.6980128205128187 13.500000000000002 4.5000000000000009 0.64495798319327746 2.5000000000000004 1.5661469759956048 0.98711164460764511 16.097777777777782 -1.4999999999999998 1.1474379817391951 1.060005038625601
decision_type=2 2 2 2 2 2 2 2 2 2 2 2 2 2
left_child=1 6 4 -4 -3 11 7 -1 9 -7 -8 12 -2 -10
right_child=5 2 3 -5 -6 8 10 -9 13 -11 -12 -13 -14 -15
leaf_value=0.0022545226869115161 -0.016347539604441057 0.0017319912175931852 -0.015233504327121467 0.0016946920397199776 -0.001981066617019155 -0.0050280831585663892 -0.0011585493956413936 -0.0046810917971214809 0.0037221563626878779 0.00088141631507023671 -0.0049349861161610015 -7.2513371983138955e-05 -0.001824874461800127 0.0017111009643268891
leaf_weight=328.3977848822251 49.622110360302031 1506.7632942162454 54.336081013083458 3439.1332264272496 3990.3190027740784 308.29610737599432 11968.140029023867 1719.3445625239983 1734.7922455631196 2970.9073806903325 495.40615233872086 2065.5015679909848 116.18649008497596 10556.844985417556
leaf_count=313 67 1454 72 3322 4149 340 12246 1881 1605 2918 545 2069 121 10195
internal_value=7.85725e-06 -0.00102039 -3.3074e-05 0.00141568 -0.000958503 0.00136668 -0.00163027 -0.00355551 0.00164498 0.000315486 -0.00131143 -0.000563957 -0.00646314 0.00199753
internal_weight=41304 23501.8 8990.55 3493.47 5497.08 17802.2 14511.3 2047.74 15570.8 3279.2 12463.5 2231.31 165.809 12291.6
internal_count=41297 23982 8997 3394 5603 17315 14985 2194 15058 3258 12791 2257 188 11800
is_linear=0
shrinkage=0.05


Tree=50
num_leaves=15
num_cat=0
split_feature=11 0 18 30 0 11 35 18 30 34 34 14 13 46
split_gain=20.7557 4.88818 10.157 9.2564 5.67182 3.88725 6.56762 3.99258 3.19596 2.86914 2.40614 1.93522 2.22541 1.48474
threshold=1.6282894736842108 14.657500000000001 1.0000000180025095e-35 12.500000000000002 20.828333333333337 1.5590277777777779 -0.37749999999999856 1.0000000180025095e-35 18.500000000000004 0.57500000000000018 0.48006535947712431 5.3440093592180897 1.0000000180025095e-35 22.500000000000004
decision_type=2 2 2 2 2 2 2 2 2 2 2 2 2 2
left_child=1 5 3 -3 -4 7 -7 -1 9 10 -2 -10 -13 -11
right_child=8 2 4 -5 -6 6 -8 -9 11 13 -12 12 -14 -15
leaf_value=-0.0011933922775360319 0.00019265968910090121 0.0062407082827936489 -0.0022266673633998275 0.00046810029193330603 0.00069487894652210148 -0.017257728889959186 -0.0012496630104078771 -0.0039306089052843617 0.0073824967254196468 0.0046310853881379168 -0.0062862703962086267 -0.00027885971225289849 0.0019099820654596184 -0.0058664251853137554
leaf_weight=9276.0528715210967 5624.1787617257796 889.81059663603082 5463.1199171422049 3193.4154990315437 2369.4575183265842 106.1660076668486 167.26940590981394 1569.0002482002601 151.10610718373209 485.66870813909918 145.01631396543235 1282.3370027253404 10548.526308595203 32.457189235836267
leaf_count=9498 5602 778 5707 3163 2336 144 172 1693 128 440 164 1290 10145 37
internal_value=7.36275e-06 -0.000990194 -0.000284014 0.00173462 -0.00133972 -0.00174458 -0.00763602 -0.00159235 0.00126644 0.000348376 2.33493e-05 0.00174596 0.00167062 0.00390539
internal_weight=41303.6 23034.3 11915.8 4083.23 7832.58 11118.5 273.435 10845.1 18269.3 6287.32 5769.2 11982 11830.9 518.126
internal_count=41297 23491 11984 3941 8043 11507 316 11191 17806 6243 5766 11563 11435 477
is_linear=0
shrinkage=0.05


Tree=51
num_leaves=15
num_cat=0
split_feature=10 1 18 0 0 31 42 10 11 35 35 33 14 31
split_gain=19.5636 4.80607 6.79915 10.3797 7.19867 2.88176 2.76526 3.05477 2.6522 2.0847 3.44084 3.10232 1.75817 1.2586
threshold=1.6458333333333337 10.050833333333335 1.0000000180025095e-35 16.159166666666671 19.968333333333337 0.95000000000000007 61.000000000000007 2.7888888888888892 1.1937500000000003 0.29763888888889062 0.067499999999999907 2.7618085406316606 9.1449963278244812 0.65000000000000002
decision_type=2 2 2 2 2 2 2 2 2 2 2 2 2 2
left_child=1 12 3 -3 -4 9 8 -8 -7 10 -2 -11 13 -1
right_child=5 2 4 -5 -6 6 7 -9 -10 11 -12 -13 -14 -15
leaf_value=-0.0014608690337775121 -6.0235922183769507e-05 -0.00067750594450439116 -0.0027716159355253194 0.0029542687368176637 0.00010098275138727499 -0.013191276978050739 -0.013521327771963932 0.002408037360777238 0.0016859302750737199 0.0062936961259790801 -0.0079120387620295989 -0.0018479441760641082 -0.0012082761696641405 -0.005229469782278247
leaf_weight=312.316495411098 3159.6910555139184 9604.3330495669506 5985.5937946522608 2471.6569474874996 3404.3797134845518 27.671817125752568 61.364544175565243 52.105774823576212 13886.811348789372 294.86793173803017 144.34262906480581 185.56770759727806 708.3343961853534 1004.2562660621479
leaf_count=322 3164 9735 6318 2325 3397 36 79 49 13418 257 168 193 726 1110
internal_value=7.01298e-06 -0.000939922 -0.000718598 6.41249e-05 -0.00172768 0.00125719 0.00158751 -0.00607502 0.00165266 2.60047e-05 -0.000415397 0.00310255 -0.00327082 -0.00435802
internal_weight=41303.3 23490.9 21466 12076 9389.97 17812.4 14028 113.47 13914.5 3784.47 3304.03 480.436 2024.91 1316.57
internal_count=41297 23933 21775 12060 9715 17364 13582 128 13454 3782 3332 450 2158 1432
is_linear=0
shrinkage=0.05


Tree=52
num_leaves=15
num_cat=0
split_feature=10 4 4 12 3 34 30 42 12 41 43 3 4 12
split_gain=17.6583 5.0545 3.46278 2.93992 3.79381 3.07429 2.71954 2.85581 3.29559 2.84285 4.42644 3.57198 2.31778 2.22571
threshold=1.6458333333333337 16.291666666666671 7.4083333333333341 1.3759057971014494 16.21584047327622 0.50000000000000022 24.500000000000004 61.000000000000007 2.6929280397022337 18.500000000000004 8.5000000000000018 17.85680555555556 28.741666666666671 0.66397849462365599
decision_type=2 2 2 2 2 2 2 2 2 2 2 2 2 2
left_child=1 2 -1 5 -5 -3 9 12 -9 11 -11 -2 -8 -4
right_child=6 3 13 4 -6 -7 7 8 -10 10 -12 -13 -14 -15
leaf_value=-0.0047839276281784523 -0.0017826883314369262 -0.00094770339302485554 -0.0029977877379557226 0.0048751094201331781 0.00040467336788003279 0.0029628806491880781 0.0018935342555872676 -0.014667329136864461 0.0019765131603460698 -0.0034670448538366011 0.0020594741506902354 0.0012215000400925115 -0.0083808747960922372 -0.0010502157543923446
leaf_weight=758.71581144444644 2210.6120479642414 5793.6488811513409 1699.4861178165302 591.35323930112645 2455.3887923224829 545.97148346342146 9828.799115984235 54.829315027222037 56.825382627546787 400.5844344436191 3405.8683364251629 1780.0351176206023 52.384249024093151 11668.371833106969
leaf_count=832 2290 5904 1802 533 2435 513 9456 72 54 429 3265 1736 62 11914
internal_value=6.50545e-06 -0.000892122 -0.00148963 4.59289e-06 0.00128319 -0.000606151 0.00119559 0.00174259 -0.00609095 0.000491082 0.00146979 -0.000436463 0.00183485 -0.0013001
internal_weight=41302.9 23512.9 14126.6 9386.36 3046.74 6339.62 17789.9 9992.84 111.655 7797.1 3806.45 3990.65 9881.18 13367.9
internal_count=41297 23933 14548 9385 2968 6417 17364 9644 126 7720 3694 4026 9518 13716
is_linear=0
shrinkage=0.05


Tree=53
num_leaves=15
num_cat=0
split_feature=10 4 18 30 18 4 9 0 34 3 11 4 46 25
split_gain=15.9393 4.55455 7.99963 5.80837 4.25855 4.04745 3.57365 3.50525 2.62807 4.12651 2.36766 2.15501 1.95409 2.73321
threshold=1.6458333333333337 16.291666666666671 1.0000000180025095e-35 10.500000000000002 1.0000000180025095e-35 7.0250000000000012 2.1000000000000005 23.591666666666669 -0.54999999999999993 23.835599415204683 0.90454545454545465 13.891666666666667 11.500000000000002 7.8728773024330359
decision_type=2 2 2 2 2 2 2 2 2 2 2 2 2 2
left_child=1 4 3 -3 5 -1 8 -4 11 -10 -6 -2 13 -8
right_child=6 2 7 -5 10 -7 12 -9 9 -11 -12 -13 -14 -15
leaf_value=-0.0052852177564272351 -0.0025468141319327873 0.0070069979372208704 -0.0012820596024340093 0.0011408928308411998 -0.0044792701333065416 -0.00075525755867575243 -0.0058897062740650569 0.0029665868466863098 -0.00047581437270671144 0.0060874379233992774 -0.0015884045612307629 0.0026739545738890596 0.0013806866107823445 0.0034272734555577007
leaf_weight=517.57830995041877 220.18283272674307 521.92247476428747 6077.6115103787743 2264.2100578388199 1533.9053053967655 10709.69818177307 78.068411663174629 522.62703256774694 5606.1314059719443 247.92848134040833 1386.3933919742703 1544.1887755296193 7951.1152058304287 2121.0236561186612
leaf_count=573 232 448 6234 2212 1672 10872 88 491 5660 217 1431 1461 7731 1975
internal_value=6.15551e-06 -0.000846692 4.63913e-06 0.00225299 -0.0014132 -0.00096722 0.0011371 -0.000941055 0.000314493 -0.000191597 -0.00311743 0.00200614 0.00175187 0.00308011
internal_weight=41302.6 23533.9 9386.37 2786.13 14147.6 11227.3 17768.6 6600.24 7618.43 5854.06 2920.3 1764.37 10150.2 2199.09
internal_count=41297 23933 9385 2660 14548 11445 17364 6725 7570 5877 3103 1693 9794 2063
is_linear=0
shrinkage=0.05


Tree=54
num_leaves=15
num_cat=0
split_feature=10 4 18 1 4 11 12 1 18 25 33 46 11 12
split_gain=14.3907 4.18166 4.79587 8.54864 5.53653 2.47089 3.7025 3.49227 5.26639 2.25357 2.14376 1.67692 1.52817 2.67395
threshold=1.6458333333333337 8.408333333333335 1.0000000180025095e-35 16.634166666666669 21.308333333333337 2.5477272727272733 3.1129418017539199 21.952500000000004 1.0000000180025095e-35 8.0208997071223678 6.4170525263008669 15.500000000000002 1.5358974358974362 1.1769449715370022
decision_type=2 2 2 2 2 2 2 2 2 2 2 2 2 2
left_child=1 12 3 -3 -4 7 10 8 -2 -9 -7 -8 13 -1
right_child=5 2 4 -5 -6 6 11 9 -10 -11 -12 -13 -14 -15
leaf_value=-0.0043125465480100796 0.00082166562853008731 -0.00054862519301032144 -0.0021978569151520906 0.0030804713291911639 0.00059913418934550756 0.0029456055866241919 0.001392627672452982 -0.0063540694430071765 -0.0022680530538452528 0.0032155489316913265 -0.0070595729854393656 -0.0017407561787593142 -0.01424785991132179 0.0013429291871190757
leaf_weight=1062.6711232904345 8870.3013016050681 10916.694586985279 7042.8294625817798 1903.9228126648813 2344.6187917180359 3844.0807473575696 976.76099524786696 60.550939578562975 1628.5371098034084 1562.0880360668525 51.014767523854971 755.14007642120123 31.853267827071249 251.30336948577315
leaf_count=1155 8724 11037 7353 1786 2316 3617 949 69 1703 1461 59 782 42 244
internal_value=5.89206e-06 -0.000803635 -0.000638076 -7.34096e-06 -0.00149664 0.00108159 0.0019497 0.00067628 0.00033968 0.00283568 0.0028046 1.15655e-05 -0.00351203 -0.00321152
internal_weight=41302.4 23553.9 22208.1 12820.6 9387.45 17748.5 5627 12121.5 10498.8 1622.64 3895.1 1731.9 1345.83 1313.97
internal_count=41297 23933 22492 12823 9669 17364 5407 11957 10427 1530 3676 1731 1441 1399
is_linear=0
shrinkage=0.05


Tree=55
num_leaves=15
num_cat=0
split_feature=10 4 18 18 12 4 12 30 30 42 44 15 12 33
split_gain=12.9908 3.94136 7.25153 3.39955 3.91601 3.40139 3.34087 3.30341 2.27968 2.50166 3.05199 2.45539 4.12921 2.61238
