tree
version=v4
num_class=1
num_tree_per_iteration=1
label_index=0
max_feature_idx=47
objective=poisson
feature_names=toi_per_game_l5 toi_per_game_l10 toi_per_game_l20 toi_per_game_season toi_per_game_ewma ev_toi_per_game_l10 pp_toi_per_game_l10 sh_toi_per_game_l10 pp_unit shots_per_game_l5 shots_per_game_l10 shots_per_game_l20 shots_per_game_season shots_per_game_ewma icf_per_60_l10 isf_per_60_l10 shooting_pct_l20 is_forward is_defense line_number opponent_sa_per_60 opponent_ca_per_60 opponent_shot_quality team_pace team_shot_share expected_game_pace home_away rest_days back_to_back venue_sog_bias games_played lineup_confidence projected_toi projected_toi_std shots_trend_l5_vs_l20 toi_trend_l5_vs_l20 shot_consistency_l10 toi_consistency_l10 opponent_rest_days team_rest_days rest_advantage team_id opponent_team_id venue_encoded team_shots_per_game team_goals_per_game opp_shots_against_per_game opp_goals_against_per_game
feature_infos=[0:29.563333333333333] [0:28.726666666666667] [0:27.703333333333333] [0:26.949999999999999] [0:33.100000000000001] [0:13] [0:1.5] [0:0.5] none [0:7.2000000000000002] [0:7] [0:7] [0:7] [0:13] [0:81.203007518796994] [0:54.13533834586466] none [0:1] [0:1] [3:4] none none none [6.8143859258434469:9.6555927204520007] none [6.9943512637989489:9.6345082920131162] [0:1] [0:166] [0:1] [-0.41607710272201648:0.292256230611317] [0:76] [0:1] [0:33.100000000000001] [0:18.809040379562166] [-2.0999999999999996:3.2000000000000002] [-6.9949999999999974:6.9980952380952353] [0:4.9497474683058327] [0:18.809040379562166] [0:14] [0:14] [-13:13] [1:67] [1:67] [0:98] [0:33] [0:7] [0:33] [0:7]
tree_sizes=3365 3506 3477 3491 3502 3506 3517 3499 3501 3526 3499 3520 3514 3513 3528 3533 3476 3492 3524 3537 3511 3501 3515 3528 3512 3527 3513 3529 3529 3507 3499 3516 3505 3509 3543 3509 3533 3534 3517 3512 3526 3514 3517 3513 3509 3529 3537 3510 3506 3505 3534 3512 3508 3512 3524 3525 3524 3512 3518 3520 3540 3500 3521 3510 3508 3537 3514 3513 3532 3505 3496 3510 3507 3529 3522 3501 3530 3516 3540 3538 3518 3526 3519 3508 3507 3527 3510 3534 3522 3538 3513 3500

Tree=0
num_leaves=31
num_cat=0
split_feature=12 12 12 12 31 4 12 11 4 12 4 4 18 29 18 18 12 11 33 4 42 3 0 46 18 1 4 29 4 18
split_gain=3319.91 747.785 333.371 103.272 96.7321 95.8504 84.8803 56.7291 48.4784 29.4918 28.613 20.6976 21.5663 19.9176 19.598 18.7878 18.7107 17.3167 16.7217 15.9022 14.6661 14.6206 14.2448 13.6882 13.3633 14.6735 12.755 12.3339 12.144 11.6933
threshold=2.0281746031746035 1.3237365368682685 2.6690476190476193 0.99275362318840588 0.55000000000000016 15.941666666666668 3.1129418017539199 1.6201923076923079 16.091666666666672 2.4214638157894739 13.525000000000002 12.925000000000002 1.0000000180025095e-35 0.05982159008844113 1.0000000180025095e-35 1.0000000180025095e-35 3.7788888888888894 1.4522727272727274 1.9841680471203531 11.875000000000002 64.000000000000014 16.053755656108603 18.335000000000004 14.500000000000002 1.0000000180025095e-35 13.890238095238097 20.991666666666671 -0.031354880499794062 17.925000000000004 1.0000000180025095e-35
decision_type=2 2 2 2 2 2 2 2 2 2 2 2 2 2 2 2 2 2 2 2 2 2 2 2 2 2 2 2 2 2
left_child=1 3 8 19 18 10 13 15 -2 -10 -3 -5 21 20 17 -7 27 -12 22 -1 -6 -13 -4 -18 25 -21 -26 -8 29 -9
right_child=2 5 4 11 6 7 16 28 9 -11 14 12 -14 -15 -16 -17 23 -19 -20 24 -22 -23 -24 -25 26 -27 -28 -29 -30 -31
leaf_value=0.43784843322011041 0.45547045045261231 0.44596988528520165 0.45818582094459592 0.44185120186973625 0.46745242228721429 0.45225216693586578 0.47059378371151545 0.45369776793099525 0.45975653703699543 0.46456649852280357 0.44691396718107224 0.44573054082179275 0.44334498308920001 0.47433976136021061 0.44525547422416512 0.44780517526424263 0.4766652932348901 0.45177136812714391 0.45514084917810177 0.44074898034766169 0.44543043736114551 0.45113182056147616 0.4732335646402856 0.48924035316287773 0.43878572924571518 0.44634152099604246 0.44339459185837504 0.47720203248664139 0.45605810874507269 0.44509674665104526
leaf_weight=8994.4866263866425 4685.2208173274994 8593.2573318481445 331.72500729560852 8489.0009009838104 5929.9794161319733 4587.2829580307007 988.85645031929016 3617.3822224140167 9831.697359085083 4735.7693898677826 2397.8979098796844 7158.9415860176086 11095.411672592163 1168.9357399940491 2034.5800447463989 4922.1672511100769 413.86643767356873 7800.2766001224518 1064.679309129715 3762.7093684673309 75.822858810424805 1516.4571762084961 303.29143524169922 492.84858226776123 9847.4937880039215 1712.3328948020935 1784.9964678287506 2726.4636313915253 8962.8937685489655 442.30000972747803
leaf_count=2847 1483 2720 105 2687 1877 1452 313 1145 3112 1499 759 2266 3512 370 644 1558 131 2469 337 1191 24 480 96 156 3117 542 565 863 2837 140
internal_value=0.450346 0.445729 0.464123 0.441823 0.470149 0.450626 0.471756 0.452886 0.459898 0.461321 0.448181 0.443918 0.444806 0.468344 0.449735 0.449951 0.477046 0.450629 0.458985 0.439555 0.467173 0.446675 0.465405 0.483541 0.440453 0.442496 0.439492 0.47545 0.45503 0.452758
internal_weight=130469 97719.9 32749.2 54361.8 13496.5 43358 11796.8 22532 19252.7 14567.5 20826 28259.8 19770.8 7174.74 12232.8 9509.45 4622.04 10198.2 1699.7 26102 6005.8 8675.4 635.016 906.715 17107.5 5475.04 11632.5 3715.32 13022.6 4059.68
internal_count=41297 30931 10366 17207 4272 13724 3734 7132 6094 4611 6592 8945 6258 2271 3872 3010 1463 3228 538 8262 1901 2746 201 287 5415 1733 3682 1176 4122 1285
is_linear=0
shrinkage=1


Tree=1
num_leaves=31
num_cat=0
split_feature=12 12 12 12 32 30 12 11 32 32 12 32 18 18 18 29 30 11 12 32 33 3 42 18 1 1 32 46 1 32
split_gain=3127.6 720.453 303.322 100.806 91.0883 87.4201 75.4334 53.5741 44.9096 27.4068 27.0696 20.095 20.8483 18.7404 17.8854 17.8306 23.4173 16.497 16.2991 15.6391 15.4468 14.0101 13.5504 13.0812 14.2605 12.9272 12.4955 11.743 11.6103 11.3995
threshold=2.0281746031746035 1.3237365368682685 2.6690476190476193 0.99275362318840588 15.941666666666668 5.5000000000000009 3.1129418017539199 1.6201923076923079 16.091666666666672 13.525000000000002 2.4214638157894739 12.925000000000002 1.0000000180025095e-35 1.0000000180025095e-35 1.0000000180025095e-35 0.05982159008844113 40.500000000000007 1.4522727272727274 3.7788888888888894 11.875000000000002 1.9841680471203531 16.053755656108603 64.000000000000014 1.0000000180025095e-35 13.890238095238097 18.330277777777781 20.991666666666671 14.500000000000002 12.83416666666667 17.925000000000004
decision_type=2 2 2 2 2 2 2 2 2 2 2 2 2 2 2 2 2 2 2 2 2 2 2 2 2 2 2 2 2 2
left_child=1 3 8 19 9 20 15 14 28 -3 -10 -5 21 17 -6 22 -17 -11 -8 -1 25 -13 -7 24 -21 -4 -25 -20 -2 -9
right_child=2 4 5 11 7 6 18 29 10 13 -12 12 -14 -15 -16 16 -18 -19 27 23 -22 -23 -24 26 -26 -27 -28 -29 -30 -31
leaf_value=-0.012342478807371675 -0.0016778984667071832 -0.0042864018943310793 0.0075854848846399333 -0.0083554440113257078 0.0018552860712791218 0.016395293031142073 0.023867008164154647 0.0023466379417006011 0.0090898871428458702 -0.0033584796575409979 0.013669257309130859 -0.0045219385399005718 -0.0068757522712366561 -0.0049898165368518453 -0.0024841116233310337 0.017167408996624629 0.031569404460469117 0.0013879987754720051 0.024993800844935535 -0.0094501488685751027 0.0046532998377509117 0.00076573433929850293 -0.0048186959667434887 -0.011405981215091347 -0.0039209462926972621 0.021811334347421042 -0.0068267472615033565 0.036468197810906558 0.0058971570446494578 0.0055381911816347711
leaf_weight=8882.7767872810364 574.76859188079834 8555.7345581054688 334.33589816093445 8417.1938846111298 4596.0355224609375 6032.292667388916 3809.7603576183319 4069.5116114616394 9924.6558704376221 2389.6823394298553 4803.5954744815826 7125.9762148857117 11018.004228591919 2024.2493076324463 4909.6766667366028 728.1013011932373 469.22083854675293 7811.4027771949768 424.90371513366699 3726.7712624073029 1069.7965331077576 1517.6493072509766 75.45106315612793 9734.3097052574158 1705.4896392822266 310.31309509277344 1772.631219625473 512.39529705047607 4134.5232410430908 9014.2374470233917
leaf_count=2847 181 2720 105 2687 1452 1877 1176 1285 3112 759 1499 2266 3512 644 1558 225 145 2469 131 1191 337 480 24 3117 542 96 565 156 1302 2837
internal_value=-1.18396e-06 -0.00452411 0.0132483 -0.00838399 0.000272912 0.0189272 0.0204304 0.00247075 0.00922523 -0.00211594 0.0105846 -0.00630957 -0.00543309 -0.000596342 -0.000385502 0.0172344 0.0228372 0.00027539 0.0253428 -0.0106392 0.00835152 -0.00359297 0.0161317 -0.00974504 -0.00771619 0.0144643 -0.0107016 0.031304 0.0049714 0.00454614
internal_weight=130475 97271.3 33204.1 53900.8 43370.5 13766.6 12052.1 22589.5 19437.5 20781.1 14728.3 28078.8 19661.6 12225.3 9505.71 7305.07 1197.32 10201.1 4747.06 25822 1714.45 8643.63 6107.74 16939.2 5432.26 644.649 11506.9 937.299 4709.29 13083.7
internal_count=41297 30931 10366 17207 13724 4272 3734 7132 6094 6592 4611 8945 6258 3872 3010 2271 370 3228 1463 8262 538 2746 1901 5415 1733 201 3682 287 1483 4122
is_linear=0
shrinkage=0.05


Tree=2
num_leaves=31
num_cat=0
split_feature=12 12 12 12 4 30 12 11 4 4 12 4 30 36 4 35 33 30 11 25 0 30 41 12 2 10 35 4 30 12
split_gain=2947.76 693.964 276.477 98.3577 86.5664 79.1773 67.5934 50.6058 41.6426 26.2475 24.8785 19.5027 17.1809 15.9583 15.3732 14.4514 14.2841 12.6885 12.6354 12.1026 11.7544 11.4114 11.1963 11.0306 10.6158 10.2822 10.0234 9.4517 8.51079 16.433
threshold=2.0281746031746035 1.3237365368682685 2.6690476190476193 0.99275362318840588 15.941666666666668 5.5000000000000009 3.2014492753623194 1.6201923076923079 16.091666666666672 13.525000000000002 2.4214638157894739 12.925000000000002 32.500000000000007 2.9107067913984368 11.875000000000002 -2.9351515151515142 1.9841680471203531 38.500000000000007 1.4522727272727274 8.3958020815434224 18.335000000000004 25.500000000000004 59.500000000000007 1.6371473354231978 13.132916666666668 1.9500000000000002 -0.65550505050505048 17.925000000000004 4.5000000000000009 0.6478537360890303
decision_type=2 2 2 2 2 2 2 2 2 2 2 2 2 2 2 2 2 2 2 2 2 2 2 2 2 2 2 2 2 2
left_child=1 3 8 14 9 16 15 26 24 -3 25 -5 13 -8 -1 -7 20 -17 -11 -14 -4 -20 -12 -9 -2 -10 -6 -25 -16 -30
right_child=2 4 5 11 7 6 12 23 10 18 22 -13 19 -15 28 17 -18 -19 21 -21 -22 -23 -24 27 -26 -27 -28 -29 29 -31
leaf_value=-0.012187423278275263 -0.0014406805676019576 -0.0041981679110840745 0.0073412577192056884 -0.008217237398768118 -0.0039895156404179885 0.040229621885010176 0.02078412269002906 0.00071735096938900294 0.0059022951294573026 -0.0035776542679241568 0.013446431020987557 -0.005327474746984597 0.021303000415265685 0.037515856666444393 -0.0062865375933228943 0.014832281387669117 0.0045165545685506943 0.018840474064308652 -0.00098887744625336736 0.030882357975418901 0.020808217235728246 0.0026485195049587651 -0.0059458212229812632 0.002805385962642478 0.0057175153486291545 0.009678556243713261 0.0003530609361720227 0.0059370547865714683 -0.012817056742985833 -0.0090128346374803818
leaf_weight=8773.8153190612793 590.30678415298462 8519.1397857666016 336.88165068626404 8347.157571554184 1595.9400026798248 65.398757934570312 2225.7547922134399 1753.433112859726 2378.307391166687 2731.961282491684 4794.9892101287842 19555.144188404083 458.97804665565491 154.10161876678467 1753.3173444271088 4392.9242599010468 1074.7862462997437 3677.0579469203949 6174.6476645469666 1326.727064371109 317.15579223632812 3311.4880056381226 74.718666553497314 3479.0449085235596 4142.4751491546631 7636.9735307693481 7906.1262114048004 7910.8930349349976 3826.7580366134644 11194.941139936447
leaf_count=2847 186 2720 105 2687 506 20 669 550 739 871 1476 6258 138 46 565 1341 337 1122 1955 398 96 1046 23 1096 1297 2373 2504 2476 1237 3613
internal_value=-2.30612e-06 -0.00443237 0.0127465 -0.00824565 0.000265886 0.0181064 0.0195149 0.00240327 0.00891239 -0.00206794 0.0102117 -0.00619241 0.0247007 0.0218849 -0.0104875 0.0168563 0.00807572 0.0166613 -0.000581987 0.0284363 0.0139011 0.000280509 0.0131467 0.0044129 0.00482352 0.00878299 -0.000376123 0.00498126 -0.00959741 -0.00998308
internal_weight=130481 96833.8 33647.5 53451.1 43382.7 14029.8 12300.9 22645.4 19617.8 20737.2 14885 27902.3 4165.56 2379.86 25548.8 8135.38 1728.82 8069.98 12218.1 1785.71 654.037 9486.14 4869.71 13143.4 4732.78 10015.3 9502.07 11389.9 16775 15021.7
internal_count=41297 30931 10366 17207 13724 4272 3734 7132 6094 6592 4611 8945 1251 715 8262 2483 538 2463 3872 536 201 3001 1499 4122 1483 3112 3010 3572 5415 4850
is_linear=0
shrinkage=0.05


Tree=3
num_leaves=31
num_cat=0
split_feature=12 12 11 12 4 12 11 30 30 4 4 41 12 4 18 18 1 18 4 11 1 30 18 1 11 4 30 1 23 25
split_gain=2779.45 668.297 252.947 95.9304 82.2705 74.5858 47.8107 44.624 30.3642 27.3844 25.1339 20.721 20.1536 18.9216 20.2565 17.8315 17.5495 16.9743 15.1051 15.0763 14.3845 14.1241 12.8574 13.8899 12.6932 12.3286 11.6509 11.3521 10.4614 10.3932
threshold=2.0281746031746035 1.3237365368682685 3.0250000000000004 0.99275362318840588 15.941666666666668 2.5036231884057973 1.6201923076923079 3.5000000000000004 5.5000000000000009 16.141666666666669 13.525000000000002 59.500000000000007 3.5051020408163267 12.925000000000002 1.0000000180025095e-35 1.0000000180025095e-35 16.146944444444447 1.0000000180025095e-35 11.875000000000002 1.4522727272727274 16.839166666666667 37.500000000000007 1.0000000180025095e-35 13.890238095238097 2.4248120300751883 20.991666666666671 11.500000000000002 21.00416666666667 8.9800024926141955 8.3690932485322591
decision_type=2 2 2 2 2 2 2 2 2 2 2 2 2 2 2 2 2 2 2 2 2 2 2 2 2 2 2 2 2 2
left_child=1 3 5 18 10 9 17 -7 20 -2 -3 16 -10 -5 26 19 -9 -6 -1 -12 -4 -14 23 -20 -11 -24 -15 -16 -19 -23
right_child=2 4 8 13 6 7 -8 11 12 24 15 -13 21 14 27 -17 -18 28 22 -21 -22 29 25 -25 -26 -27 -28 -29 -30 -31
leaf_value=-0.012032426740179139 0.0043161420753966718 -0.0041113834120607455 0.0028095452307347717 -0.0080801863980726144 0.0018117757540200693 0.0014015005684030362 0.004284125212404271 0.0086302611099468244 0.019711178487321578 0.0080777084643174155 -0.0032091003313411224 -0.0043036175852234661 0.022458227288762043 0.0004060961771577751 -0.007698662442295414 -0.0048687095131710522 0.015213086361037111 -0.0036638325560792136 -0.0091547620741488523 0.0013394611138458409 0.016330839995222703 0.019868280482538043 -0.011118257590398979 -0.0036583590326701811 0.011768825970359467 -0.0065312487875712191 -0.0042946392736153824 -0.00414838321627069 0.0018646311313812128 0.034121179190586305
leaf_weight=8667.534343957901 4086.0874490737915 8483.4496688842773 301.82885646820068 8278.8483989238739 4603.5433340072632 739.34550595283508 13201.509772062302 1157.7082574367523 4428.0045902729034 8812.3242363929749 2373.1645188331604 149.04784893989563 1298.9172921180725 1624.4900937080383 7682.899685382843 2011.9614572525024 8561.6797573566437 3791.9690811634064 3656.5212242603302 7825.8935036659241 571.63773798942566 170.59396839141846 9530.0158021450043 1684.3236131668091 3188.2327373027802 1743.9885294437408 6942.3859186172485 3201.466468334198 1102.9913265705109 614.25963759422302
leaf_count=2847 1274 2720 94 2687 1452 229 4122 354 1316 2712 759 46 380 520 2479 644 2582 1207 1191 2469 175 50 3117 542 976 565 2226 1033 351 178
internal_value=-3.31062e-06 -0.00434206 0.0122701 -0.00810842 0.000259056 0.0100033 0.0023378 0.013259 0.0204603 0.00785543 -0.0020209 0.0141466 0.0216363 -0.00607667 -0.00522331 -0.000567935 0.0144305 -0.000366953 -0.0103364 0.00028038 0.0116728 0.0257134 -0.00945059 -0.00742333 0.00905966 -0.0104098 -0.00340274 -0.00665534 -0.00241694 0.0310588
internal_weight=130487 96407 34079.7 53012.5 43394.5 26694.4 22700 10607.8 7385.24 16086.6 20694.5 9868.44 6511.78 27730.1 19451.2 12211 9719.39 9498.5 25282.4 10199.1 873.467 2083.77 16614.8 5340.84 12000.6 11274 8566.88 10884.4 4894.96 784.854
internal_count=41297 30931 10366 17207 13724 8173 7132 3211 2193 4962 6592 2982 1924 8945 6258 3872 2936 3010 8262 3228 269 608 5415 1733 3688 3682 2746 3512 1558 228
is_linear=0
shrinkage=0.05


Tree=4
num_leaves=31
num_cat=0
split_feature=12 12 12 12 4 30 12 12 4 4 12 4 18 18 29 30 4 18 29 30 3 33 18 4 2 3 4 0 41 12
split_gain=2621.79 643.439 232.389 93.5234 78.1906 65.86 55.1992 45.4142 36.0241 24.0634 21.1258 18.3545 20.0899 17.0466 15.4986 19.3495 14.8347 14.7968 14.1069 19.7405 13.1634 12.8524 12.5692 12.0618 11.6077 11.2538 10.2565 10.1457 9.94875 9.91816
threshold=2.0281746031746035 1.3237365368682685 2.6690476190476193 0.99275362318840588 15.941666666666668 5.5000000000000009 3.1129418017539199 1.6276789785681716 16.091666666666672 13.525000000000002 2.4214638157894739 12.991666666666669 1.0000000180025095e-35 1.0000000180025095e-35 0.05982159008844113 40.500000000000007 11.875000000000002 1.0000000180025095e-35 -0.025479174285104818 32.500000000000007 16.053755656108603 1.9841680471203531 1.0000000180025095e-35 20.991666666666671 13.902083333333335 18.334100819815109 12.108333333333336 18.335000000000004 59.500000000000007 1.6276789785681716
decision_type=2 2 2 2 2 2 2 2 2 2 2 2 2 2 2 2 2 2 2 2 2 2 2 2 2 2 2 2 2 2
left_child=1 3 8 16 9 21 14 17 -2 -3 -10 -5 20 29 26 -16 -1 25 -8 -20 -13 27 24 -24 -18 -6 -7 -4 -12 -11
right_child=2 4 5 11 7 6 18 -9 10 13 28 12 -14 -15 15 -17 22 -19 19 -21 -22 -23 23 -25 -26 -27 -28 -29 -30 -31
leaf_value=-0.01187753864653128 0.0045269323582929309 -0.0040260392140446478 0.0069037510352098477 -0.007920841734827825 0.00094537071344676701 -0.0042839631904193409 0.017563699313581777 0.0040935308900530458 0.0081984761360017391 -0.0016766883187099236 0.012448321387327923 -0.0042010810648617728 -0.006539236929016503 -0.0047713386516738615 0.015209471456741822 0.027917246308112206 -0.0087097818633006304 -0.0023170593151706081 0.020318817836961107 0.027736343483876821 0.00095356014345226797 0.004173437688765348 -0.010964980702485326 -0.0064114179205853527 -0.0034167683349301137 0.010351782049581024 0.014403119774618193 0.019267198160985835 -0.0058633809305615875 0.0015194773817555558
leaf_weight=8563.8673417568207 4780.6081199645996 8448.6428070068359 341.54006361961365 8351.6309375762939 3792.2575414180756 73.461269855499268 1384.1314749717712 13679.206535577774 10192.547079563141 3976.0877704620361 4923.4021632671356 6913.3183488845825 10790.663435220718 2002.1896238327026 763.75513100624084 501.77882838249207 3881.247679233551 4935.4256880283356 2105.8409512042999 1604.9897663593292 1506.5861411094666 1087.5133543014526 9424.6454782485962 1732.6351940631866 1420.1247761249542 346.34126663208008 6338.6561377048492 328.27423810958862 74.38953971862793 6225.8560953140259
leaf_count=2847 1483 2720 105 2732 1192 22 400 4262 3112 1264 1476 2228 3505 644 225 145 1274 1569 606 457 480 337 3117 565 459 109 1879 96 23 1964
internal_value=-4.26011e-06 -0.00425322 0.0118171 -0.00797241 0.000252396 0.0166285 0.0178775 0.00227426 0.00831572 -0.00197486 0.00950739 -0.00596245 -0.00511043 -0.000554248 0.0151934 0.0202701 -0.0101858 -0.000467917 0.0219175 0.023535 -0.00327816 0.00754231 -0.00930465 -0.0102589 -0.00729375 0.00173607 0.0141876 0.0129902 0.0121736 0.000273277
internal_weight=130492 95990.7 34500.9 52584.7 43406 14529.9 12772.6 22753.2 19970.9 20652.8 15190.3 27562.2 19210.6 12204.1 7677.65 1265.53 25022.5 9074.02 5094.96 3710.83 8419.9 1757.33 16458.7 11157.3 5301.37 4138.6 6412.12 669.814 4997.79 10201.9
internal_count=41297 30931 10366 17207 13724 4272 3734 7132 6094 6592 4611 8945 6213 3872 2271 370 8262 2870 1463 1063 2708 538 5415 3682 1733 1301 1901 201 1499 3228
is_linear=0
shrinkage=0.05


Tree=5
num_leaves=31
num_cat=0
split_feature=11 11 11 11 4 11 30 11 2 4 4 11 42 18 29 4 18 30 4 2 4 18 2 4 2 46 35 30 4 4
split_gain=2433.14 489.882 284.045 104.046 96.716 61.6868 41.9372 40.7672 26.9091 22.8772 19.4394 18.6594 17.8854 17.5111 16.9407 15.9352 13.5364 12.8726 12.8246 12.6451 12.3391 11.4788 14.7631 11.5649 11.1098 10.9498 10.7814 10.6928 10.5994 10.5671
threshold=1.7303030303030307 2.4248120300751883 1.1846590909090911 3.0250000000000004 15.008333333333335 0.85357142857142865 3.5000000000000004 1.4472222222222224 16.322916666666671 13.658333333333335 13.058333333333335 2.1143790849673207 64.000000000000014 1.0000000180025095e-35 -0.031354880499794062 14.258333333333335 1.0000000180025095e-35 32.500000000000007 12.708333333333334 15.516250000000003 17.925000000000004 1.0000000180025095e-35 16.523750000000003 22.725000000000005 18.656886574074075 10.500000000000002 2.2458333333333349 6.5000000000000009 17.925000000000004 11.875000000000002
decision_type=2 2 2 2 2 2 2 2 2 2 2 2 2 2 2 2 2 2 2 2 2 2 2 2 2 2 2 2 2 2
left_child=2 4 5 6 19 29 -3 18 -5 -9 -7 28 15 27 -10 -8 20 -16 -4 26 -11 22 -20 -23 -18 -21 -2 -12 -6 -1
right_child=1 3 7 8 11 10 12 9 14 16 13 -13 -14 -15 17 -17 24 -19 21 25 -22 23 -24 -25 -26 -27 -28 -29 -30 -31
leaf_value=-0.011878601772484993 -0.0010928117951071973 0.0017545699804413194 -0.0065408814797802486 0.006219140535187761 0.0031226851297359247 -0.0086187464505580996 0.0059424516240664388 -0.0037312954349493347 0.015221503164578374 0.00058006881638505287 0.0017404113933082194 0.0079633619486119498 -0.0087139583198862277 -0.0068906734373474499 0.018517454804343487 0.01288783179369926 -0.0059274483239525472 0.023437454427453899 -0.0030241757732898341 -0.0061118524399951133 0.0050050815029868273 -0.0058885436686891999 0.0026186628727969405 -0.00055735575390470564 -0.00023538800885743194 0.0054736727536666713 0.018501399451755478 -0.0042607197567715947 0.0059769817630469209 -0.0095045678999357563
leaf_weight=7344.5570058822632 7484.525616645813 1032.3282952308655 3822.7294788360596 410.28776216506958 5087.0109415054321 7554.577880859375 893.32218909263611 4225.9389057159424 1827.1753962039948 6198.2899992465973 871.04030251502991 8109.6594393253326 100.13547801971436 8911.6186194419861 2900.4843435287476 11860.194732904434 1153.906430721283 2544.6428434848785 5870.5573103427887 235.66888976097107 2113.0006759166718 5071.6594161987305 1442.4542841911316 1275.3655598163605 3334.3760950565338 1464.8588263988495 69.846576690673828 4959.4787266254425 9085.4633438587189 13241.011999845505
leaf_count=2467 2376 316 1251 123 1581 2499 271 1366 526 1952 279 2457 31 2927 828 3506 369 717 1888 74 658 1646 456 412 1057 459 22 1604 2789 4390
internal_value=-5.12592e-06 0.00823668 -0.00566077 0.0140435 0.00426481 -0.0083781 0.0114579 -0.00228374 0.0187142 -0.000541858 -0.00655475 0.00604924 0.0122367 -0.00549621 0.0194175 0.0124022 0.000510993 0.0208215 -0.00397965 -3.10465e-05 0.00170612 -0.0032621 -0.00191027 -0.00481834 -0.00170089 0.0038625 -0.00090856 -0.00336319 0.00495312 -0.0103524
internal_weight=130496 53105.6 77390.6 21568.6 31537 42882.3 13886 34508.3 7682.59 17025.5 22296.7 22282.1 12853.7 14742.1 7272.3 12753.5 12799.6 5445.13 17482.8 9254.9 8311.29 13660 7313.01 6347.02 4488.28 1700.53 7554.37 5830.52 14172.5 20585.6
internal_count=41297 16076 25221 6318 9758 14166 4124 11055 2194 5402 7309 6827 3808 4810 2071 3777 4036 1545 5653 2931 2610 4402 2344 2058 1426 533 2398 1883 4370 6857
is_linear=0
shrinkage=0.05


Tree=6
num_leaves=31
num_cat=0
split_feature=11 11 11 4 11 11 30 4 18 18 1 3 18 3 4 18 14 42 1 1 30 14 30 18 2 30 11 3 4 4
split_gain=2310.99 530.53 204.19 95.3102 94.5719 49.4944 38.8606 30.2056 31.6968 27.5093 27.1702 24.9201 22.5448 21.3383 18.2957 18.4698 17.8811 16.7454 16.7358 13.7958 12.8412 11.6315 11.1182 10.5399 12.9668 9.9235 9.80557 9.88681 9.78115 9.54119
threshold=1.6396103896103897 2.4248120300751883 1.1026315789473686 17.058333333333337 3.0250000000000004 0.7947368421052633 3.5000000000000004 15.158333333333335 1.0000000180025095e-35 1.0000000180025095e-35 15.681101190476193 16.263750000000005 1.0000000180025095e-35 21.352579365079368 13.258333333333335 1.0000000180025095e-35 10.104872632085113 64.000000000000014 16.146944444444447 16.634166666666669 5.5000000000000009 10.438436764040739 6.5000000000000009 1.0000000180025095e-35 13.618750000000002 11.500000000000002 1.9750000000000003 19.964457915273133 13.591666666666669 22.725000000000005
decision_type=2 2 2 2 2 2 2 2 2 2 2 2 2 2 2 2 2 2 2 2 2 2 2 2 2 2 2 2 2 2
left_child=2 3 5 9 6 20 -3 23 19 10 28 -6 26 -14 -7 22 -12 18 -8 -9 -1 -15 -16 24 -4 -21 -5 -28 -2 -10
right_child=1 4 7 12 11 14 17 8 29 -11 16 -13 13 21 15 -17 -18 -19 -20 25 -22 -23 -24 -25 -26 -27 27 -29 -30 -31
leaf_value=-0.0078119579720800324 -0.0018726184668705328 0.0017080127090747942 -0.0056544192686828719 0.0056537406095702857 0.0062690538184957886 -0.0088655020428695819 0.0072562372858587833 -0.0011743277408650882 -0.0045742198443322665 -0.0047566495831223923 0.0013982589612388516 0.018593334876428027 0.00041074110499587772 0.0054119560054472476 0.0016660820289085443 -0.0072885313968131665 0.0071738609199857115 -0.0085743232524949416 0.012637750257530393 0.0093905026680004208 -0.01139602276572175 0.018095004853452067 -0.0045724817744625459 -0.0085553230146040767 -0.0024702537182819005 0.0018120227667120063 0.0078797068218748479 0.013306674068468048 0.001342681154279211 -0.0009043387838823003
leaf_weight=3144.6111030578613 3779.1613335609436 1034.1411938667297 7846.7725639343262 4571.0500891208649 436.96030282974243 8504.5028309822083 1668.596090555191 5003.4448215961456 7541.8036372661591 1863.7210216522217 2474.2557151317596 7390.7690072059631 2713.7310864925385 5123.4567501544952 854.61549830436707 9073.8671905994415 2930.5832779407501 99.266690969467163 11244.086609125137 510.9797797203064 12578.22890496254 187.00155019760132 4297.7984976768494 1687.5785000324249 5412.0223968029022 2790.5252997875214 6120.2511157989502 978.91108584403992 6317.5912082195282 2320.0031094551086
leaf_count=1057 1212 316 2567 1403 130 2845 499 1594 2453 599 768 2064 834 1559 274 3010 902 31 3278 160 4242 56 1401 554 1748 876 1848 292 1977 748
internal_value=-5.90989e-06 0.00732624 -0.00604385 0.00368124 0.0135011 -0.00852226 0.0110443 -0.00316541 -0.00179506 0.000980464 0.00167081 0.0179069 0.0060622 0.00401988 -0.00702909 -0.00593037 0.00453155 0.0117858 0.0119433 0.000480282 -0.0106801 0.00586284 -0.00353662 -0.00483045 -0.00435536 0.00298896 0.00746557 0.00863051 0.00013865 -0.00371156
internal_weight=130500 58933.5 71566.8 37059.7 21873.8 38453.6 14046.1 33113.1 18166.8 17365.3 15501.6 7827.73 19694.4 8024.19 22730.8 14226.3 5404.84 13011.9 12912.7 8304.95 15722.8 5310.46 5152.41 14946.4 13258.8 3301.51 11670.2 7099.16 10096.8 9861.81
internal_count=41297 17768 23529 11450 6318 12829 4124 10700 5831 5458 4859 2194 5992 2449 7530 4685 1670 3808 3777 2630 5299 1615 1675 4869 4315 1036 3543 2140 3189 3201
is_linear=0
shrinkage=0.05


Tree=7
num_leaves=31
num_cat=0
split_feature=12 12 12 0 12 12 12 30 30 0 42 2 35 2 18 0 18 30 0 1 29 30 1 1 12 1 18 1 1 10
split_gain=2241.16 511.863 203.533 102.04 62.0043 61.9071 55.6963 37.7316 27.2774 21.9527 16.7675 14.7359 13.3762 12.7782 16.8884 12.7359 24.2766 12.2282 12.0346 11.618 11.1889 15.8894 11.1763 10.0763 9.68831 9.57504 8.53739 15.4395 10.8113 8.05976
threshold=1.6371473354231978 2.5036231884057973 0.99275362318840588 15.190833333333336 3.1129418017539199 1.3237365368682685 2.0875959079283892 5.5000000000000009 5.5000000000000009 12.937083333333335 64.000000000000014 15.357083333333334 0.011180555555555751 12.337083333333336 1.0000000180025095e-35 13.877916666666669 1.0000000180025095e-35 11.500000000000002 18.751666666666669 21.00416666666667 -0.025479174285104818 32.500000000000007 16.839166666666667 16.884166666666669 2.0504237288135596 13.890238095238097 1.0000000180025095e-35 16.579166666666669 15.497291666666667 1.9500000000000002
decision_type=2 2 2 2 2 2 2 2 2 2 2 2 2 2 2 2 2 2 2 2 2 2 2 2 2 2 2 2 2 2
left_child=2 3 13 24 7 15 12 -3 22 -7 11 -9 -5 -1 25 -4 17 -17 -16 -18 23 -22 -6 -10 -2 -15 27 -11 -28 -8
right_child=1 4 5 6 8 9 29 10 20 26 -12 -13 -14 14 18 16 19 -19 -20 -21 21 -23 -24 -25 -26 -27 28 -29 -30 -31
leaf_value=-0.011252164182747748 -0.00076644192612241419 0.0031723832065001763 -0.0070076323654835286 0.0021355316169148343 0.002148337761556424 -0.005639228969612161 0.0055274306626464358 0.0054698431015711667 0.031655262411641703 -0.0014198988486153223 -0.0069300709111916742 0.013321976966133615 0.0049541028191731722 -0.0081698784787402577 -0.011028578041236399 0.0023384905409937966 -0.0073208380860241874 -0.003354990733376906 -0.0075283110036624152 -0.0036856327626237743 0.017848232393564745 0.024297414899016045 0.013847348637169278 0.01438486891234653 0.0028502521052234356 -0.0032609267647652341 -0.010016129338016204 0.0030746547470007412 -0.0020336013847914044 0.0086903879228441162
leaf_weight=9016.376211643219 9226.0898153781891 1142.4980063438416 10459.872398853302 7902.6318597793579 309.25104379653931 3286.1136090755463 2549.3377995491028 636.63689279556274 90.526467323303223 7384.0709009170532 106.81654334068298 10862.861993312836 9033.2310063838959 2383.83145403862 7511.6569271087646 1162.8734319210052 7374.2958586215973 4955.1548347473145 3682.6019721031189 3145.5657925605774 2227.8051977157593 1717.4110298156738 608.40777564048767 1365.0847146511078 2315.5082499980927 1713.5423381328583 460.0657274723053 2576.4095313549042 5382.9112124443054 9914.6703789234161
leaf_count=3086 2940 345 3477 2439 94 1070 767 188 25 2361 33 3098 2779 808 2560 373 2446 1613 1243 1036 606 457 175 375 711 565 150 805 1727 2945
internal_value=-6.63715e-06 0.00709503 -0.00605198 0.0039433 0.0138616 -0.00410261 0.00550725 0.0118513 0.0179147 -0.00192111 0.0127048 0.0128882 0.0036394 -0.00975544 -0.00887192 -0.0056391 -0.00477806 -0.00227179 -0.00987831 -0.0062348 0.0192706 0.0206624 0.00991685 0.0154834 -4.02332e-05 -0.00611945 -0.00114735 -0.000256629 -0.00266459 0.00804435
internal_weight=130504 60008.8 70495.3 40941.5 19067.3 46187.3 29399.9 12748.8 6318.49 19089.6 11606.3 11499.5 16935.9 24308 15291.6 27097.8 16637.9 6118.03 11194.3 10519.9 5400.83 3945.22 917.659 1455.61 11541.6 4097.37 15803.5 9960.48 5842.98 12464
internal_count=41297 17977 23320 12581 5396 15058 8930 3664 1732 6113 3319 3286 5218 8262 5176 8945 5468 1986 3803 3482 1463 1063 269 400 3651 1373 5043 3166 1877 3712
is_linear=0
shrinkage=0.05


Tree=8
num_leaves=31
num_cat=0
split_feature=12 12 12 0 12 12 12 30 30 4 4 18 4 23 2 35 18 1 4 3 4 1 1 12 4 12 46 18 2 4
split_gain=2128.95 474.536 197.502 96.1121 59.571 56.3947 52.0448 34.8808 24.7185 22.3335 16.3423 17.1456 14.0954 13.8566 15.4433 12.5817 12.0738 12.6687 11.8623 11.8504 10.5016 10.4652 10.3511 10.1896 9.46585 9.19408 8.85387 8.69648 12.6719 7.849
threshold=1.6371473354231978 2.5036231884057973 0.99275362318840588 15.190833333333336 1.3237365368682685 3.1129418017539199 2.0875959079283892 5.5000000000000009 5.5000000000000009 13.591666666666669 12.925000000000002 1.0000000180025095e-35 11.875000000000002 7.8804196608860257 15.357083333333334 0.011180555555555751 1.0000000180025095e-35 13.890238095238097 20.991666666666671 16.053755656108603 13.991666666666669 21.00416666666667 16.839166666666667 3.7788888888888894 17.775000000000002 2.0504237288135596 14.500000000000002 1.0000000180025095e-35 17.50041666666667 22.725000000000005
decision_type=2 2 2 2 2 2 2 2 2 2 2 2 2 2 2 2 2 2 2 2 2 2 2 2 2 2 2 2 2 2
left_child=2 3 12 25 10 7 15 -3 22 -6 -4 19 -1 -9 -15 -5 17 -14 -18 -12 -8 -13 -7 24 -10 -2 -25 28 -11 -29
right_child=1 5 4 6 9 8 20 13 23 27 11 21 16 14 -16 -17 18 -19 -20 -21 -22 -23 -24 26 -26 -27 -28 29 -30 -31
leaf_value=-0.011295513237187893 -0.00074799411386330863 0.0030837691916026726 -0.0074320390484576048 0.0020780161800302119 -0.0046713326245052473 0.0020906291915165618 -0.00012687268458339828 0.0032646711541417656 0.013297699085086202 -0.00066287053399611542 -0.0039226665526534352 -0.0070981138445970473 -0.0084378846926930311 0.0046277147215062616 0.012991570905124875 0.0048069340543176117 -0.010407305417483928 -0.0031049498406549112 -0.0058176278888018625 0.00096866660203697027 0.0080447870538437986 -0.00364297859471934 0.013316331893198917 0.01771091023153885 0.018690204854697242 0.0027715047188989618 0.026845247732940898 -0.0034363876569036057 0.0046341109741831494 0.00091027514324295254
leaf_weight=8195.5319118499756 9219.0210506916046 1146.1282124519348 7970.3756878376007 7919.5262842178345 5199.4256670475006 309.91613030433655 405.02663707733154 417.94553685188293 1108.9711182117462 6945.8298027515411 6921.6866121292114 7422.6483566761017 3496.5595383644104 585.27290558815002 10751.534112215042 9078.0937006473541 9060.1698625087738 1641.39142537117 1678.4886887073517 1505.7033030986786 12159.649610519409 3125.0706622600555 616.89121413230896 497.81856393814087 3291.0857920646667 2322.1174414157867 608.00098347663879 4181.6924872398376 1347.1085498332977 1378.9713802337646
leaf_count=2847 2940 345 2687 2439 1703 94 123 122 297 2203 2266 2479 1191 172 3025 2779 3117 542 565 480 3589 1033 175 131 879 711 156 1349 418 440
internal_value=-7.31087e-06 0.00686884 -0.00593818 0.00382993 -0.00401753 0.0133288 0.00534057 0.0114189 0.017156 -0.00187717 -0.00553065 -0.00473137 -0.00960774 0.0122309 0.0125607 0.00353597 -0.00873554 -0.00673611 -0.009691 -0.00304814 0.00778098 -0.00607535 0.00957424 0.0184293 0.0173356 -3.92467e-05 0.0227574 -0.000827867 0.000197426 -0.0023576
internal_weight=130508 60437 70070.7 41103.4 45998.5 19333.6 29562.3 12900.9 6432.68 19053 26945.5 18975.1 24072.1 11754.8 11336.8 16997.6 15876.6 5137.95 10738.7 8427.39 12564.7 10547.7 926.807 5505.88 4400.06 11541.1 1105.82 13853.6 8292.94 5560.66
internal_count=41297 17977 23320 12581 15058 5396 8930 3664 1732 6113 8945 6258 8262 3319 3197 5218 5415 1733 3682 2746 3712 3512 269 1463 1176 3651 287 4410 2621 1789
is_linear=0
shrinkage=0.05


Tree=9
num_leaves=31
num_cat=0
split_feature=12 12 12 12 12 11 32 30 18 32 2 32 32 32 18 42 32 29 18 32 3 30 2 2 42 29 29 2 18 2
split_gain=2022.74 446.272 187.281 90.8315 54.3311 51.9608 40.4653 30.2448 20.3555 20.3232 19.5343 19.4827 17.5379 15.8217 16.5357 15.6401 13.8125 13.0553 11.7779 11.5804 11.3383 10.8745 10.5337 10.5054 9.70678 9.37344 8.89674 8.86905 8.68106 14.4027
threshold=1.6276789785681716 2.5036231884057973 0.99275362318840588 2.0875959079283892 1.3237365368682685 3.0250000000000004 17.925000000000004 3.5000000000000004 1.0000000180025095e-35 16.19166666666667 16.322916666666671 13.591666666666669 13.258333333333335 12.925000000000002 1.0000000180025095e-35 61.000000000000007 11.875000000000002 -0.031354880499794062 1.0000000180025095e-35 20.991666666666671 16.053755656108603 32.500000000000007 15.357083333333334 13.902083333333335 53.000000000000007 0.066741277155186976 0.029524749129835496 22.21916666666667 1.0000000180025095e-35 17.50041666666667
decision_type=2 2 2 2 2 2 2 2 2 2 2 2 2 2 2 2 2 2 2 2 2 2 2 2 2 2 2 2 2 2
left_child=2 3 16 6 13 7 8 -3 12 -5 -7 -6 -2 -4 20 22 -1 -12 23 -20 -15 -19 -9 -18 -8 -25 -11 -16 29 -13
right_child=1 5 4 9 11 10 24 15 -10 26 17 28 -14 14 27 -17 18 21 19 -21 -22 -23 -24 25 -26 -27 -28 -29 -30 -31
leaf_value=-0.011141795350311286 -0.0023122354587035475 0.00094032462385576 -0.0073022768498695947 0.0035885159349885406 -0.0045323522792183428 0.0053516224257754222 0.0048308686150271528 0.005785409336973581 -0.0042166176559570072 0.0068622584472556444 0.012847150723717475 -0.0007851722666771142 0.0019772464194547238 -0.0038405078043530234 -0.0064715893689938249 -0.0067835211247088941 -0.0079997762631484875 0.015572341518184082 -0.010256444830498299 -0.0057067693381001837 0.00094370581953020409 0.019934059279861069 0.011961894886095885 -0.0041829771944219786 -0.00028547631150907174 0.010172107157524715 0.0098450424741733222 -0.0018085258090120649 -0.0024489984303004766 0.0049724628172723058
leaf_weight=8103.4798521995544 3024.7023403644562 752.59483051300049 7911.3592977523804 3643.5431349277496 5089.9135217666626 422.10979557037354 9696.1858410835266 749.28821158409119 2091.3964529037476 7266.5530257225037 1937.0779135227203 6708.7490592002869 11204.106878042221 6894.5882701873779 9334.5950262546539 117.02390742301941 3717.4628093242645 3111.9907813072205 8966.3669519424438 1668.7521851062775 1507.1625289916992 2729.3563940525055 9773.6260056495667 1262.1727824211121 1022.8773427009583 123.8473687171936 3846.8008034229279 1149.2597308158875 5389.0085396766663 1294.8922777175903
leaf_count=2847 980 229 2687 1106 1675 123 2945 220 674 2123 523 2130 3489 2266 3131 36 1274 828 3117 565 480 711 2726 418 311 41 1122 381 1739 400
internal_value=-7.91777e-06 0.00659707 -0.00587411 0.00367793 -0.00398521 0.0128234 0.0019556 0.0106356 0.000387611 0.00683309 0.0158607 -0.00189917 0.00106496 -0.00542369 -0.00463613 0.0113207 -0.00946087 0.0164295 -0.00859443 -0.00954363 -0.00298168 0.0176143 0.0115232 -0.00661394 0.00434219 -0.00289027 0.00789597 -0.00596111 -0.000897788 0.000146224
internal_weight=130511 61389.2 69121.6 41796.2 45279.5 19593.1 27039.3 11392.5 16320.2 14756.9 8200.53 18482.6 14228.8 26797 18885.6 10639.9 23842.1 7778.43 15738.6 10635.1 8401.75 5841.35 10522.9 5103.48 10719.1 1386.02 11113.4 10483.9 13392.6 8003.64
internal_count=41297 18146 23151 12750 14889 5396 8399 3211 5143 4351 2185 5944 4469 8945 6258 2982 8262 2062 5415 3682 2746 1539 2946 1733 3256 459 3245 3512 4269 2530
is_linear=0
shrinkage=0.05


Tree=10
num_leaves=31
num_cat=0
split_feature=12 12 12 12 12 12 4 30 30 0 18 4 4 4 18 42 4 1 18 1 4 30 1 42 1 29 30 0 18 1
split_gain=1922.1 414.495 181.624 85.2897 52.263 48.1863 38.2207 29.9937 21.3828 20.2589 19.4125 18.9686 16.6661 15.3145 16.3906 14.4259 13.5291 11.6393 11.4845 11.9979 11.3006 10.6307 10.0442 9.14858 9.04663 8.95461 12.802 9.15796 8.49375 15.8992
threshold=1.6276789785681716 2.5036231884057973 0.99275362318840588 2.0875959079283892 1.3237365368682685 3.1129418017539199 17.925000000000004 5.5000000000000009 5.5000000000000009 12.937083333333335 1.0000000180025095e-35 16.19166666666667 13.258333333333335 12.991666666666669 1.0000000180025095e-35 64.000000000000014 11.875000000000002 16.146944444444447 1.0000000180025095e-35 13.890238095238097 20.991666666666671 11.500000000000002 21.00416666666667 53.000000000000007 16.839166666666667 -0.025479174285104818 32.500000000000007 16.681666666666668 1.0000000180025095e-35 16.579166666666669
decision_type=2 2 2 2 2 2 2 2 2 2 2 2 2 2 2 2 2 2 2 2 2 2 2 2 2 2 2 2 2 2
left_child=2 3 16 6 13 7 10 -3 24 -6 12 -5 -2 -4 21 17 -1 -9 19 -18 -20 -15 -16 -8 -7 27 -27 -10 29 -11
right_child=1 5 4 11 9 8 23 15 25 28 -12 -13 -14 14 22 -17 18 -19 20 -21 -22 -23 -24 -25 -26 26 -28 -29 -30 -31
leaf_value=-0.010988458295172619 -0.0022601279167698165 0.0028848601625827523 -0.007151681698018001 0.0034867487913692527 -0.0054812741238693969 0.0018497686765331861 0.0046879445118502873 0.0065700830218524651 0.028381415195031092 -0.0013949314236131524 -0.0041295604252120774 0.0076386191992158089 0.0019243005539783253 0.00079070108661128855 -0.0068670880039680849 -0.0068976792322499375 -0.0081681210746170768 0.0119921451009216 -0.01010622719904458 -0.0029522876211299561 -0.0055973956088967852 -0.0037469807011660016 -0.0034639419544985335 -0.00027847555737225532 0.012264974866032423 0.015714419659521108 0.021339704516090373 0.012617248346053628 -0.0026383702363199603 0.0032464591855522885
leaf_weight=8013.6939113140106 3017.7165958881378 1154.3613641262054 7988.204434633255 3656.641551733017 3186.9190821647644 312.72310400009155 9743.1402034759521 1098.3804423809052 98.976719617843628 7132.9697554111481 2082.5963373184204 11201.449344396591 11226.282061100006 1598.1367304325104 7302.1140666007996 106.62178063392639 3439.9298887252808 10842.414879322052 8874.873922586441 1629.930436372757 1659.2561593055725 6664.7780542373657 3098.8748919963837 1022.5853846073151 634.40402412414551 2345.1071660518646 1827.4971370697021 1425.5634918212891 5640.0446548461914 2487.6207067966461
leaf_count=2847 980 345 2732 1106 1052 94 2945 315 26 2293 674 3245 3489 516 2472 33 1191 2971 3117 542 565 2192 1033 311 175 606 457 374 1827 772
internal_value=-8.48147e-06 0.00638998 -0.0057626 0.00357311 -0.00390208 0.0123435 0.00190315 0.0105928 0.0158192 -0.00185566 0.000377743 0.00661747 0.00103735 -0.00531823 -0.00453289 0.0113307 -0.00931486 0.0114944 -0.00845439 -0.00649316 -0.0093971 -0.00286875 -0.00585406 0.00421576 0.00883693 0.0169773 0.0181839 0.0136619 -0.00109787 -0.000194063
internal_weight=130514 61796.5 68717.3 41950.4 45099.7 19846.1 27092.3 13201.8 6644.27 18447.6 16326.6 14858.1 14244 26652.1 18663.9 12047.4 23617.7 11940.8 15604 5069.86 10534.1 8262.91 10401 10765.7 947.127 5697.14 4172.6 1524.54 15260.6 9620.59
internal_count=41297 18146 23151 12750 14889 5396 8399 3664 1732 5944 5143 4351 4469 8945 6213 3319 8262 3286 5415 1733 3682 2708 3505 3256 269 1463 1063 400 4892 3065
is_linear=0
shrinkage=0.05


Tree=11
num_leaves=31
num_cat=0
split_feature=12 12 12 0 11 12 12 31 0 41 2 4 18 4 2 18 0 35 29 3 2 29 29 12 2 18 2 0 4 10
split_gain=1826.66 386.181 176.077 71.661 57.1761 50.2615 33.9214 29.9508 19.4314 16.8984 16.6888 14.8218 15.3679 13.2457 13.2179 11.1937 11.2176 11.0809 10.875 10.7884 9.88436 9.25811 8.91481 8.61025 8.40307 8.10934 13.9471 8.86597 7.22123 11.1822
threshold=1.6276789785681716 2.4214638157894739 0.99275362318840588 15.190833333333336 3.0250000000000004 1.3237365368682685 2.0875959079283892 0.35000000000000003 12.937083333333335 59.500000000000007 16.322916666666671 12.925000000000002 1.0000000180025095e-35 11.875000000000002 15.078055555555558 1.0000000180025095e-35 18.751666666666669 1.0000000180025095e-35 -0.031354880499794062 16.053755656108603 13.902083333333335 -0.0070283480850265026 0.066741277155186976 3.5051020408163267 22.21916666666667 1.0000000180025095e-35 17.50041666666667 18.377222222222226 15.008333333333335 1.7638888888888891
decision_type=2 2 2 2 2 2 2 2 2 2 2 2 2 2 2 2 2 2 2 2 2 2 2 2 2 2 2 2 2 2
left_child=2 3 13 28 7 11 17 -3 -7 14 -6 -4 19 -1 -9 20 -17 -5 -12 -13 -15 -8 -22 -20 -14 26 -10 -27 -2 -30
right_child=1 4 5 6 10 8 21 9 25 -11 18 12 24 15 -16 16 -18 -19 23 -21 22 -23 -24 -25 -26 27 -28 -29 29 -31
leaf_value=-0.010835549735064051 -0.0007985768329671312 0.0013035684954358323 -0.0070471351418711636 0.0018215257751806385 0.0049657854180839697 -0.0053749647741553226 0.0050049803901296951 0.0041261858006587651 -0.00095263909726668811 -0.0046389815663297734 0.01190135853999197 -0.0036948674910402333 -0.0062385539852376813 -0.0077334007718491754 0.010706297201875631 -0.01043362049844845 -0.0069655018529785357 0.0043474114090499578 0.014767034667413071 0.00097723538325064749 -0.0040291991568574635 0.0080223008568020629 0.0099308975627777837 0.018735775984547121 -0.001685709826489714 -0.0057152411518641127 0.0045610149669152973 -0.0013208766279044981 -0.0019542971754309968 0.0052886247025100523
leaf_weight=7926.1177191734314 9076.136159658432 1050.1615169048309 7797.8312673568726 8008.8871836662292 427.58893704414368 3169.498505115509 4336.9622144699097 818.18355536460876 8288.6900825500488 191.1631863117218 1986.982278585434 6847.0697121620178 9217.573282957077 3659.5244081020355 12297.09796667099 6874.6788146495819 3560.9499204158783 9512.4148890972137 3887.4903314113617 1505.2030155658722 1252.833975315094 6213.9192454814911 124.71371722221375 2170.9210398197174 1143.1556298732758 1609.3270184993744 1330.0464816093445 4015.8567080497742 887.73695254325867 1327.7726759910583
leaf_count=2847 2894 316 2687 2449 123 1052 1260 239 2657 58 523 2266 3131 1274 3376 2440 1242 2881 1000 480 418 1802 41 544 381 530 408 1297 276 405
internal_value=-8.99108e-06 0.00619072 -0.00565257 0.0031899 0.0113643 -0.00382037 0.00454289 0.00943967 -0.00181307 0.0100813 0.0146232 -0.00521426 -0.00444988 -0.00916975 0.0102965 -0.00831545 -0.00925145 0.0031933 0.0151352 -0.00285227 -0.00637383 0.00678309 -0.00275543 0.0161928 -0.00573691 -0.00107185 -0.000189315 -0.00257976 -0.000173411 0.00238462
internal_weight=130516 62193.4 68323.1 39363.8 22829.6 44924.3 28072.2 14356.6 18413.4 13306.4 8472.98 26510.8 18713 23398.8 13115.3 15472.7 10435.6 17521.3 8045.39 8352.27 5037.07 10550.9 1377.55 6058.41 10360.7 15243.9 9618.74 5625.18 11291.6 2215.51
internal_count=41297 18146 23151 11967 6179 14889 8392 3989 5944 3673 2190 8945 6258 8262 3615 5415 3682 5330 2067 2746 1733 3062 459 1544 3512 4892 3065 1827 3575 681
is_linear=0
shrinkage=0.05


Tree=12
num_leaves=31
num_cat=0
split_feature=11 11 11 11 4 11 4 30 18 18 4 18 3 4 3 4 18 30 42 1 29 30 18 1 33 33 11 11 30 30
split_gain=1708.57 345.862 168.704 66.0043 65.528 44.4883 24.6949 24.4268 24.3071 21.6793 17.559 16.178 15.9383 15.9286 15.4574 15.0536 14.9469 12.9208 11.6472 10.1863 9.82407 9.71829 9.64259 10.0323 9.44831 9.2117 9.06696 8.99984 8.92356 8.889
threshold=1.6396103896103897 2.3416666666666672 1.1026315789473686 3.0250000000000004 17.058333333333337 0.7947368421052633 15.158333333333335 3.5000000000000004 1.0000000180025095e-35 1.0000000180025095e-35 13.525000000000002 1.0000000180025095e-35 21.291739766081879 13.258333333333335 16.263750000000005 14.158333333333335 1.0000000180025095e-35 5.5000000000000009 64.000000000000014 16.634166666666669 -0.025479174285104818 6.5000000000000009 1.0000000180025095e-35 13.456111111111113 3.6517151701319182 4.110252128698856 0.56696428571428581 2.2426470588235299 11.500000000000002 32.500000000000007
decision_type=2 2 2 2 2 2 2 2 2 2 2 2 2 2 2 2 2 2 2 2 2 2 2 2 2 2 2 2 2 2
left_child=2 4 5 7 9 17 22 -3 19 10 -2 24 -13 -7 -5 -9 21 -1 -17 -8 -16 -15 23 -4 -6 -14 -19 -12 -21 -22
right_child=1 3 6 14 11 13 8 15 -10 -11 27 12 25 16 20 18 -18 26 -20 28 29 -23 -24 -25 -26 -27 -28 -29 -30 -31
leaf_value=-0.0068839419509226542 -0.0016838850451252397 0.0012695571578519513 -0.0050772299969806985 0.0050194400105780523 0.0057527334943627256 -0.0080460122483520594 -0.00098998518300908648 0.0036005340601365284 -0.003241159580967596 -0.0045674172193732217 0.0018154594735861175 -0.00015453517066587352 0.0043361974611961715 0.0017892177331642136 0.011727675564124247 0.0096588438420871017 -0.0065033362700279004 -0.012388084448286339 -0.0083824336125323112 0.0085685224607292328 0.013741207277585913 -0.0040665811975996143 -0.0079369801691685817 -0.0022681869299234192 0.012050314355092007 0.016756608399977741 -0.009510564120331369 0.0072789620184889152 0.0014630825196190178 0.017677087684151032
leaf_weight=2981.9404013156891 3897.3947653770447 1051.5313720703125 7270.6470429897308 455.29547524452209 10275.301175117493 8089.1972937583923 4964.7468178272247 1146.3816242218018 9646.8974480628967 1829.0319516658783 10185.6253490448 2500.7428367137909 4976.4567854404449 850.65744948387146 2301.4308772087097 15172.920584201813 8685.0443131923676 4386.029848575592 88.976557970046997 523.58053183555603 3079.5904498100281 4193.0545361042023 1625.7680556774139 5667.1612086296082 634.03514742851257 153.37524127960205 7468.9435555934906 814.05058717727661 2827.5731489658356 2775.522136926651
leaf_count=1057 1256 316 2456 130 3023 2845 1594 336 3201 595 3137 759 1475 274 598 4179 3010 1578 28 160 781 1401 554 1859 186 44 2664 240 876 685
internal_value=-9.45063e-06 0.00606593 -0.0053961 0.0104326 0.00283738 -0.00772205 -0.00277462 0.00866402 -0.00153353 0.000567831 0.00119893 0.00488448 0.00311645 -0.00628439 0.0140162 0.00913748 -0.00524554 -0.00983525 0.00955279 0.000446957 0.0145171 -0.00307781 -0.00430482 -0.00384744 0.00612027 0.00471172 -0.0105765 0.00222088 0.00257695 0.0156105
internal_weight=130519 61337.7 69181.2 26071.6 35266 36654.9 32526.4 17459.8 17962.8 16726.1 14897.1 18539.9 7630.57 21818 8611.84 16408.3 13728.8 14836.9 15261.9 8315.9 8156.54 5043.71 14563.6 12937.8 10909.3 5129.83 11855 10999.7 3351.15 5855.11
internal_count=41297 17768 23529 7053 10715 12829 10700 4859 5831 5228 4633 5487 2278 7530 2194 4543 4685 5299 4207 2630 2064 1675 4869 4315 3209 1519 4242 3377 1036 1466
is_linear=0
shrinkage=0.05


Tree=13
num_leaves=31
num_cat=0
split_feature=12 12 12 0 12 12 12 30 0 30 32 18 3 41 32 18 32 3 2 30 29 29 41 25 2 32 29 41 3 18
split_gain=1653.62 336.572 165.833 64.1769 48.0419 46.8946 29.9927 27.8303 18.0531 18.0067 13.841 14.2866 13.0423 12.9933 12.8977 10.8243 10.9759 9.99749 9.47264 9.15345 8.57187 8.51152 8.47833 8.6552 8.07426 8.05606 8.25933 8.14921 7.42702 7.33793
threshold=1.6276789785681716 2.4214638157894739 0.99275362318840588 15.190833333333336 3.1129418017539199 1.3237365368682685 2.0875959079283892 3.5000000000000004 12.937083333333335 5.5000000000000009 12.925000000000002 1.0000000180025095e-35 15.497291666666667 59.500000000000007 11.875000000000002 1.0000000180025095e-35 20.991666666666671 16.053755656108603 13.902083333333335 29.500000000000004 -0.0070283480850265026 0.066741277155186976 59.500000000000007 8.8910814824068733 22.21916666666667 17.775000000000002 -0.025479174285104818 20.500000000000004 16.849166666666672 1.0000000180025095e-35
decision_type=2 2 2 2 2 2 2 2 2 2 2 2 2 2 2 2 2 2 2 2 2 2 2 2 2 2 2 2 2 2
left_child=2 3 14 19 7 10 22 -3 -7 28 -4 17 -9 -14 -1 18 -17 -12 -16 -2 -8 -20 23 -5 -13 27 -27 -11 -6 -10
right_child=1 4 5 6 9 8 20 12 29 25 11 24 13 -15 15 16 -18 -19 21 -21 -22 -23 -24 -25 -26 26 -28 -29 -30 -31
leaf_value=-0.010552140790792667 -0.0011311708667760554 0.0012364754599588977 -0.006802720863814074 0.0036547544373466017 0.0014533612056507688 -0.0051752094230603099 0.0046737394627996967 0.004730961483002144 -0.00017046959283920505 0.014216537263927839 -0.0035515082928157132 -0.0060230053694925317 0.010289736994078452 -0.00093330886383897408 -0.0074657299512721105 -0.0096828706370072296 -0.0051904358272768895 0.00094655205912150232 -0.0038258195425363755 0.0019407554842735691 0.0075590517217200394 0.0097970432897270462 -0.0086751402466912538 0.0007992244199492741 -0.0015453596729439437 0.012515768621476922 0.017399748626542515 0.0057788365794094153 0.010780640753520006 -0.0024489311875946934
leaf_weight=7768.7601125240326 7766.7061030864716 1052.8672013282776 7692.0901210308075 14209.418189525604 317.45483160018921 3137.2749619483948 4385.6660757064819 1246.2782959938049 9611.3847196102142 982.96823954582214 6800.9306554794312 9111.914121389389 13828.260497570038 261.79882597923279 3603.0949473381042 8626.7847146987915 1624.8519470691681 1506.9960014820099 1240.6928825378418 3524.2057149410248 6302.8110179901123 125.19968748092651 152.51059246063232 3269.5723531246185 1136.2589340209961 1195.1384041309357 3376.2948267459869 409.67000818252563 660.88967990875244 5592.2958552837372
leaf_count=2847 2464 316 2687 4295 94 1052 1260 357 3065 243 2266 3131 3697 77 1274 3117 565 480 418 1111 1802 41 47 988 381 302 816 102 175 1827
internal_value=-9.85668e-06 0.00582155 -0.0054413 0.00301515 0.0105855 -0.00366248 0.0042859 0.00910685 -0.00172214 0.0140738 -0.00501799 -0.00427757 0.00964672 0.0100808 -0.00889087 -0.00804197 -0.0089719 -0.00273498 -0.006121 -0.000171808 0.00637617 -0.00256722 0.00301816 0.00312097 -0.00552724 0.0151065 0.016127 0.0117439 0.00776379 -0.00100898
internal_weight=130521 62942.5 67578.5 39610.9 23331.6 44589.1 28320 16389.2 18341 6942.42 26248.2 18556.1 15336.3 14090.1 22989.4 15220.6 10251.6 8307.93 4968.99 11290.9 10688.5 1365.89 17631.5 17479 10248.2 5964.07 4571.43 1392.64 978.345 15203.7
internal_count=41297 18146 23151 11967 6179 14889 8392 4447 5944 1732 8945 6258 4131 3774 8262 5415 3682 2746 1733 3575 3062 459 5330 5283 3512 1463 1118 345 269 4892
is_linear=0
shrinkage=0.05


Tree=14
num_leaves=31
num_cat=0
split_feature=12 12 12 0 12 12 12 30 0 30 32 18 32 42 18 1 0 35 30 1 29 32 30 9 32 33 35 12 42 18
split_gain=1571.92 314.17 160.608 68.1212 45.0683 36.4804 34.4623 23.2063 17.3065 16.4874 13.3835 14.1622 12.6112 11.9569 10.5375 11.0452 10.8636 10.2097 9.80115 9.37702 9.17217 8.51802 7.89096 9.16142 7.90252 7.48666 9.79802 7.55345 7.07587 7.00386
threshold=1.6276789785681716 2.5036231884057973 0.99275362318840588 15.190833333333336 1.3237365368682685 2.0875959079283892 3.1129418017539199 5.5000000000000009 12.937083333333335 5.5000000000000009 12.991666666666669 1.0000000180025095e-35 11.875000000000002 64.000000000000014 1.0000000180025095e-35 13.795119047619048 18.751666666666669 1.0000000180025095e-35 11.500000000000002 21.00416666666667 0.080944394299480651 13.991666666666669 31.500000000000004 2.3666666666666671 12.575000000000001 2.0588625798880731 -0.23333333333333336 3.5051020408163267 53.000000000000007 1.0000000180025095e-35
decision_type=2 2 2 2 2 2 2 2 2 2 2 2 2 2 2 2 2 2 2 2 2 2 2 2 2 2 2 2 2 2
left_child=2 3 12 22 10 17 7 -3 -6 -8 -4 18 -1 20 15 -14 -16 28 -12 -13 -9 -7 23 24 -2 26 -11 -27 -5 -10
right_child=1 6 4 5 8 21 9 13 29 25 11 19 14 -15 16 -17 -18 -19 -20 -21 -22 -23 -24 -25 -26 27 -28 -29 -30 -31
leaf_value=-0.010400708826279069 -0.0047336816749569662 0.0024834956769411594 -0.0066588152452017437 0.0021372062723192839 -0.0050732647121862215 -0.00063399391762836556 0.0075119842224598866 0.0094353795533190579 -0.00016626612488811578 0.0078623633388465505 0.00088830890879049943 -0.0064198722631133957 -0.0077238879306133421 -0.0067928520939378777 -0.010011632151172539 -0.0027430993007041878 -0.0065565306223858899 0.0040350835337599148 -0.003480693712074265 -0.0031001992191188555 0.013329104244981538 0.0066454313058679024 0.0019731372815698285 0.0037846724113314873 -0.00065527987533345756 0.013806756896522996 0.014485753820034983 0.018615170900802207 -0.0026277884749434737 -0.0023940659643478085
leaf_weight=7687.21400141716 1485.8854093551636 1171.339542388916 7771.5003707408905 7197.5624680519104 3121.0808072090149 413.53675436973572 985.96957778930664 10676.765168428421 9609.7463703155518 801.03497552871704 1592.0674226284027 7124.7008492946625 3233.6453437805176 105.99628973007202 6678.8677294254303 1705.0375936031342 3481.2280840873718 9615.3551833629608 6581.6338942050934 3046.9832482337952 1778.9458000659943 12700.308436155319 3393.0923626422882 931.05729722976685 5928.0938591957092 1753.0581576824188 1908.4440724849701 1592.2956256866455 871.90722155570984 5578.6174294948578
leaf_count=2847 482 345 2732 2182 1052 123 269 2823 3065 195 516 2472 1155 33 2440 578 1242 2881 2192 1033 463 3589 1065 287 1874 428 463 377 267 1827
internal_value=-1.02239e-05 0.00564332 -0.00533566 0.00318158 -0.00358491 0.00441682 0.0106834 0.00922259 -0.00168238 0.0135302 -0.0049184 -0.00418052 -0.00874861 0.00985035 -0.00790651 -0.00600623 -0.00882904 0.0029342 -0.00262909 -0.00542634 0.00999291 0.00641547 -5.91284e-05 -0.000886184 -0.00147386 0.014508 0.0125331 0.0161018 0.00162147 -0.00098496
internal_weight=130523 63310.6 67212.3 42536.8 44426.3 30798.7 20773.8 13733 18309.4 7040.8 26116.9 18345.4 22786 12561.7 15098.8 4938.68 10160.1 17684.8 8173.7 10171.7 12455.7 13113.8 11738.1 8345.04 7413.98 6054.83 2709.48 3345.35 8069.47 15188.4
internal_count=41297 18146 23151 12750 14889 9042 5396 3664 5944 1732 8945 6213 8262 3319 5415 1733 3682 5330 2708 3505 3286 3712 3708 2643 2356 1463 658 805 2449 4892
is_linear=0
shrinkage=0.05


Tree=15
num_leaves=31
num_cat=0
split_feature=12 12 12 0 12 11 12 30 0 41 4 18 30 1 4 12 18 1 4 35 30 1 30 1 29 9 4 29 2 18
split_gain=1494.37 293.216 155.497 57.1668 43.3037 41.1129 26.2746 23.0914 16.5881 13.9944 12.9334 13.2496 12.8114 12.3721 12.3257 11.0282 10.254 10.6803 10.6035 9.62458 9.00854 8.997 8.29759 8.06151 7.93883 7.62204 7.62394 6.96826 6.91729 6.68443
threshold=1.6276789785681716 2.4214638157894739 0.99275362318840588 15.190833333333336 1.3237365368682685 3.0250000000000004 2.0875959079283892 3.5000000000000004 12.937083333333335 59.500000000000007 12.925000000000002 1.0000000180025095e-35 2.5000000000000004 15.722500000000002 11.875000000000002 3.7788888888888894 1.0000000180025095e-35 13.795119047619048 20.991666666666671 1.0000000180025095e-35 17.500000000000004 21.00416666666667 29.500000000000004 15.454583333333336 -0.0070283480850265026 2.3666666666666671 12.575000000000001 0.048208611563697941 23.272083333333335 1.0000000180025095e-35
decision_type=2 2 2 2 2 2 2 2 2 2 2 2 2 2 2 2 2 2 2 2 2 2 2 2 2 2 2 2 2 2
left_child=2 3 14 22 10 7 19 -3 -6 13 -4 20 -7 -9 -1 23 17 -16 -18 28 -12 -13 25 -14 -8 26 -2 -19 -5 -10
right_child=1 5 4 6 8 12 24 9 29 -11 11 21 15 -15 16 -17 18 27 -20 -21 -22 -23 -24 -25 -26 -27 -28 -29 -30 -31
leaf_value=-0.010249878363672317 -0.0048862943805934337 0.0011200929214968721 -0.0065584476113461953 0.00099522139817362853 -0.004972815123953216 0.0048575571659285957 0.0043496291782813218 0.0045005669385371492 -0.00016216552468331739 -0.0046134154613737405 -4.3693044854401426e-05 -0.0062898344377459274 0.00024893648094391312 0.0094893829475770023 -0.0075912976986890869 0.017070530540521704 -0.0093945841425436445 -0.0041146193868078903 -0.0049498658044825131 0.0039188601583608615 -0.0036757361917435548 -0.0030327524496672337 0.0018416410992989263 0.012434413488826238 0.0071093217764547001 0.0040645847942130204 -0.00074966402745081445 0.0044602370931426556 0.0052536057177656687 -0.0023402999787130504
leaf_weight=7607.6758801937103 1384.4419641494751 1057.5937933921814 7589.2364919185638 6977.6412971019745 3105.2868204116821 515.04814100265503 4434.3918151855469 1390.7512037754059 9608.1487331390381 190.92017030715942 2414.9147322177887 7098.9929811954498 139.35413551330566 12234.908249139786 3208.7652196884155 1405.2080399990082 8465.636283159256 1417.3119306564331 1605.1767518520355 9654.2323231697083 5848.1341919898987 3037.5516104698181 3537.3060567378998 6885.5940752029419 6391.5754928588867 657.26566195487976 5708.3897478580475 283.05499219894409 1104.9393029212952 5565.2778768539429
leaf_count=2847 452 316 2687 2119 1052 141 1260 393 3065 58 791 2479 39 3222 1155 328 3117 483 565 2881 1955 1033 1111 1682 1802 204 1808 95 330 1827
internal_value=-1.05576e-05 0.00547155 -0.00523152 0.00284795 -0.00350871 0.00986035 0.00403841 0.00824731 -0.00164346 0.00879239 -0.00482029 -0.00410277 0.0125408 0.00898092 -0.00860739 0.0130089 -0.00777228 -0.00589295 -0.0086872 0.00285283 -0.00261499 -0.00531469 -0.000164145 0.0121935 0.0059799 -0.00108039 -0.00155837 -0.00268247 0.00157857 -0.000961488
internal_weight=130525 63669.6 66855.2 39850.2 44267.5 23819.4 28562.8 14874.2 18278.7 13816.6 25988.8 18399.6 8945.2 13625.7 22587.6 8430.16 14979.9 4909.13 10070.8 17736.8 8263.05 10136.5 11287.4 7024.95 10826 7750.1 7092.83 1700.37 8082.58 15173.4
internal_count=41297 18146 23151 11967 14889 6179 8392 3989 5944 3673 8945 6258 2190 3615 8262 2049 5415 1733 3682 5330 2746 3512 3575 1721 3062 2464 2260 578 2449 4892
is_linear=0
shrinkage=0.05


Tree=16
num_leaves=31
num_cat=0
split_feature=12 12 12 4 12 11 12 30 4 36 30 42 4 12 4 29 14 30 12 11 35 4 4 10 29 25 11 34 40 27
split_gain=1420.77 269.719 153.705 60.4061 43.6636 29.57 28.4588 20.7471 17.6003 17.3292 16.4482 15.0494 12.5018 12.065 12.0414 9.10889 8.9658 8.2859 15.9519 8.14751 7.87112 7.36249 7.20378 7.05009 7.07872 6.6645 6.6278 6.61572 6.91339 6.56439
threshold=1.6371473354231978 2.5036231884057973 0.99275362318840588 15.941666666666668 1.3237365368682685 3.2426470588235299 2.0875959079283892 3.5000000000000004 13.591666666666669 1.5027726527090814 7.5000000000000009 61.000000000000007 12.991666666666669 1.9099025974025976 11.875000000000002 0.097659161014247445 14.337294957226915 4.5000000000000009 0.6478537360890303 1.6396103896103897 -0.61249999999999882 17.925000000000004 12.425000000000002 1.9500000000000002 -0.023164359470290049 9.3710434371961657 1.6055555555555558 -0.56666666666666654 1.5000000000000002 1.5000000000000002
decision_type=2 2 2 2 2 2 2 2 2 2 2 2 2 2 2 2 2 2 2 2 2 2 2 2 2 2 2 2 2 2
left_child=2 3 14 10 12 7 19 -3 -6 16 22 15 -4 -12 -1 -9 29 -16 -19 -5 26 -21 -2 -8 -25 -15 -10 -14 -29 -7
right_child=1 5 4 6 8 9 23 11 20 -11 13 -13 27 25 17 -17 -18 18 -20 21 -22 -23 -24 24 -26 -27 -28 28 -30 -31
leaf_value=-0.010099692556043047 -0.0066164862938234955 0.00065271542991462419 -0.0064181449383706266 0 -0.0040797260316924617 0.022497646241673722 0.0038003024128875616 0.0088953329058588833 -0.0042602742008809999 0.014235765986238325 -3.1780753069024129e-05 -0.0072673167495943729 -0.007229156871138058 0.0037486711370118327 -0.0042005260041379838 0.013398679376673016 0.0060257834093482496 -0.01104351472805966 -0.0070408899838559913 0.0016477082661765442 -4.9107352112301856e-05 0.0042064051239160431 -0.0010991036707780472 0.0048945854571140167 0.0078012021178583968 -0.010002908093721452 0.0024050084570522851 -0.0040360600699370572 -0.00039725747670390864 0.0097984666760961413
leaf_weight=7530.096467256546 684.22378468513489 761.10047316551208 7669.8981716632843 1963.2198350429535 5051.1521425247192 158.947669506073 2355.6485538482666 12502.331486701965 2149.3159325122833 4910.5493450164795 5045.0694737434387 137.35761213302612 1469.4357912540436 4618.6418056488037 1575.9179470539093 1243.3731825351715 1202.0390782356262 3334.3155281543732 9953.806220293045 4003.2276751995087 11140.165095329285 9517.2865583896637 4368.1160225868225 3118.3747403621674 6504.2647364139557 88.693593502044678 449.52896904945374 15293.892144203186 1430.7214417457581 295.57816672325134
leaf_count=2847 222 229 2732 604 1703 38 665 3229 701 1165 1600 42 503 1394 565 316 305 1237 3613 1208 3568 2805 1389 870 1797 27 141 5224 486 72
internal_value=-1.08549e-05 0.0053503 -0.00508661 0.00304114 -0.00339096 0.00995106 0.00442898 0.00869852 -0.0015561 0.0127416 0.00046631 0.00913917 -0.00472368 0.00166608 -0.00846724 0.00930399 0.00830357 -0.00763928 -0.00804638 0.00301234 -0.000627694 0.00344936 -0.00184846 0.00625938 0.00686039 0.00348644 -0.00310496 -0.00400878 -0.00372512 0.01429
internal_weight=130526 63478 67048.2 42266.8 44654.1 21211.3 27462 14644.2 18790.2 6567.11 14804.7 13883.1 25863.9 9752.4 22394.1 13745.7 1656.56 14864 13288.1 15483.7 13739 13520.5 5052.34 11978.3 9622.64 4707.34 2598.84 18194 16724.6 454.526
internal_count=41297 17977 23320 12581 15058 5396 7949 3816 6113 1580 4632 3587 8945 3021 8262 3545 415 5415 4850 4617 4410 4013 1611 3332 2667 1421 842 6213 5710 110
is_linear=0
shrinkage=0.05


Tree=17
num_leaves=31
num_cat=0
split_feature=12 12 12 0 12 12 12 30 0 30 4 42 4 1 25 33 30 12 30 29 4 34 4 1 36 11 4 1 40 29
split_gain=1350.92 256.024 145.604 51.311 39.9397 35.388 23.1443 21.4976 15.4866 13.5122 12.0804 11.761 11.7588 11.6846 8.55436 11.8148 8.03976 15.5774 7.6577 7.45786 7.02364 7.01626 6.77313 8.63889 7.33278 6.57648 6.56669 6.55654 6.15924 6.03707
threshold=1.6276789785681716 2.4214638157894739 0.99275362318840588 15.190833333333336 1.3237365368682685 3.1129418017539199 2.0629960317460321 5.5000000000000009 12.937083333333335 5.5000000000000009 13.058333333333335 64.000000000000014 11.875000000000002 15.722500000000002 8.8974626572893634 1.0087059109400649 4.5000000000000009 0.6478537360890303 29.500000000000004 -0.0070283480850265026 21.575000000000003 -0.53137254901960762 17.775000000000002 17.135833333333334 2.9401411807576578 2.0250000000000004 16.141666666666669 16.839166666666667 1.5000000000000002 0.023737712092798405
decision_type=2 2 2 2 2 2 2 2 2 2 2 2 2 2 2 2 2 2 2 2 2 2 2 2 2 2 2 2 2 2
left_child=2 3 12 18 10 7 14 -3 -6 27 29 13 -1 -9 15 -5 -14 -18 -2 -8 -16 -12 23 -11 -24 26 -10 -7 -23 -4
right_child=1 5 4 6 8 9 19 11 25 22 21 -13 16 -15 20 -17 17 -19 -20 -21 -22 28 24 -25 -26 -27 -28 -29 -30 -31
leaf_value=-0.0099501950610289686 -0.0010475765767102036 0.0024610254302117819 -0.0072599676012222118 0.012636545678487945 -0.0048012332055846034 0.00084908919033336693 0.0039999974812328642 0.0040070263531948981 -0.0021695292656289849 0.01770296109472248 -0.006950776377982088 -0.0067025234446728326 -0.0041137476486667697 0.009061878990325227 -0.0011986154745809632 0.0029432442186871073 -0.010890474123985961 -0.0069152146666538244 0.0017570680771702317 0.0065853822844416238 0.0041985345086609739 -0.0038862394473676226 0.013376189900406741 0.0080339427546725246 0.021637387243282763 0.012673988739230688 -6.5068383711889459e-05 0.0094898480599508606 -0.00039339300744063976 -0.0043100286888384251
leaf_weight=7454.4274682998657 7739.4019405841827 1621.1823961734772 5191.5712809562683 321.15582728385925 3078.6750221252441 324.94881391525269 4718.8511674404144 1251.5823304653168 6619.9875359535217 289.83427691459656 1720.6124958992004 124.77159786224365 1569.312150478363 13973.737008571625 2243.1122055053711 13786.728826284409 3297.6955368518829 9883.9687914848328 3548.5616624355316 6896.0956702232361 823.03177523612976 14816.812666654587 4547.2988958358765 1174.1691863536835 289.95767593383789 87.52109956741333 8433.7508082389832 685.78432822227478 1383.4330518245697 2629.6938712596893
leaf_count=2847 2464 470 1859 96 1052 94 1331 348 2163 69 593 39 565 3590 676 4123 1237 3613 1111 1923 243 5081 1052 276 66 27 2702 175 470 942
internal_value=-1.11169e-05 0.0051464 -0.00502784 0.00269136 -0.00336056 0.0091977 0.0038116 0.007943 -0.00156867 0.0121077 -0.00462854 0.00852145 -0.00832818 0.00864697 0.00264491 0.00316514 -0.00750753 -0.00791085 -0.000165369 0.00553587 0.000249385 -0.0039118 0.0129698 0.00996234 0.0138768 -0.000910785 -0.000990935 0.00672039 -0.00358832 -0.00626945
internal_weight=130528 64360.2 66167.5 40076.9 43962.1 24283.3 28789 16971.3 18219.9 7311.99 25742.1 15350.1 22205.4 15225.3 17174 14107.9 14751 13181.7 11288 11614.9 3066.14 17920.9 6301.26 1464 4837.26 15141.3 15053.7 1010.73 16200.2 7821.27
internal_count=41297 18146 23151 11967 14889 6179 8392 4447 5944 1732 8945 3977 8262 3938 5138 4219 5415 4850 3575 3254 919 6144 1463 345 1118 4892 4865 269 5551 2801
is_linear=0
shrinkage=0.05


Tree=18
num_leaves=31
num_cat=0
split_feature=12 12 12 12 1 30 4 18 12 4 1 30 4 35 4 35 14 17 10 18 4 1 11 18 41 29 2 30 26 29
split_gain=1285.72 275.495 115.163 67.1012 31.8411 28.683 24.1509 23.0535 17.4523 16.2874 12.8883 16.8247 11.478 11.2355 11.1146 10.8386 10.5622 10.2668 10.2332 9.99434 10.4754 10.3004 8.86263 8.32075 8.22605 7.32073 7.64313 7.18964 7.03466 7.86393
threshold=1.5390720390720394 2.1120071684587818 0.99275362318840588 2.6690476190476193 15.000833333333334 2.5000000000000004 13.591666666666669 1.0000000180025095e-35 3.5051020408163267 14.158333333333335 16.634166666666669 10.500000000000002 11.875000000000002 -2.9351515151515142 19.008333333333336 0.011180555555555751 7.007412936360141 1.0000000180025095e-35 1.9500000000000002 1.0000000180025095e-35 19.875000000000004 13.795119047619048 1.8480769230769234 1.0000000180025095e-35 57.000000000000007 0.018326050431136779 25.048194444444448 37.500000000000007 1.0000000180025095e-35 0.12029577274100235
decision_type=2 2 2 2 2 2 2 2 2 2 2 2 2 2 2 2 2 2 2 2 2 2 2 2 2 2 2 2 2 2
left_child=2 4 12 9 28 -5 24 10 13 -3 17 -12 -1 -7 -9 25 -16 -8 -11 21 -21 -14 -17 -20 -4 -6 -27 -10 -2 -30
right_child=1 3 6 5 15 8 7 14 27 18 11 -13 19 -15 16 22 -18 -19 23 20 -22 -23 -24 -25 -26 26 -28 -29 29 -31
leaf_value=-0.0098014262864367478 -0.0021297931113409335 0.0011107232735699845 -0.0056828697425872774 0.0018775721881282448 0.00032937930287928641 0.025070551190485658 -0.0003553848684854147 -0.0059692533533163327 0.012014906693986046 0.0033522558460367803 0.0086066989108244153 -0.00051675933472088479 -0.0071948076855130111 0.0094965599963506425 -0.0037530278424507215 0.0021023621701139346 0.0015324251426591217 -0.0035791361264119249 0.0073058320158186051 -0.0092544910565357848 -0.0055104753966396117 -0.0023305127813170973 0.0048906029710433958 0.0044358026890933154 0.001207738353966564 0.0027095165973251688 0.01842996978661161 0.017124367162394859 0.00016643634688758482 0.015251995128989081
leaf_weight=7380.6224281787872 5434.3611841201782 1828.9865221977234 12431.096153736115 1046.2909579277039 6925.8370003700256 116.63228273391724 4652.1170132160187 5448.6164412498474 1972.7132284641266 2868.6048278808594 684.48432111740112 1918.9925172328949 3136.5974595546722 13117.980515003204 7176.7437307834625 5632.5188245773315 1086.5565710067749 5273.3128614425659 10821.118455886841 7301.1815655231476 2529.1703402996063 1673.7519752979279 5792.088613986969 3315.9179575443268 447.20169973373413 3883.3341126441956 78.054316997528076 1086.3868846893311 5380.7185108661652 86.817329406738281
leaf_count=2847 1745 544 4386 298 2105 28 1537 1903 458 801 212 607 1155 3250 2461 1709 362 1749 2944 2759 923 578 1691 894 156 1179 23 238 1728 27
internal_value=-1.13334e-05 0.00464672 -0.00529784 0.00766553 0.00135851 0.00991035 -0.00366931 -0.00279841 0.0104257 0.00559817 -0.0012473 0.00188237 -0.00819025 0.00963607 -0.00421514 0.00244068 -0.00305733 -0.00206883 0.00608041 -0.00737707 -0.00829239 -0.00550416 0.0035167 0.00663337 -0.00544313 0.00131088 0.0030251 0.0138361 -0.000855836 0.000409635
internal_weight=130529 69388.4 61140.4 36174.6 33213.7 17340 39119.1 26240.8 16293.7 18834.6 12528.9 2603.48 22021.3 13234.6 13711.9 22311.8 8263.3 9925.43 17005.6 14640.7 9830.35 4810.35 11424.6 14137 12878.3 10887.2 3961.39 3059.1 10901.9 5467.54
internal_count=41297 19662 21635 9455 10207 4272 13373 8831 3974 5183 4105 819 8262 3278 4726 6707 2823 3286 4639 5415 3682 1733 3400 3838 4542 3307 1202 696 3500 1755
is_linear=0
shrinkage=0.05


Tree=19
num_leaves=31
num_cat=0
split_feature=12 12 12 12 4 30 4 18 11 4 23 30 2 12 30 4 35 10 4 29 41 35 18 11 29 18 10 17 25 18
split_gain=1223.51 258.359 111.441 62.3198 29.9249 26.6668 23.2444 22.1069 16.2643 15.2881 13.2743 12.3035 15.7779 11.4665 21.9055 10.6009 10.4054 9.57261 9.20985 8.60778 7.90213 7.86108 7.7649 7.3416 7.86356 7.22459 9.15831 7.21796 6.68549 6.15862
threshold=1.5390720390720394 2.1120071684587818 0.99275362318840588 2.6690476190476193 15.158333333333335 2.5000000000000004 13.591666666666669 1.0000000180025095e-35 3.4522727272727276 14.158333333333335 8.8057290857917252 11.500000000000002 16.044583333333339 0.6478537360890303 5.5000000000000009 19.008333333333336 -0.069166666666666807 1.9500000000000002 21.241666666666671 0.05982159008844113 57.000000000000007 -2.9351515151515142 1.0000000180025095e-35 1.8480769230769234 -0.038299324944238593 1.0000000180025095e-35 1.7638888888888891 1.0000000180025095e-35 9.1743203775478577 1.0000000180025095e-35
decision_type=2 2 2 2 2 2 2 2 2 2 2 2 2 2 2 2 2 2 2 2 2 2 2 2 2 2 2 2 2 2
left_child=2 4 13 9 19 -5 20 11 21 -3 15 12 -8 14 28 -9 -6 -11 -12 25 29 -7 -19 -18 -25 26 -2 -13 -1 -4
right_child=1 3 6 5 16 8 7 10 -10 17 18 27 -14 -15 -16 -17 23 22 -20 -21 -22 -23 -24 24 -26 -27 -28 -29 -30 -31
leaf_value=-0.0061855824405245945 -0.0025780924324879267 0.0010819428591750232 -0.0051820011958395229 0.001827523064022182 0.00095949398834856842 0.021051301343224624 -0.0012241072240619781 -0.0069852034474901627 0.012844847964099529 0.0032579750869307696 -0.0028312214984454087 -0.00051638239569893024 0.0073362404166793602 -0.0072433419550725188 -0.011530439367771197 -0.0037257912767045074 0.0020804519280089033 0.0070719353188129072 0.0034736837726520526 0.0027988037848144147 0.0011763815788426457 0.0090335208716435713 0.0043063149133576823 0.0014299206781558304 0.00534107009659604 -0.0044473607396908078 0.00067958416177521898 -0.0031790973125260732 0.0067103857936590006 -0.0087768200363565422
leaf_weight=2151.4626150131226 3674.3042163848877 1831.0191471576691 11017.319346427917 1048.2572786808014 7615.4901185035706 137.83501744270325 1374.963228225708 4018.8151051998138 3989.0031249523163 2878.2372720241547 2232.3726544380188 4722.0034286975861 882.54989647865295 14591.911865472794 4994.1650543212891 6622.5459337234497 6711.0671830177307 10900.465251684189 780.53796863555908 1541.6278703212738 447.74213123321533 12337.613493680954 3330.6593961715698 1700.1124947071075 5324.4240500926971 1472.3573815822601 5219.5345048904419 5533.8221876621246 104.25891017913818 1343.3328590393066
leaf_count=805 1189 544 3904 298 2300 32 452 1416 904 801 771 1551 273 5490 1928 2276 2035 2944 263 495 156 3038 894 497 1553 488 1650 1829 39 482
internal_value=-1.15244e-05 0.00450988 -0.00519422 0.00741732 0.00132293 0.00956778 -0.00359162 -0.00273677 0.0100601 0.00542829 -0.00412812 -0.00121796 0.00212202 -0.00805349 -0.00968218 -0.00495775 0.00244299 0.00589304 -0.00119558 -0.000684998 -0.00533733 0.00916838 0.00642537 0.003265 0.00439552 -0.0012038 -0.000665833 -0.00195378 -0.00558461 -0.00557376
internal_weight=130530 69712 60817.8 36453.1 33258.9 17512.7 38976 26167.6 16464.5 18940.4 13654.3 12513.3 2257.51 21841.8 7249.89 10641.4 21351.1 17109.4 3012.91 11907.8 12808.4 12475.4 14231.1 13735.6 7024.54 10366.2 8893.84 10255.8 2255.72 12360.7
internal_count=41297 19662 21635 9455 10207 4272 13373 8831 3974 5183 4726 4105 725 8262 2772 3692 6385 4639 1034 3822 4542 3070 3838 4085 2050 3327 2839 3380 844 4386
is_linear=0
shrinkage=0.05


Tree=20
num_leaves=31
num_cat=0
split_feature=12 12 12 12 1 30 4 12 12 4 4 35 35 11 30 30 12 41 29 0 26 0 25 35 12 1 14 34 25 44
split_gain=1164.34 242.396 107.801 57.9235 29.093 24.8112 22.3668 17.224 15.1037 14.4134 11.2556 9.71344 9.54608 7.91569 7.79286 7.67078 14.8559 7.58965 6.84536 9.51681 6.71689 7.95964 6.46999 6.46789 6.45332 6.40893 6.31949 6.29366 6.09886 6.03617
threshold=1.5390720390720394 2.1120071684587818 0.99275362318840588 2.6690476190476193 15.000833333333334 2.5000000000000004 13.591666666666669 1.3237365368682685 3.2532051282051286 16.091666666666672 11.875000000000002 0.011180555555555751 -2.9351515151515142 1.8480769230769234 33.500000000000007 4.5000000000000009 0.6478537360890303 57.000000000000007 0.018326050431136779 24.411666666666672 1.0000000180025095e-35 15.381666666666668 8.7091769949644604 -0.74476190476190307 1.7698612862547292 12.83416666666667 9.4490157316286645 -0.53137254901960762 7.9847924232967378 9.5000000000000018
decision_type=2 2 2 2 2 2 2 2 2 2 2 2 2 2 2 2 2 2 2 2 2 2 2 2 2 2 2 2 2 2
left_child=2 4 10 9 20 -5 17 27 12 25 -1 18 -7 22 -10 -12 -17 -4 24 -20 -2 -22 -13 -9 -6 -3 -11 -8 -15 -28
right_child=1 3 6 5 11 8 7 23 14 26 15 13 -14 28 -16 16 -18 -19 19 -21 21 -23 -24 -25 -26 -27 29 -29 -30 -31
leaf_value=-0.0095284238215154003 -0.0020783549812036011 -0.0027706616661969555 -0.0054661789829035107 0.0017788980219905081 -0.0017187661591111316 0.025267131394411297 -0.0066520238485611467 -0.0040867341986454029 0.010282713684564791 0.0042333321459157502 -0.0037660868009637563 0.003101925663430166 0.0085096422289982192 -0.0035023598367046843 0.014123056780511692 -0.010464084975232629 -0.0065275251507552331 0.0011458749063811813 0.0025728494702249149 0.021192548861239825 3.2911097415045537e-05 0.010224937148191664 -0.00058901965592668643 -0.00044639736284378764 0.0014520792366952021 0.0033777792224098458 0.0031533605726086072 -0.003336425232179962 0.0049441703096744956 0.0070031337802492809
leaf_weight=7248.9167869091034 5422.0721709728241 476.35701656341553 12291.969486236572 1050.1747446060181 2518.6266481876373 85.230339527130127 1587.7905449867249 1434.6892659664154 3296.1604874134064 3798.3792567253113 1543.3931832313538 3963.0210795402527 10997.255747318268 220.7775707244873 2252.2630867958069 3199.7833352088928 9674.5734581947327 448.26915240287781 3910.0057933330536 68.963110685348511 5270.8566563129425 197.8300633430481 1691.6325731277466 8163.742161989212 4415.4342498779297 3738.1308174133301 1143.2753641605377 14910.004378795624 5623.8070123195648 9887.3476936817169
leaf_count=2847 1745 145 4386 298 783 20 555 473 756 1033 565 1197 2708 64 490 1237 3613 156 1182 20 1695 60 512 2642 1322 1072 306 5161 1627 2627
internal_value=-1.16998e-05 0.00437766 -0.0050921 0.00717894 0.00128829 0.00924024 -0.00351531 -0.00267634 0.00971096 0.00526447 -0.0079179 0.00231849 0.00864124 0.00333275 0.0118448 -0.00710721 -0.00750704 -0.00523307 0.00124908 0.00290206 -0.00083132 0.000404324 0.00199696 -0.000991413 0.000299545 0.00268115 0.0059981 -0.00365621 0.00462371 0.0066049
internal_weight=130531 70027.6 60503.1 36724.6 33303 17681.1 38836.5 26096.2 16630.9 19043.5 21666.7 22412.3 11082.5 11499.2 5548.42 14417.7 12874.4 12740.2 10913 3978.97 10890.8 5468.69 5654.65 9598.43 6934.06 4214.49 14829 16497.8 5844.58 11030.6
internal_count=41297 19662 21635 9455 10207 4272 13373 8831 3974 5183 8262 6707 2728 3400 1246 5415 4850 4542 3307 1202 3500 1755 1709 3115 2105 1217 3966 5716 1691 2933
is_linear=0
shrinkage=0.05


Tree=21
num_leaves=31
num_cat=0
split_feature=11 11 11 4 11 11 30 4 4 36 30 42 4 29 29 35 30 11 4 10 0 4 4 33 23 29 14 3 23 35
split_gain=1094.16 190.87 129.762 46.3931 39.9564 27.8407 17.7973 14.995 14.8704 13.2452 11.9168 11.1182 10.2338 10.0902 9.81599 9.15905 9.12701 9.09113 8.76201 8.57963 8.27389 8.08522 10.4056 7.97977 7.57701 7.4288 7.39049 7.62541 6.96103 6.95341
threshold=1.6396103896103897 2.4248120300751883 0.86190476190476206 17.058333333333337 1.2565789473684212 3.2426470588235299 5.5000000000000009 15.158333333333335 13.058333333333335 1.5027726527090814 7.5000000000000009 61.000000000000007 7.4083333333333341 0.080944394299480651 -0.038299324944238593 -0.46083333333333248 12.500000000000002 0.56696428571428581 12.425000000000002 2.4722222222222228 13.688333333333334 7.9583333333333348 13.525000000000002 3.5830530675919086 8.7755915609300583 0.012879479911036775 14.337294957226915 23.835599415204683 8.6702943772686005 -0.61249999999999882
decision_type=2 2 2 2 2 2 2 2 2 2 2 2 2 2 2 2 2 2 2 2 2 2 2 2 2 2 2 2 2 2
left_child=2 3 12 10 8 6 -3 -6 25 26 18 13 -1 -8 -5 -10 20 -18 -2 23 -14 -12 -23 -16 -22 -4 27 -7 -21 -9
right_child=1 5 4 14 7 9 11 29 15 -11 21 -13 16 -15 19 -17 17 -19 -20 28 24 22 -24 -25 -26 -27 -28 -29 -30 -31
leaf_value=-0.012737395034219926 -0.0071859128852242611 0.0020644773190439483 -0.0075931825268869615 0.002095063567494641 -0.0031109749835540722 0.015826546532418852 0.0071203382287417282 -0.0029192935105241506 -0.0057325484548726652 0.011950693854241979 0.013356858859707742 -0.0051783450861474477 -0.0080719351664181593 0.01078885545186754 0.0038402083588352422 -0.0030573437891585802 -0.011177245474235147 -0.0078432913272956737 -0.00073494485428459225 0.0046658986567238185 -0.0054586117971412449 -0.0012001393292208717 0.0021065329631306112 0.0084242954150312837 0.00124699893280602 -0.0045567550638746989 0.0048471568895442508 0.0013107245115580378 0.0106122033594878 0.00010225419696457277
leaf_weight=1134.4595334529877 592.98173904418945 1680.4256763458252 4558.0306720733643 5114.0700900554657 9257.5478360652924 358.59998416900635 14588.221115589142 2337.1969668865204 4168.8177635669708 5215.6950309276581 138.31315112113953 170.99343657493591 2778.6688890457153 2162.7814450263977 12976.909358501434 13878.336736679077 2689.4318883419037 8775.6430332660675 4654.8619191646576 974.40835666656494 2230.7176671028137 3222.9800038337708 9063.8819146156311 1026.5540022850037 517.47263145446777 3643.3355751037598 1249.8188860416412 122.1763768196106 1008.2648708820343 10239.845175981522
leaf_count=449 196 478 1686 1463 3157 82 3674 766 1478 1165 44 51 1084 535 3700 4836 1055 3333 1477 266 838 1037 2704 290 192 1346 305 28 273 3309
internal_value=-1.18345e-05 0.00463254 -0.00452388 0.00242131 -0.00316452 0.00798793 0.00697778 -0.00158374 -0.00447919 0.010691 0.000531115 0.00746524 -0.00812914 0.00759491 0.00400415 -0.00367587 -0.00782044 -0.0086267 -0.00146606 0.0046144 -0.00614575 0.00137508 0.00123872 0.00417719 -0.00419416 -0.00624562 0.00688705 0.0121585 0.00769617 -0.000459031
internal_weight=130531 64321.9 66209.5 38773.2 48083.1 25548.7 18602.4 21834.6 26248.5 6946.29 17673 16922 18126.4 16751 21100.2 18047.2 16991.9 11465.1 5247.84 15986.1 5526.86 12425.2 12286.9 14003.5 2748.19 8201.37 1730.6 480.776 1982.67 12577
internal_count=41297 17768 23529 11450 16578 6318 4738 7232 9346 1580 5458 4260 6951 4209 5992 6314 6502 4388 1673 4529 2114 3785 3741 3990 1030 3032 415 110 539 4075
is_linear=0
shrinkage=0.05


Tree=22
num_leaves=31
num_cat=0
split_feature=12 12 12 12 1 30 4 18 12 4 23 30 2 11 30 12 18 3 4 4 42 4 35 10 41 18 46 17 4 35
split_gain=1057.56 214.798 101.092 50.4378 26.1695 22.1283 20.6983 21.0574 13.2312 13.0621 12.6285 11.7488 14.8359 10.8517 13.1289 11.2224 10.4182 17.6959 10.2823 9.69604 8.94757 8.68807 8.66543 8.23164 7.28517 7.25119 6.93556 6.88133 6.12465 6.08127
threshold=1.5390720390720394 2.1120071684587818 0.99275362318840588 2.6690476190476193 15.000833333333334 2.5000000000000004 13.591666666666669 1.0000000180025095e-35 3.5051020408163267 14.158333333333335 8.8057290857917252 11.500000000000002 16.044583333333339 0.7947368421052633 5.5000000000000009 0.6478537360890303 1.0000000180025095e-35 21.410763888888891 17.008333333333336 18.025000000000002 57.000000000000007 21.241666666666671 -2.9351515151515142 1.9500000000000002 57.000000000000007 1.0000000180025095e-35 9.5000000000000018 1.0000000180025095e-35 21.891666666666669 0.020972222222223284
decision_type=2 2 2 2 2 2 2 2 2 2 2 2 2 2 2 2 2 2 2 2 2 2 2 2 2 2 2 2 2 2
left_child=2 4 13 9 -2 -5 24 11 22 -3 18 12 -8 14 -1 28 19 29 -9 26 -19 -12 -7 -11 -4 -25 -6 -13 -16 -18
right_child=1 3 6 5 16 8 7 10 -10 23 21 27 -14 -15 15 -17 17 20 -20 -21 -22 -23 -24 25 -26 -27 -28 -29 -30 -31
leaf_value=-0.0055328321179065089 -0.00079264179319788733 0.00095384379946094526 -0.005262667208954637 0.001620077216949549 -0.0022642884090936523 0.021463072516249546 -0.0010745461760056107 -0.0077780213327573499 0.011980370508810283 0.002955688393528515 -0.0026606794208020594 -0.0003935112581765474 0.0072279301580942595 -0.0062790201288080265 -0.01150817098020474 -0.0078118900970620356 -0.0037055994465488187 0.0034517947178903871 -0.0039358311209530053 0.004574247087985003 -0.0064524050305271412 0.0034688453049285875 0.0082845183395914047 0.0064940004494338059 0.0012260469458399239 0.0038438179012752192 0.0024116657439251094 -0.0030017497700489393 -0.0015537715519544839 0.00034267830377320111
leaf_weight=2773.0789725780487 10873.232495546341 1840.1212294101715 12164.110607624054 1056.4867660999298 882.2195782661438 125.79915571212769 1366.300089597702 2208.7994372844696 3213.3710834980011 2909.5619699954987 2215.1914093494415 4698.2545957565308 885.53511095046997 8569.228045463562 4644.2512125968933 5192.5053520202637 1948.4641518592834 4150.8892667293549 8318.8305160999298 5832.3109102249146 240.0547411441803 780.67159819602966 13598.165709495544 11101.60449552536 446.88675951957703 3384.3990750312805 7695.867241859436 5488.8520030975342 161.39523315429688 1765.6426606178284
leaf_count=1057 3500 544 4386 298 267 28 452 792 696 801 771 1551 273 3269 1853 2022 605 1220 2900 1689 72 263 3250 2944 156 894 2321 1829 61 533
internal_value=-1.19561e-05 0.0041334 -0.004898 0.00674483 0.00122129 0.00864813 -0.00336998 -0.00256219 0.0090861 0.0049638 -0.00392794 -0.00107676 0.00218995 -0.00765941 -0.00858466 -0.00942998 0.00219408 0.000759006 -0.0047431 0.00300078 0.00290784 -0.00106114 0.00840724 0.00538761 -0.00503226 0.00587549 0.00192997 -0.00179949 -0.0111753 -0.00178018
internal_weight=130532 70618.2 59913.9 37229.5 33388.7 17993.8 38573.4 25962.4 16937.3 19235.7 13523.5 12438.9 2251.84 21340.5 12771.2 9998.15 22515.4 8105.05 10527.6 14410.4 4390.94 2995.86 13724 17395.6 12611 14486 8578.09 10187.1 4805.65 3714.11
internal_count=41297 19662 21635 9455 10207 4272 13373 8831 3974 5183 4726 4105 725 8262 4993 3936 6707 2430 3692 4277 1292 1034 3278 4639 4542 3838 2588 3380 1914 1138
is_linear=0
shrinkage=0.05


Tree=23
num_leaves=31
num_cat=0
split_feature=12 12 12 12 4 30 12 18 4 11 0 4 18 4 4 18 3 4 18 0 1 3 42 35 30 18 1 36 43 29
split_gain=1006.5 201.767 97.7017 46.9785 24.8959 20.6325 19.9684 17.5756 12.3866 12.3341 12.0347 11.3038 10.8159 10.748 10.0083 10.2982 11.6993 11.0434 9.80978 10.3394 9.7857 9.33372 7.39569 6.8463 6.83953 6.72503 11.653 6.79548 6.68041 6.66811
threshold=1.5390720390720394 2.1120071684587818 0.99275362318840588 2.6690476190476193 17.925000000000004 2.5000000000000004 1.3162280701754387 1.0000000180025095e-35 16.091666666666672 3.4522727272727276 12.937083333333335 13.391666666666667 1.0000000180025095e-35 11.875000000000002 10.29166666666667 1.0000000180025095e-35 16.053755656108603 14.675000000000002 1.0000000180025095e-35 18.751666666666669 13.890238095238097 21.410763888888891 57.000000000000007 -1.6980128205128187 32.500000000000007 1.0000000180025095e-35 19.387500000000003 1.2270087328486541 97.000000000000014 0.03762660098168736
decision_type=2 2 2 2 2 2 2 2 2 2 2 2 2 2 2 2 2 2 2 2 2 2 2 2 2 2 2 2 2 2
left_child=2 4 13 8 7 -5 14 11 -3 24 28 -2 -6 -1 -4 16 -16 -17 20 -20 -15 -14 -23 -12 -7 27 -27 -10 -8 -22
right_child=1 3 6 5 12 9 10 -9 25 -11 23 -13 21 18 15 17 -18 -19 19 -21 29 22 -24 -25 -26 26 -28 -29 -30 -31
leaf_value=-0.0091231877258860176 -0.0016680072053956848 0.0024303295086113012 -0.0069275058879784378 0.0015773022312356459 0.0043626936194086008 0.0068691239761286584 -0.0052990264195953681 -0.0039736828135546829 0.0037511704543685938 0.011146197410602557 -0.0074966710136319878 0.0013157081685182829 -0.00073893607306062172 -0.0064511063830988416 -0.0033642509285742479 -0.0089865880248723839 0.0014135724338056408 -0.0042704009205395107 -0.0088557253929924824 -0.0053716289256241301 -0.0032686702149043612 0.0034611622625896638 -0.0059234389661566855 -0.00080714032772361422 0.0091800864834016283 -0.010406834769388489 0.0042365058597481605 0.0067690403722525886 0.0087964664295275396 0.0048147760104821817
leaf_weight=7061.8601071834564 4145.140486240387 4253.2756190299988 2863.5134479999542 1058.199738740921 6316.4873206615448 6529.9258856773376 2512.0174086093903 2364.3057570457458 2389.4404401779175 4177.3987987041473 395.9301540851593 13530.083993673325 2783.5127761363983 3118.4544415473938 10207.697186946869 1449.5016391277313 1463.012003660202 8765.5264687538147 6195.4869976043701 3269.1726398468018 1210.9252552986145 4069.9822883605957 220.08683395385742 10700.79389166832 6384.5915117263794 139.74113941192627 3828.9286646842957 8720.0318379402161 85.833182334899902 321.82471990585327
leaf_count=2847 1368 1217 1063 298 1823 1565 883 776 635 904 133 4144 840 1191 3610 534 473 3135 2440 1242 430 1190 66 3512 1505 38 1012 2281 30 112
internal_value=-1.20704e-05 0.00401375 -0.00480027 0.00653254 0.00118941 0.00835987 -0.00329763 7.37601e-05 0.00481627 0.00877938 -0.00176489 0.000615639 0.00285858 -0.00752748 -0.00414544 -0.00378091 -0.00276482 -0.00494093 -0.00672823 -0.00765351 -0.00484308 0.00151432 0.00297729 -0.00104693 0.00801261 0.00548876 0.00371715 0.0061208 -0.00482818 -0.00156613
internal_weight=130533 70911.1 59621.5 37481.5 33429.6 18150.1 38443.8 20039.5 19331.4 17091.9 13694.6 17675.2 13390.1 21177.7 24749.3 21885.7 11670.7 10215 14115.9 9464.66 4651.2 7073.58 4290.07 11096.7 12914.5 15078.1 3968.67 11109.5 2597.85 1532.75
internal_count=41297 19662 21635 9455 10207 4272 13373 6288 5183 3974 4558 5512 3919 8262 8815 7752 4083 3669 5415 3682 1733 2096 1256 3645 3070 3966 1050 2916 913 542
is_linear=0
shrinkage=0.05


Tree=24
num_leaves=31
num_cat=0
split_feature=12 12 12 12 1 4 18 30 4 12 30 2 18 0 12 30 1 29 29 41 4 41 30 17 4 25 1 1 10 30
split_gain=957.926 189.595 94.3967 43.786 23.9136 19.3583 19.6754 19.2502 11.8046 11.5306 11.1313 13.7138 10.6077 17.487 10.5219 20.6049 9.85842 8.44891 7.80123 7.67878 7.04466 6.98805 6.82948 6.57068 6.56824 6.49097 6.47529 6.76953 6.44188 6.3141
threshold=1.5390720390720394 2.1120071684587818 0.99275362318840588 2.6690476190476193 15.681101190476193 13.591666666666669 1.0000000180025095e-35 2.5000000000000004 14.158333333333335 3.2532051282051286 11.500000000000002 16.044583333333339 1.0000000180025095e-35 19.507500000000004 0.6478537360890303 5.5000000000000009 22.627500000000001 0.080944394299480651 0.05982159008844113 59.500000000000007 18.025000000000002 57.000000000000007 33.500000000000007 1.0000000180025095e-35 14.725000000000001 9.1743203775478577 9.8258333333333336 13.890238095238097 2.5857142857142863 32.500000000000007
decision_type=2 2 2 2 2 2 2 2 2 2 2 2 2 2 2 2 2 2 2 2 2 2 2 2 2 2 2 2 2 2
left_child=2 4 14 8 18 21 10 -5 -3 17 11 -7 20 -14 15 25 24 -9 29 28 -6 -4 -11 -12 -8 -1 -20 -28 -10 -2
right_child=1 3 5 7 12 6 16 9 19 22 23 -13 13 -15 -16 -17 -18 -19 26 -21 -22 -23 -24 -25 -26 -27 27 -29 -30 -31
leaf_value=-0.005575841770842525 -0.001795705081027535 0.00086678387619082788 -0.0050705276212114105 0.0015357232424984893 0.0020375459395052448 -0.00098610113444059155 -0.0085815025051321804 0.0070346299488489965 0.0045458143636718674 0.0088740344126619353 -0.000339665447079639 0.0069834781263917569 -0.0037942775600813636 0.0019862254739685904 -0.0066093368886159095 -0.010844258692796519 -0.00019903604257926854 0.011082143437945597 0.018965116708739342 -0.0045213611596485121 0.004421398304118699 0.0012933226822799838 0.012389767462877616 -0.0028927788950917021 -0.0039578957988996742 0.0072420115708334695 -0.0021217306888089847 0.0045154186501224916 0.0066404078056421321 0.00076521238803296842
leaf_weight=2083.2958045005798 7760.71062541008 1846.3590731620789 12045.813662052155 1059.8701655864716 6785.0613718032837 1361.2281489372253 828.64217066764832 9960.7397284507751 12060.918991804123 3433.9701931476593 4687.9222702980042 892.34732460975647 1645.2966318130493 6367.3275935649872 14084.117520093918 4749.0748562812805 1691.222550868988 1490.7217612266541 57.679427623748779 204.82277894020081 5727.7530834674835 445.73327851295471 2357.1974866390228 5461.5808167457581 10902.92418718338 102.5140962600708 610.24333930015564 1030.5268523693085 5312.6818208694458 3484.9015545845032
leaf_count=805 2496 544 4386 298 2030 452 302 2384 3211 756 1551 273 516 1880 5490 1928 574 344 19 58 1643 156 490 1829 3850 39 199 323 1370 1101
internal_value=-1.21686e-05 0.00389803 -0.00470402 0.00632826 0.00115839 -0.0032266 -0.00244444 0.00808356 0.00467378 0.00848564 -0.00100808 0.00216909 0.00221974 0.000798319 -0.00739683 -0.00899425 -0.00377114 0.00756288 -0.000524257 0.0050733 0.00312942 -0.00484296 0.0103078 -0.00171417 -0.00428561 -0.00496936 0.00263247 0.00204406 0.00518695 -0.00100166
internal_weight=130533 71196.8 59336.4 37727.3 33469.5 38317.4 25825.9 18302.5 19424.8 17242.6 12403.1 2253.58 20525.4 8012.62 21019 6934.88 13422.8 11451.5 12944.1 17578.4 12512.8 12491.5 5791.17 10149.5 11731.6 2185.81 1698.45 1640.77 17373.6 11245.6
internal_count=41297 19662 21635 9455 10207 13373 8831 4272 5183 3974 4105 725 6069 2396 8262 2772 4726 2728 4138 4639 3673 4542 1246 3380 4152 844 541 522 4581 3597
is_linear=0
shrinkage=0.05


Tree=25
num_leaves=31
num_cat=0
split_feature=10 10 10 32 32 18 32 18 18 1 1 3 18 32 18 3 10 23 1 23 3 1 23 38 37 30 36 37 10 23
split_gain=814.49 138.723 126.987 42.0656 24.8989 28.1238 23.6565 20.4282 20.3858 19.1349 17.8925 17.6172 15.1472 15.1282 13.1823 14.7004 12.6374 12.6247 11.3813 14.6229 11.3173 10.9761 10.9138 10.6591 9.9597 9.56951 8.96427 8.86217 10.1046 7.78511
threshold=1.6833333333333336 2.5634920634920637 1.0500000000000003 15.941666666666668 12.425000000000002 1.0000000180025095e-35 15.158333333333335 1.0000000180025095e-35 1.0000000180025095e-35 15.497291666666667 21.067500000000003 23.230223123732255 1.0000000180025095e-35 19.008333333333336 1.0000000180025095e-35 11.45156402737048 3.3166666666666669 8.8057290857917252 16.634166666666669 9.1345522958738012 13.88402777777778 15.045416666666668 8.7755915609300583 10.500000000000002 3.8901788521527156 5.5000000000000009 2.8498095438927837 2.0653837862631397 2.1547619047619051 9.351179079265437
decision_type=2 2 2 2 2 2 2 2 2 2 2 2 2 2 2 2 2 2 2 2 2 2 2 2 2 2 2 2 2 2
left_child=2 3 4 12 -1 20 14 18 27 -3 22 17 21 -10 15 -4 25 -9 -8 -20 24 -2 -7 -23 -6 -11 -27 28 -5 -29
right_child=1 9 6 8 5 10 7 11 13 16 -12 -13 -14 -15 -16 -17 -18 -19 19 -21 -22 23 -24 -25 -26 26 -28 29 -30 -31
leaf_value=-0.0080319101615011455 -0.00039690404907056717 0.0019853551053179543 -0.0059266704243343994 0.0021597829079182795 -0.0052666764530092851 -0.0080663680794296633 -0.00054868511594099154 -0.0038519307599388488 -0.0041751174133719563 0.0015702137868285127 -0.002181827375425723 0.0038266060743077424 -0.0044439148807938218 0.0022636754779315578 -0.0074112359209452874 -0.0018607356288997429 0.0094061625853829201 0.0003546499960130772 0.0022762699423157463 0.015685157046419314 -0.00099959383262954366 0.0024294892621014121 -0.0039734219021823293 0.022368660357286699 0.0058918482686968771 0.0069449680807927086 0.018668133321413101 0.0051901135464613585 0.0053434368717999656 0.010361250274438256
leaf_weight=10951.904677867889 8030.5540218353271 1635.0414071083069 2822.9418516159058 5965.1173982620239 3885.4911987781525 9077.3726525306702 5053.6498007774353 7232.036634683609 1034.1349022388458 836.88885855674744 1996.1278700828552 1112.9018940925598 1629.0838038921356 7662.2445182800293 1691.4893682003021 10492.916373491287 6679.7936758995056 2364.3919084072113 4163.0878345966339 212.99365282058716 4211.3883111476898 4143.350368976593 1995.0750730037689 67.219719886779785 209.59878730773926 13372.094767093658 164.98301291465759 6726.9816591739655 4293.2733232975006 819.38665556907654
leaf_count=4339 2568 454 1037 1695 1437 3517 1630 2509 317 232 716 343 545 2186 619 3604 1474 798 1244 62 1422 1220 758 19 77 3257 38 1839 1128 213
internal_value=-1.22289e-05 0.00407316 -0.00383048 0.00231481 -0.00609224 -0.00509785 -0.0017499 -0.000629745 0.00348241 0.00720142 -0.00654406 -0.0021241 8.34771e-05 0.00149704 -0.00325262 -0.00272346 0.00760615 -0.00281505 0.00106691 0.00293349 -0.0028214 0.000686718 -0.00732976 0.00275423 -0.00469303 0.00676871 0.00708958 0.0044517 0.00349306 0.00575356
internal_weight=130534 63060.1 67473.4 40371.3 32327 21375.1 35146.4 20139.1 26501.1 22688.8 13068.6 10709.3 13870.2 8696.38 15007.3 13315.9 21053.8 9596.43 9429.73 4376.08 8306.48 12241.1 11072.4 4210.57 4095.09 14374 13537.1 17804.8 10258.4 7546.37
internal_count=41297 17185 24112 11730 12266 7927 11846 6586 7378 5455 4991 3650 4352 2503 5260 4641 5001 3307 2936 1306 2936 3807 4275 1239 1514 3527 3295 4875 2823 2052
is_linear=0
shrinkage=0.05


Tree=26
num_leaves=31
num_cat=0
split_feature=12 12 11 12 12 4 30 0 4 4 11 4 30 12 12 34 29 4 35 0 23 41 35 29 12 30 35 42 29 4
split_gain=871.986 168.308 89.409 38.4711 24.232 21.455 18.2483 14.3583 12.0353 11.1481 9.83915 9.66862 9.30795 13.9045 9.27128 8.39769 8.2546 8.10416 6.81912 6.81264 6.83256 6.78002 6.66698 7.0215 6.62727 6.18557 6.57584 6.09702 5.96672 7.16413
threshold=1.5390720390720394 2.1120071684587818 0.85357142857142865 2.7252450980392164 1.2435728411338169 17.925000000000004 2.5000000000000004 12.937083333333335 14.158333333333335 10.29166666666667 1.6055555555555558 7.4083333333333341 12.500000000000002 0.6478537360890303 3.7788888888888894 1.3038461538461541 0.018326050431136779 13.658333333333335 -0.36666666666666664 13.688333333333334 8.7755915609300583 59.500000000000007 -1.6980128205128187 -0.10149376938868303 1.7956864564007422 2.5000000000000004 -0.019375000000001027 1.5000000000000002 0.03762660098168736 14.525000000000002
decision_type=2 2 2 2 2 2 2 2 2 2 2 2 2 2 2 2 2 2 2 2 2 2 2 2 2 2 2 2 2 2
left_child=2 5 11 8 9 17 -5 -6 -3 -4 24 -1 19 -14 16 18 -8 -2 -11 -13 -21 -10 -9 -24 27 -12 -27 -7 -19 -30
right_child=1 3 4 6 7 10 14 22 21 15 25 12 13 -15 -16 -17 -18 28 -20 20 -22 -23 23 -25 -26 26 -28 -29 29 -31
leaf_value=-0.012165900133531714 -0.0017017397460859136 0.00076670393140444281 -0.0072340835205701214 0.0013704775465216582 -0.004682519275451066 0.012193401432894452 0.0067844770484909323 -0.0066072523386679176 0.0050079870865697186 -0.0054054781083986677 -0.0032449873062446889 -0.0073159762723419277 -0.010998983088555023 -0.0069853490875063694 0.011739582409509799 0.014267695821094021 0.0092432891912379838 4.8952954051943006e-05 -0.0033920740230418836 -0.0049247899766106489 0.0016112503372854058 -0.0035491852763983277 -0.0056620848441055784 -0.00071239249942560727 0.0054176818891997856 0.0017678917858362721 0.004386052315648213 -0.0019831382529517387 0.0077084364036009174 0.0014665593858874204
leaf_weight=1071.3713369369507 4897.0523102283478 1941.4866824150085 2910.582870721817 1066.5612256526947 3703.3118357658386 77.865989923477173 8949.8488926887512 546.67984890937805 18803.339757680893 5957.1495981216431 350.17363333702087 2598.7303884029388 2976.5118880271912 7958.56613945961 1610.2027902603149 62.171898603439331 5575.9176323413849 11208.397189855576 14454.244044303894 2110.5768523216248 491.41964149475098 233.01365447044373 757.05773496627808 13215.051412582397 427.79796314239502 3648.6317791938782 7052.4858763217926 1937.1766283512115 531.3003261089325 3409.0405943393707
leaf_count=444 1617 567 1124 298 1333 24 2065 189 4879 2207 102 1054 1230 3117 328 22 1252 3466 5233 819 186 66 255 4422 128 1056 2004 605 165 1040
internal_value=-1.22673e-05 0.00368834 -0.00452507 0.00595852 -0.00327101 0.00110383 0.00771172 -0.00190343 0.0045203 -0.00433635 0.00264507 -0.00755667 -0.00724959 -0.00807922 0.00813044 -0.00392382 0.00772924 6.59833e-05 -0.00398018 -0.00550302 -0.00368831 0.0049028 -0.00119395 -0.000981328 -0.00022462 0.00327982 0.00349409 -0.00142707 0.00063783 0.0023112
internal_weight=130534 71720.3 58813.4 38180.4 41606.2 33539.9 17202.5 18222.1 20977.8 23384.1 13494.1 17207.2 16135.8 10935.1 16136 20473.6 14525.8 20045.8 20411.4 5200.73 2602 19036.4 14518.8 13972.1 2442.84 11051.3 10701.1 2015.04 15148.7 3940.34
internal_count=41297 19662 21635 9455 14785 10207 3943 6199 5512 8586 3919 6850 6406 4347 3645 7462 3317 6288 7440 2059 1005 4945 4866 4677 757 3162 3060 629 4671 1205
is_linear=0
shrinkage=0.05


Tree=27
num_leaves=31
num_cat=0
split_feature=12 12 12 12 1 12 30 2 18 32 32 12 32 18 1 3 32 18 3 42 35 35 32 46 26 32 36 12 18 1
split_gain=829.956 158.311 85.912 36.0645 20.6412 17.5439 16.3399 10.1927 13.7721 10.074 10.0073 9.72242 9.49888 9.33898 9.85353 9.79822 9.2933 8.43962 14.8404 8.02024 7.64807 7.46744 7.1868 6.5515 6.43986 6.55009 11.1279 6.06092 5.95203 10.8231
threshold=1.5390720390720394 2.1120071684587818 0.99275362318840588 2.6690476190476193 15.000833333333334 1.3237365368682685 2.5000000000000004 12.337083333333336 1.0000000180025095e-35 16.091666666666672 20.991666666666671 3.5051020408163267 10.29166666666667 1.0000000180025095e-35 21.00416666666667 16.053755656108603 11.958333333333334 1.0000000180025095e-35 21.410763888888891 57.000000000000007 -2.9351515151515142 -0.75999999999999879 18.025000000000002 9.5000000000000018 1.0000000180025095e-35 13.391666666666667 1.8305164962692515 0.75181159420289867 1.0000000180025095e-35 19.387500000000003
decision_type=2 2 2 2 2 2 2 2 2 2 2 2 2 2 2 2 2 2 2 2 2 2 2 2 2 2 2 2 2 2
left_child=2 4 7 9 24 12 -5 27 -9 -3 -10 20 -4 15 -15 -14 -7 22 -19 -20 -8 -18 23 -6 -2 -26 -27 -1 -11 -30
right_child=1 3 5 6 17 16 11 8 10 28 -12 -13 13 14 -16 -17 21 18 19 -21 -22 -23 -24 -25 25 26 -28 -29 29 -31
leaf_value=-0.0097683078178879262 -0.001945213702040376 0.0021379613992395306 -0.0065378209161702176 0.0013346295462467292 -0.0023416387001260574 -0.0048219993189745312 0.019076825868148604 -0.0035533083274289648 -0.0078878869721226898 0.005465980168564484 -0.0034026840748075052 0.010125753369463999 -0.0030495583409231837 -0.0055557534084398168 -0.0021111268615901188 0.0012571278022147352 -0.0038810945744541881 -0.0016968725785968431 0.0030961088936088958 -0.0063113717051640483 0.0070230327038093114 -0.00043909400082162934 0.0039886422469372785 0.0021941987972933547 -0.0019991828734850191 0.0009993648628441789 0.012574061840730448 -0.0068896189173803316 -0.010395717217081995 0.0037173084853004122
leaf_weight=4207.22043800354 5390.520364522934 4299.3988077640533 2827.0888409614563 1068.0239279270172 885.25757217407227 1864.8136239051819 132.6905460357666 3603.0601871013641 8007.7835147380829 11349.620387554169 1479.8628985881805 3383.9167935848236 10236.962830781937 7238.4605920314789 2920.8868253231049 1513.9595165252686 1890.8038244247437 3700.7281723022461 4203.7719337940216 238.21885323524475 14136.750110149384 9465.1012184619904 5950.8488435745239 7757.8065478801727 1776.4718768596649 3453.299736738205 220.0987594127655 3292.2549960613251 139.63273024559021 3898.5863678455353
leaf_count=1749 1745 1217 1076 298 267 666 28 1373 3241 2916 562 696 3668 2677 1034 490 644 1138 1220 72 3250 3118 1689 2321 592 1096 67 1337 38 1012
internal_value=-1.23021e-05 0.00358323 -0.00443311 0.00577556 0.00107517 -0.0030221 0.00734719 -0.00703379 -0.00618923 0.00428049 -0.00718925 0.00771057 -0.00380807 -0.00345534 -0.0045662 -0.00249421 -0.00155091 0.00193121 0.00064065 0.00258916 0.0071368 -0.00101293 0.00265085 0.00172882 -0.000719828 0.00049143 0.00169748 -0.00850632 0.00487862 0.00322562
